/**
 * Hoopi Pedal - Dual-channel guitar and vocal effects processor
 * Copyright (c) 2025-2026 Scope Creep Labs LLC
 * SPDX-License-Identifier: MIT
 */

// Model: AMPEG DRIVE NANO
// Architecture: WaveNet, Channels: 4, Head: 2
// Weights: 842, Head scale: 0.02
#pragma once

// Raw float array for NamWavenet::load_weights()
static const float ampeg_drive_nano_weights[842] = {
    -0.3774172067642212f, 1.0524585247039795f, -1.4123845100402832f, -1.2239975929260254f, 0.3851586878299713f,
    0.7433270215988159f, 0.2805320620536804f, -0.2837778925895691f, -0.6819481253623962f, -0.23213829100131989f,
    0.40692922472953796f, 0.5638337731361389f, 0.017003094777464867f, 0.30370569229125977f, 0.5048013925552368f,
    0.3020319938659668f, 0.05258530005812645f, 0.7714940905570984f, 0.2626248598098755f, -0.05914042145013809f,
    -0.4246366024017334f, -0.22282953560352325f, -0.15482474863529205f, 0.6789071559906006f, 0.395971417427063f,
    -0.06044558435678482f, 0.7341997623443604f, 0.17400267720222473f, -0.39870986342430115f, -0.20152196288108826f,
    -0.04420270025730133f, 0.5277071595191956f, 0.012608181685209274f, -0.12977880239486694f, -0.47742176055908203f,
    -0.4639768600463867f, -0.16854174435138702f, -0.02797355130314827f, -0.06491700559854507f, 0.14107128977775574f,
    0.049197062849998474f, 0.36517733335494995f, 0.4147219657897949f, -0.2987707853317261f, -0.6781715750694275f,
    -0.5105755925178528f, 0.1766076683998108f, 0.5753401517868042f, 0.19365395605564117f, -0.01487310416996479f,
    0.5960754752159119f, 0.6074725389480591f, 0.15998777747154236f, -0.021950233727693558f, 0.22170251607894897f,
    -0.27446362376213074f, -0.10713165998458862f, -1.216499924659729f, -0.6841091513633728f, -0.8313957452774048f,
    -0.016235901042819023f, 0.12925317883491516f, -0.18190476298332214f, 0.3300155699253082f, 0.017973294481635094f,
    -1.0857709646224976f, -0.22825887799263f, -0.5121203064918518f, 0.3554924726486206f, 1.084625482559204f,
    -0.28131410479545593f, 0.18475940823554993f, 0.12195980548858643f, 0.669460117816925f, 0.646098792552948f,
    0.6630651354789734f, 0.17122116684913635f, -0.44373708963394165f, 0.045409195125103f, -0.16405068337917328f,
    -0.4331829249858856f, 0.2756931781768799f, 0.29525333642959595f, -0.1379045993089676f, 0.03415849804878235f,
    -0.11913517862558365f, -0.25728750228881836f, -0.08312798291444778f, 0.20287585258483887f, -0.3668394684791565f,
    0.11170985549688339f, 0.16166876256465912f, 0.1644412726163864f, -0.02177385240793228f, -1.2684156894683838f,
    -0.09052465856075287f, 0.3057872951030731f, 0.9443462491035461f, -0.5973414778709412f, -0.570939838886261f,
    -1.0139542818069458f, 0.0793938860297203f, -0.20522883534431458f, -0.6415666937828064f, 0.01917261816561222f,
    0.24396884441375732f, -0.04198705032467842f, -0.2259109765291214f, -0.0349043607711792f, 0.0021412346977740526f,
    0.12564785778522491f, 0.399088978767395f, -0.0975559800863266f, 0.4186744689941406f, 0.3073849380016327f,
    -0.24300336837768555f, -0.3089272379875183f, -0.13500873744487762f, -0.3162769675254822f, 0.09040583670139313f,
    0.12793509662151337f, 0.32497647404670715f, -0.9221225380897522f, -0.4163287281990051f, -1.307837963104248f,
    -0.6893476247787476f, -0.46557047963142395f, -1.2732595205307007f, -0.11309170722961426f, -0.4375602602958679f,
    0.0719056949019432f, 0.14015838503837585f, -0.29972317814826965f, 1.4013457298278809f, 0.7616626620292664f,
    1.1927485466003418f, -0.4973475933074951f, 0.7024033665657043f, -0.20618122816085815f, 0.5868872404098511f,
    -0.7241403460502625f, -0.23916800320148468f, 0.31342703104019165f, -0.2738302946090698f, -0.9314486980438232f,
    -0.6045379042625427f, 0.5078334212303162f, -0.2811744511127472f, -0.7796545028686523f, -0.4646781384944916f,
    -0.5494385957717896f, -0.4183306396007538f, -0.08119194209575653f, 0.2717195153236389f, 0.16574814915657043f,
    -0.37238284945487976f, -0.11705490201711655f, -0.03206299990415573f, -0.05506571754813194f, 0.23083741962909698f,
    -0.21009686589241028f, 0.2317720502614975f, -0.31462717056274414f, -0.4185401499271393f, -0.05518519505858421f,
    0.030815791338682175f, -0.052093181759119034f, 0.18192145228385925f, -0.27455341815948486f, -0.14161372184753418f,
    -0.06425383687019348f, 0.7660136222839355f, 0.818818211555481f, 0.7517590522766113f, -0.5888329148292542f,
    0.011169728823006153f, -0.3268592953681946f, -0.1251954436302185f, 0.0671921968460083f, -0.36285462975502014f,
    -0.5573651194572449f, -0.5977268218994141f, 0.5662285089492798f, 0.11752121150493622f, 0.09912149608135223f,
    0.5915729403495789f, 0.367256760597229f, 0.26843446493148804f, -0.5894442796707153f, 0.20548437535762787f,
    0.2640441954135895f, -0.3796442151069641f, -0.15930446982383728f, 0.3170114755630493f, -0.29738667607307434f,
    0.20097871124744415f, -0.1731916069984436f, 0.4351508915424347f, -0.4697960317134857f, -0.12535309791564941f,
    0.42333847284317017f, -0.04640423506498337f, -0.19269219040870667f, -0.011364240199327469f, -0.2064165472984314f,
    0.08635203540325165f, 0.06982681155204773f, 0.23241059482097626f, 0.4495295286178589f, 1.5165231227874756f,
    1.2428628206253052f, -0.7311809659004211f, 0.32592540979385376f, -0.12721559405326843f, 0.22228802740573883f,
    -0.0672738254070282f, -0.9515769481658936f, -0.05060478299856186f, 0.15272557735443115f, -0.9837637543678284f,
    -0.4071124494075775f, 0.8352551460266113f, 0.3235693871974945f, 0.1406201422214508f, -0.579653799533844f,
    0.1644047647714615f, -0.6969715356826782f, -0.2299061119556427f, -0.08794336020946503f, -0.05472847446799278f,
    -0.15360549092292786f, 0.41544896364212036f, -0.19772055745124817f, 0.1784881353378296f, 0.010394802317023277f,
    -0.26107510924339294f, 0.1858522593975067f, 0.5131606459617615f, -0.3823055624961853f, -0.060183797031641006f,
    0.22951039671897888f, -0.25336867570877075f, 0.18403154611587524f, 0.012751071713864803f, 0.2561912536621094f,
    -0.8224160075187683f, 0.2706231474876404f, -0.8393368124961853f, 0.43028026819229126f, -0.0024223201908171177f,
    -0.36511093378067017f, 0.7530592679977417f, 0.09944259375333786f, -0.4479389786720276f, -0.5099061131477356f,
    -0.20113500952720642f, -0.18109188973903656f, 0.014520561322569847f, -0.3500666320323944f, -0.2879509925842285f,
    0.0962868183851242f, 0.3272639513015747f, -0.1535765379667282f, 0.07098544389009476f, 0.18117617070674896f,
    -0.26080086827278137f, -0.5195220708847046f, 0.5196771621704102f, 0.20528694987297058f, 0.6540639400482178f,
    -1.5397075414657593f, -0.14571323990821838f, -0.07560092210769653f, -0.052273668348789215f, -0.6757485270500183f,
    -1.1518875360488892f, 0.7204076647758484f, 0.170419380068779f, -0.6717889308929443f, 2.8801519870758057f,
    0.012385986745357513f, -0.21845205128192902f, -0.16718940436840057f, 0.24147169291973114f, 1.2030574083328247f,
    -0.43311139941215515f, -0.37109124660491943f, -0.3392130732536316f, -0.11855878680944443f, -0.2250666320323944f,
    0.8962685465812683f, -0.377433717250824f, -0.3574647009372711f, -0.2438257783651352f, -0.3648458421230316f,
    -0.0818651020526886f, 0.7704398036003113f, -0.6670058965682983f, -0.14225491881370544f, 0.531356155872345f,
    0.84127277135849f, 0.22924546897411346f, -1.0999125242233276f, 0.28422772884368896f, 0.11108580231666565f,
    -0.2840062081813812f, 0.06632668524980545f, 0.04985848814249039f, 0.16254691779613495f, -0.116022489964962f,
    -0.10165596753358841f, -0.22333092987537384f, 0.0652560442686081f, 0.02681722864508629f, 0.2513246238231659f,
    0.19923512637615204f, -0.18575334548950195f, -0.21576130390167236f, -0.04353330656886101f, -0.24009713530540466f,
    0.05063481256365776f, 0.2475329339504242f, -0.3417689800262451f, 0.4278861880302429f, -0.13651823997497559f,
    -0.22084186971187592f, 0.2535408139228821f, -0.0628696084022522f, 0.019060950726270676f, -0.10063771903514862f,
    0.10006193816661835f, -0.45486730337142944f, 0.33472004532814026f, -0.4006950557231903f, -0.768604576587677f,
    -0.9728550910949707f, -0.025807112455368042f, 0.6669588685035706f, -0.2800025939941406f, 0.716061532497406f,
    -0.04141153022646904f, 1.0734812021255493f, 1.5197062492370605f, 0.03511132672429085f, 0.4299828112125397f,
    0.8000150918960571f, 0.7891830801963806f, 0.5082470178604126f, -0.49098971486091614f, -0.20865899324417114f,
    0.4117913544178009f, 0.17828308045864105f, 0.13132095336914062f, -0.8119611144065857f, -0.1739582121372223f,
    0.7035036683082581f, -0.14574435353279114f, 0.0014870839659124613f, -0.28766146302223206f, 0.02698434703052044f,
    -2.1243784427642822f, -1.8773846626281738f, -1.2389309406280518f, 0.05861813947558403f, 0.16025106608867645f,
    1.2403420209884644f, 0.034817133098840714f, -0.9532105922698975f, -0.9386003017425537f, -0.009244156070053577f,
    -0.007814723066985607f, 0.01059846393764019f, -1.3454595804214478f, -1.3665791749954224f, -0.20799650251865387f,
    -0.46919751167297363f, 0.9285311102867126f, 0.4722685217857361f, 0.09769272804260254f, 0.3528130352497101f,
    0.3070688843727112f, 0.0956960916519165f, 0.2637784779071808f, 0.24498429894447327f, -0.07470136880874634f,
    -0.01079685240983963f, 0.47458508610725403f, -0.051726922392845154f, -0.12021531164646149f, 0.4770680367946625f,
    0.033193256705999374f, 0.014634944498538971f, 0.026491036638617516f, -0.2926119863986969f, 0.0880206972360611f,
    0.1705472320318222f, -0.3752235174179077f, 0.1297052800655365f, 0.7832480669021606f, -0.05078493803739548f,
    0.2950039505958557f, -0.027846598997712135f, -0.31775152683258057f, -0.1936398297548294f, 0.15590038895606995f,
    0.027037320658564568f, 0.4072681665420532f, 0.4098268449306488f, -0.04459443688392639f, -0.49720028042793274f,
    -0.08004416525363922f, 0.019465502351522446f, -0.1462218314409256f, -0.32962608337402344f, 0.23100365698337555f,
    0.08299847692251205f, -0.04989873245358467f, -0.3388514816761017f, -0.4907754063606262f, 0.40445104241371155f,
    -0.08512912690639496f, 0.15083056688308716f, -0.33738017082214355f, -0.1593962460756302f, 0.2930864989757538f,
    -0.009163543581962585f, -0.17879585921764374f, -0.11021674424409866f, 0.14748768508434296f, 0.2780153155326843f,
    0.47911810874938965f, 0.3033703863620758f, 0.1897411197423935f, -0.00012220529606565833f, -0.10055913776159286f,
    -0.17835575342178345f, -2.0017669200897217f, -0.33598220348358154f, 0.30086749792099f, -0.41100335121154785f,
    -0.7690374255180359f, -0.9632988572120667f, -0.5700929164886475f, 0.6468184590339661f, -1.0303318500518799f,
    0.4625185430049896f, 0.38390493392944336f, 0.6068422794342041f, -0.31557416915893555f, -0.45925456285476685f,
    0.9658136367797852f, 0.7109814882278442f, 0.9575955271720886f, 0.337188720703125f, -0.81257164478302f,
    0.01839621551334858f, 0.12848609685897827f, 0.35650286078453064f, -0.08122294396162033f, -0.2877536118030548f,
    -0.15254905819892883f, 0.09067629277706146f, -0.2144017517566681f, -1.058969259262085f, 0.05456441640853882f,
    0.24518515169620514f, 0.4232182800769806f, -0.0172345582395792f, -0.025333238765597343f, -0.1235431656241417f,
    0.023004435002803802f, -0.1947842687368393f, 0.6105186343193054f, -0.8295372724533081f, -0.17889349162578583f,
    -1.8050674200057983f, -0.26752808690071106f, -0.15647071599960327f, -3.1545250415802f, 0.02455681562423706f,
    0.0308078583329916f, 0.4709045886993408f, 0.004888266324996948f, -0.00467692781239748f, -0.34317827224731445f,
    0.14493490755558014f, -0.4456731677055359f, -0.3048743009567261f, -0.11773887276649475f, -0.07755330204963684f,
    0.07853531837463379f, 0.02602379582822323f, -0.0634390264749527f, 0.29803353548049927f, 0.29173654317855835f,
    0.03718729689717293f, -0.6406394243240356f, -0.4443557560443878f, 0.6494309306144714f, 0.0709972083568573f,
    -0.14366324245929718f, 0.4949713349342346f, -0.1331506222486496f, 0.04276617616415024f, -0.07966616004705429f,
    -0.4768916368484497f, -0.2504163980484009f, 0.5387553572654724f, -0.05349048972129822f, -0.07390335202217102f,
    -0.24841251969337463f, 0.2764419913291931f, -0.22066587209701538f, -0.1028195172548294f, 0.18083864450454712f,
    0.7799104452133179f, 0.7689879536628723f, -0.4716894328594208f, 1.4287012815475464f, -0.08553503453731537f,
    0.21595513820648193f, -0.3298815190792084f, 0.5059130787849426f, -0.8421362638473511f, -0.2650168240070343f,
    -0.08583154529333115f, 0.28207144141197205f, 0.2090906947851181f, 0.41723060607910156f, -0.7154127955436707f,
    0.828794002532959f, 0.7001913189888f, -0.29479679465293884f, -0.29950717091560364f, -0.4235936105251312f,
    -0.02064259722828865f, 0.07848978042602539f, -0.1708679497241974f, -0.22650542855262756f, -0.014424044638872147f,
    -0.5111226439476013f, -0.10222836583852768f, -0.04967634752392769f, -0.09958487004041672f, 0.24626818299293518f,
    0.23892876505851746f, -0.04365413635969162f, -0.1332157999277115f, -0.06407640129327774f, 0.5158033967018127f,
    -0.15628302097320557f, -0.3070073425769806f, 0.042276203632354736f, -0.1427784413099289f, 0.016152892261743546f,
    -0.19595034420490265f, -0.2551939785480499f, -0.42202189564704895f, 0.7491469979286194f, 0.2552865743637085f,
    -0.45009779930114746f, -0.05321483686566353f, 0.1696041226387024f, 0.2415434569120407f, -0.11073485761880875f,
    0.2862066626548767f, -1.1029096841812134f, -0.29267004132270813f, 0.12201767414808273f, 0.36886027455329895f,
    1.1806302070617676f, 0.7179280519485474f, -0.12336134910583496f, -0.3947434425354004f, -1.000180959701538f,
    1.0490601062774658f, 0.287788063287735f, 0.03851936385035515f, 0.6433495283126831f, -0.24325087666511536f,
    -0.3173429071903229f, -0.4276577830314636f, -0.22609259188175201f, -0.09527701139450073f, 0.297867089509964f,
    -0.011440160684287548f, 0.2946392893791199f, 0.2100275307893753f, 0.8644911646842957f, -0.34480157494544983f,
    -0.8276736736297607f, 0.04126860201358795f, -1.2335330247879028f, 0.34800204634666443f, 0.19165657460689545f,
    0.3158348500728607f, -0.6072657704353333f, -0.031164370477199554f, -0.4252737760543823f, 0.18047486245632172f,
    0.42969587445259094f, -0.01457652822136879f, -0.09903507679700851f, -0.0035113063640892506f, -0.018458742648363113f,
    -0.0013228633906692266f, 0.05235425382852554f, -0.3780316114425659f, 0.0004534270556177944f, -0.051141250878572464f,
    0.6968817114830017f, -1.4186468124389648f, -0.15689195692539215f, 1.8164697885513306f, 0.389161080121994f,
    0.6409461498260498f, 0.2453693002462387f, 0.0835646539926529f, 0.5767778754234314f, 1.4240707159042358f,
    -1.4236841201782227f, -0.028724493458867073f, 0.10944953560829163f, -0.03858068212866783f, 0.03376047685742378f,
    0.169988214969635f, -0.13771390914916992f, -0.216577410697937f, -0.3066430985927582f, 0.3303435444831848f,
    -0.04417850077152252f, 0.04557560384273529f, 0.24216574430465698f, 0.22195246815681458f, 0.35309115052223206f,
    0.4340328574180603f, 0.14692679047584534f, -1.695267677307129f, -0.3944171071052551f, 0.3151015639305115f,
    0.614745020866394f, 0.6531259417533875f, -0.12861596047878265f, -0.15437330305576324f, -0.39715418219566345f,
    0.49347689747810364f, -0.0336175300180912f, -0.4299369156360626f, -0.3611004054546356f, 1.4433413743972778f,
    0.8482943773269653f, 1.1485134363174438f, 0.4071846306324005f, -0.5878956913948059f, -0.8418681025505066f,
    0.6686903238296509f, 0.7166991233825684f, 0.8297485113143921f, -0.7298877835273743f, 0.5879406332969666f,
    -0.22089464962482452f, -0.009962249547243118f, 1.1277408599853516f, -0.8263767957687378f, 1.149299144744873f,
    1.8856538534164429f, 1.1380916833877563f, 1.7665010690689087f, 0.29733559489250183f, 0.21583952009677887f,
    -0.25308436155319214f, -0.5047250986099243f, -0.19374780356884003f, 0.3585870862007141f, 0.18060694634914398f,
    0.19506756961345673f, -1.44965398311615f, -0.9455220699310303f, -0.2244148850440979f, -1.5567883253097534f,
    -0.1262766420841217f, -0.6313681602478027f, -0.07657121121883392f, 0.11677975207567215f, -0.023063410073518753f,
    -0.49483421444892883f, 0.4637037217617035f, -0.18872718513011932f, 0.12082097679376602f, -0.26577985286712646f,
    -0.18848885595798492f, -0.18550117313861847f, -0.038112714886665344f, 0.1568640023469925f, 0.08649913221597672f,
    -0.6973530054092407f, 0.15279455482959747f, -0.2146637886762619f, 0.07053021341562271f, 1.6948212385177612f,
    0.37114638090133667f, 1.2143969535827637f, -1.4378350973129272f, 0.7746115922927856f, -0.4517423212528229f,
    0.1406724452972412f, 0.08897660672664642f, -0.0640517845749855f, -0.11280907690525055f, 0.9680426716804504f,
    0.2820567488670349f, -0.570005476474762f, -0.048992354422807693f, -0.1642514318227768f, -0.06865788996219635f,
    -0.42905300855636597f, -0.24302636086940765f, 0.33987995982170105f, 1.2314938306808472f, 0.2208755761384964f,
    0.9228254556655884f, -0.6721534132957458f, -0.13759832084178925f, 0.403494268655777f, 0.6066155433654785f,
    -1.4028433561325073f, 0.5208696126937866f, -0.40359604358673096f, 0.287855863571167f, 0.6860498189926147f,
    -0.06347274035215378f, 0.9436395764350891f, -0.0957760214805603f, -0.13566885888576508f, -0.21061283349990845f,
    -0.7086654901504517f, -0.026303380727767944f, -0.32054805755615234f, -0.06075419485569f, -0.056500352919101715f,
    -1.2441743612289429f, -0.5403006672859192f, -2.2010281085968018f, 0.5960113406181335f, -0.20991212129592896f,
    0.6738471388816833f, 0.046243056654930115f, -0.3266867995262146f, -0.1576758474111557f, 0.038620006293058395f,
    0.059464458376169205f, 0.0004178876697551459f, 0.5292019248008728f, 0.09830440580844879f, 0.2957708537578583f,
    0.09195143729448318f, 0.04789760336279869f, -0.1829640120267868f, -0.42533138394355774f, -0.2502613663673401f,
    -0.2951962649822235f, 0.16398024559020996f, 0.2646249532699585f, -0.41558152437210083f, -0.7040086984634399f,
    -0.4263523817062378f, -1.2134462594985962f, 0.5233614444732666f, 0.3356350362300873f, 0.04815926402807236f,
    -0.26621580123901367f, -0.7176926136016846f, 0.32420074939727783f, 0.10793214291334152f, 0.2422066181898117f,
    0.026852022856473923f, 0.5356820821762085f, -0.13061240315437317f, -0.10537229478359222f, -0.3718382716178894f,
    0.12029305845499039f, 0.08641871809959412f, 0.08776992559432983f, 0.030691247433423996f, -0.9771910309791565f,
    -0.26368269324302673f, -2.1310172080993652f, 0.6038836240768433f, -0.29641419649124146f, -0.46046730875968933f,
    0.8756982684135437f, -0.10051070153713226f, 0.6019416451454163f, 0.001174718956463039f, -0.282662034034729f,
    0.026771947741508484f, -0.0299130380153656f, -0.13633695244789124f, -0.3549281358718872f, 0.13713465631008148f,
    0.01466060895472765f, -0.3859248161315918f, -0.1502346247434616f, -0.004004775546491146f, 0.20001919567584991f,
    0.07284212857484818f, 0.5995349287986755f, -0.18811164796352386f, 1.4211164712905884f, 1.1739296913146973f,
    0.18725977838039398f, -0.4729211926460266f, -0.010741655714809895f, -2.7627389430999756f, 0.07445519417524338f,
    -0.3381853997707367f, -0.2889411151409149f, -0.2760878801345825f, 0.13562358915805817f, -0.05038193613290787f,
    0.16933098435401917f, -0.0017278126906603575f, 0.09343874454498291f, 0.13708359003067017f, 0.2134634405374527f,
    0.02757599577307701f, -0.09777931869029999f, 0.1080072894692421f, -0.9174883365631104f, -0.326263427734375f,
    0.9644576907157898f, -0.6725320219993591f, 0.07090878486633301f, -0.2630368769168854f, -0.5921692252159119f,
    0.2861429452896118f, 0.09047992527484894f, -0.2831847667694092f, -0.38996797800064087f, 1.0634015798568726f,
    -0.12951239943504333f, 0.019999999552965164f
};

static const float ampeg_drive_nano_head_scale = 0.02f;
