/**
 * Hoopi Pedal - Dual-channel guitar and vocal effects processor
 * Copyright (c) 2025-2026 Scope Creep Labs LLC
 * SPDX-License-Identifier: MIT
 */

// Model: Fender Deluxe Reverb - V5, T6, B4, Klon Gain 10, SM57 - Nano
// Architecture: WaveNet, Channels: 4, Head: 2
// Weights: 842, Head scale: 0.02
#pragma once

// Raw float array for NamWavenet::load_weights()
static const float fender_deluxe_reverb_v5_t6_b4_klon_gain_10_sm57_nano_weights[842] = {
    0.4125284254550934f, 0.8922041058540344f, 0.06442426145076752f, -0.9557670950889587f, -0.4783731997013092f,
    -0.014074919745326042f, -0.19703927636146545f, 0.08981006592512131f, 0.04061155393719673f, 0.15576034784317017f,
    0.021902991458773613f, -0.3342839777469635f, -0.2585626542568207f, -0.06144900619983673f, -0.18446078896522522f,
    -0.06860093772411346f, 0.6393032073974609f, 0.5119821429252625f, -0.5738062262535095f, 0.45463675260543823f,
    0.42665523290634155f, 0.037682268768548965f, -0.22087474167346954f, -0.20179115235805511f, 0.06601583957672119f,
    -0.5384289026260376f, -0.0425422266125679f, -0.06507153064012527f, -0.001044876524247229f, -0.08041008561849594f,
    -0.0347105897963047f, 0.4265701472759247f, -0.16792044043540955f, -0.12940940260887146f, -0.30489933490753174f,
    -0.05734457075595856f, -0.1479191780090332f, 0.07854855060577393f, 0.10945408046245575f, 0.13727572560310364f,
    0.15874843299388885f, -0.44089365005493164f, 0.12282004952430725f, 0.007117971312254667f, -0.33025962114334106f,
    0.026521770283579826f, 0.09613637626171112f, 0.45340460538864136f, -0.2037435919046402f, -0.28211069107055664f,
    0.29586362838745117f, 0.11628850549459457f, 0.12697221338748932f, -0.013594343326985836f, 0.2877458930015564f,
    -0.05815337598323822f, 0.30553850531578064f, -0.9475101828575134f, -0.7226863503456116f, -0.36107394099235535f,
    0.8882285952568054f, 0.8518331050872803f, -0.7975013256072998f, -0.4513125717639923f, 0.5128613114356995f,
    -0.2689642310142517f, -0.22343315184116364f, -0.07880319654941559f, 0.8302828073501587f, 1.1772785186767578f,
    -0.8328759670257568f, -0.5711489319801331f, -0.019962942227721214f, 0.2193000465631485f, 0.7040492296218872f,
    0.6773974895477295f, 0.09827880561351776f, -0.31092190742492676f, 0.04486347362399101f, -0.2012711763381958f,
    -0.3995392918586731f, 0.1411445587873459f, 0.4121987521648407f, -0.36556535959243774f, -0.18596526980400085f,
    0.14207182824611664f, -0.15761715173721313f, -0.13979095220565796f, 0.3579808175563812f, -0.19197650253772736f,
    0.48487022519111633f, -0.15139742195606232f, -0.057111386209726334f, -0.03218832612037659f, 0.015027696266770363f,
    -0.3943506181240082f, -0.10890253633260727f, 0.21894432604312897f, -0.4615189731121063f, -0.2027682363986969f,
    0.62677001953125f, 0.36653268337249756f, 0.27011361718177795f, -0.4292933940887451f, -0.3785196840763092f,
    0.10071704536676407f, 0.05656064301729202f, -0.40479162335395813f, 0.025445785373449326f, 0.2755553126335144f,
    -0.3233094811439514f, 0.14796334505081177f, -0.003746721660718322f, 0.428104966878891f, 0.17394214868545532f,
    -0.604808509349823f, 0.24313680827617645f, -0.10112173855304718f, -0.0750078335404396f, 0.18853580951690674f,
    0.13932888209819794f, -0.022140443325042725f, 0.24979928135871887f, -0.017047882080078125f, -0.3023901879787445f,
    -0.16323421895503998f, -0.037190940231084824f, 0.03642594814300537f, -0.06946443766355515f, -0.18473725020885468f,
    0.0011206598719581962f, 0.051717065274715424f, -0.2301318347454071f, 0.4271659553050995f, 1.1097772121429443f,
    -0.17713390290737152f, -0.6368948817253113f, -0.5352296233177185f, 0.4851713478565216f, 1.0633907318115234f,
    0.6818364262580872f, 0.5562235713005066f, 0.691615104675293f, -0.23521077632904053f, -0.9472267627716064f,
    -0.24013927578926086f, 0.6069632172584534f, 0.9850191473960876f, -0.4464374780654907f, -0.7275969386100769f,
    -0.5601708889007568f, -0.28377968072891235f, -0.0942065566778183f, 0.2760425806045532f, 0.27788737416267395f,
    -0.4228055775165558f, -0.026015089824795723f, -0.3310810327529907f, 0.2812480032444f, 0.1207089051604271f,
    -0.041845474392175674f, 0.09870026260614395f, -0.40577220916748047f, -0.26235416531562805f, 0.35909268260002136f,
    0.034658096730709076f, 0.010860167443752289f, -0.028721030801534653f, -0.6222493648529053f, 0.04370168223977089f,
    0.6817820072174072f, 0.5800211429595947f, 1.4623234272003174f, -0.12795709073543549f, -0.6731798052787781f,
    0.13984903693199158f, 0.2691987156867981f, 0.03363776579499245f, -0.053265996277332306f, -0.17652474343776703f,
    -0.025549614802002907f, -0.0672939196228981f, 0.16912828385829926f, 0.4763079881668091f, -0.1004679724574089f,
    0.05183706432580948f, 0.03237398341298103f, 0.06891632825136185f, -0.1329796463251114f, -0.04959412291646004f,
    0.14937996864318848f, 0.03011172078549862f, -0.3534908592700958f, -0.08519276231527328f, 0.1428484320640564f,
    -0.12746411561965942f, -0.062440868467092514f, -0.03467012569308281f, -0.2829166352748871f, -0.043391481041908264f,
    0.3383346199989319f, 0.2782140076160431f, -0.16920946538448334f, -0.24529814720153809f, -0.21319569647312164f,
    0.006923696491867304f, 0.06375622749328613f, 0.252922922372818f, 0.5227742195129395f, 0.20387083292007446f,
    0.36978980898857117f, -0.13340625166893005f, 0.47426459193229675f, 1.1510871648788452f, -0.3513438105583191f,
    0.1890573352575302f, -0.6849666237831116f, -0.8817072510719299f, 0.41461366415023804f, -0.5308557748794556f,
    -0.4198093116283417f, 0.7001071572303772f, -0.8251824975013733f, -0.013245712034404278f, -0.7678829431533813f,
    -0.11513438075780869f, -0.558354377746582f, -0.400392085313797f, -0.19973993301391602f, 0.08312546461820602f,
    -0.020984016358852386f, 0.32406094670295715f, -0.5732962489128113f, -0.12426812201738358f, 0.7298593521118164f,
    -0.5997501611709595f, -0.3986244797706604f, 0.3952401876449585f, -0.6030728220939636f, -0.39066699147224426f,
    0.8009953498840332f, -0.45348265767097473f, 0.6843539476394653f, -1.427048921585083f, 0.3107173442840576f,
    -0.3346976041793823f, -0.24514490365982056f, -0.27194643020629883f, 0.44477060437202454f, 0.12199828028678894f,
    0.18704858422279358f, 0.018939556553959846f, -0.15617415308952332f, -0.7791075706481934f, -0.32540518045425415f,
    0.8145201206207275f, -0.4942680299282074f, 0.04037401080131531f, -0.006541712209582329f, -0.5445966720581055f,
    0.3502216935157776f, -0.31653255224227905f, -0.21700768172740936f, 0.20628200471401215f, 0.20523510873317719f,
    -0.46137017011642456f, 0.1291014850139618f, 0.12556149065494537f, 0.7337115406990051f, -0.09605931490659714f,
    -0.4800224304199219f, 1.1616345643997192f, -0.25318586826324463f, 0.06511880457401276f, 0.11563119292259216f,
    -0.4991861581802368f, 0.09040983021259308f, 0.12361578643321991f, 1.9711381196975708f, -0.35696470737457275f,
    0.06170497089624405f, -0.13537976145744324f, -0.12836076319217682f, 0.14171302318572998f, 0.7518311738967896f,
    0.18536515533924103f, -0.28959015011787415f, 0.23667344450950623f, 0.5355054140090942f, 0.2286641001701355f,
    -0.5072944164276123f, -0.3248167335987091f, -0.2906622886657715f, -0.5552087426185608f, -0.4843481481075287f,
    -0.48337650299072266f, 1.4918463230133057f, -0.00431686220690608f, 0.17531055212020874f, -0.621515154838562f,
    -1.6146540641784668f, 0.2633307874202728f, -1.2399859428405762f, -0.26704955101013184f, 0.12309574335813522f,
    -0.1890830248594284f, 0.09387887269258499f, 0.16660228371620178f, 0.23152944445610046f, 0.10428116470575333f,
    -0.7103592753410339f, -0.08073197305202484f, 1.1065655946731567f, 0.4911230504512787f, 0.2143147736787796f,
    0.6426184773445129f, -0.7414260506629944f, -0.17224758863449097f, -0.31942838430404663f, 0.57161545753479f,
    0.22839060425758362f, 0.0842818021774292f, -0.3834346830844879f, -0.0008665402419865131f, 0.40648558735847473f,
    0.16782520711421967f, 0.08187070488929749f, 0.311796635389328f, -0.3270385265350342f, 0.03785393387079239f,
    -0.016508007422089577f, -0.6234750151634216f, 0.7782092094421387f, -0.15950149297714233f, -0.5929231643676758f,
    0.012744423933327198f, 1.0622564554214478f, -0.49111267924308777f, 0.7729228138923645f, 0.0007850971887819469f,
    -1.1167666912078857f, 0.12352775782346725f, 2.6398091316223145f, -0.37256312370300293f, 0.1206730529665947f,
    -0.022324593737721443f, -0.13180015981197357f, 0.12871159613132477f, -0.23667430877685547f, 0.27088263630867004f,
    -0.056205879896879196f, 0.09662812948226929f, -0.25945577025413513f, 0.13563743233680725f, 0.07644675672054291f,
    -0.936025857925415f, 0.054889146238565445f, 0.09675426781177521f, -0.06200744956731796f, 0.17425799369812012f,
    -0.45690903067588806f, -0.5055662393569946f, -0.3203205466270447f, 0.8863112330436707f, 0.039708461612463f,
    0.48230138421058655f, 0.34321972727775574f, -0.2879211902618408f, -0.9102643728256226f, -0.6809865832328796f,
    -0.9139280319213867f, -1.021288275718689f, -0.8900231122970581f, -1.2129602432250977f, -0.1217101514339447f,
    -0.9370927214622498f, 0.6041171550750732f, 1.763953447341919f, -0.026540394872426987f, 2.0959713459014893f,
    0.36069947481155396f, -0.039443228393793106f, 0.16340094804763794f, 0.17827574908733368f, 0.2973121106624603f,
    0.17222166061401367f, -0.1114637702703476f, 0.051532939076423645f, 0.20041823387145996f, -0.06845995038747787f,
    -0.07725587487220764f, -0.1414550542831421f, -0.16603206098079681f, -0.12191770225763321f, -0.24027690291404724f,
    -0.4042550325393677f, -0.14972558617591858f, 0.24095600843429565f, 0.06492859870195389f, -0.0690782219171524f,
    0.08370277285575867f, -0.27192971110343933f, 0.1274874359369278f, 0.2000550776720047f, -0.5928765535354614f,
    0.10321823507547379f, 0.5650559067726135f, 0.3524496257305145f, -0.11708392202854156f, 0.1552526205778122f,
    -0.48157021403312683f, 0.02468842640519142f, 0.7874523401260376f, 0.18964654207229614f, 0.37541663646698f,
    -0.6580150723457336f, 0.08799593150615692f, 0.36233848333358765f, 0.8937087059020996f, -0.09429740905761719f,
    -0.418484628200531f, -0.3172532618045807f, 0.11838161945343018f, 0.14841943979263306f, 0.16401003301143646f,
    0.19287297129631042f, -0.2907297909259796f, 1.5921566486358643f, 0.047834865748882294f, -0.7191140055656433f,
    -1.0409966707229614f, 0.11293552070856094f, 0.4072621464729309f, -0.04730787128210068f, -0.0019374012481421232f,
    -0.20105065405368805f, 1.2162188291549683f, -0.03712998703122139f, -0.09459224343299866f, -1.379408836364746f,
    0.2714868485927582f, -0.07279400527477264f, -0.16216371953487396f, 0.533623993396759f, -0.09539452195167542f,
    0.6222671866416931f, 0.37154462933540344f, 0.38731202483177185f, 0.47796499729156494f, -1.1092121601104736f,
    0.45679840445518494f, 0.5850847959518433f, 0.9237945675849915f, 0.595935046672821f, -0.17919577658176422f,
    -0.1050695851445198f, -0.04909185692667961f, 0.2607569098472595f, -0.3452571630477905f, -0.3481149673461914f,
    -0.02508598007261753f, -0.06132940202951431f, 0.020820744335651398f, 0.04890790209174156f, -0.019278932362794876f,
    0.4078575670719147f, 0.03383205085992813f, 0.07337978482246399f, -0.25750410556793213f, 0.052269771695137024f,
    0.10786247253417969f, 0.42153996229171753f, -0.04229094088077545f, -0.10968213528394699f, 0.5542195439338684f,
    -0.0761241540312767f, -0.05581633001565933f, 1.1938270330429077f, 0.010413425043225288f, -0.07217826694250107f,
    -1.908549189567566f, 0.04477604106068611f, 0.02983366884291172f, 1.9112284183502197f, -0.004363007843494415f,
    -0.22122007608413696f, 0.06984587758779526f, -0.03970375657081604f, -0.02895263023674488f, 0.010305315256118774f,
    0.02038191445171833f, 0.05629967898130417f, -0.04558304697275162f, -0.008454331196844578f, 0.002132824156433344f,
    -0.08355103433132172f, -0.2942647635936737f, -0.2809745669364929f, -0.052141137421131134f, -0.8245136737823486f,
    -0.047553375363349915f, 0.20603631436824799f, 1.3083971738815308f, 0.15632884204387665f, 0.10445865243673325f,
    -1.3598356246948242f, 0.16732192039489746f, 0.15748803317546844f, -0.02654014341533184f, -0.13731299340724945f,
    -0.07698167860507965f, 0.1575682908296585f, -0.7250814437866211f, 0.7066985964775085f, 0.5979472994804382f,
    -0.3440289795398712f, 0.8717980980873108f, 0.30244019627571106f, -1.1446770429611206f, -0.08933760970830917f,
    0.5055615901947021f, 0.23944038152694702f, -0.5513802766799927f, -0.2511654198169708f, -0.2782464325428009f,
    -0.5309000015258789f, 0.28996339440345764f, -0.3362489938735962f, 0.08120089769363403f, -0.4666252136230469f,
    0.21866004168987274f, 0.3366060256958008f, -0.3429884612560272f, -0.2777338922023773f, -0.4265802204608917f,
    -0.12700723111629486f, -0.2116081416606903f, -0.12449560314416885f, -0.16706594824790955f, -0.07656758278608322f,
    -0.1573953926563263f, -0.0929541066288948f, -0.12439215928316116f, -0.05742489546537399f, 0.030796444043517113f,
    0.01243084017187357f, -0.025334322825074196f, -0.02611871249973774f, 0.06466353684663773f, 0.02791617438197136f,
    -0.08113747090101242f, -0.10246029496192932f, 0.07871302217245102f, 0.09519165009260178f, 0.6286018490791321f,
    -0.010045269504189491f, -0.02911669947206974f, -0.5581140518188477f, 0.5270357728004456f, 0.30717378854751587f,
    -0.08725126832723618f, 0.0378454364836216f, -0.09851082414388657f, -0.17524203658103943f, 0.037631016224622726f,
    0.039546169340610504f, -0.05394113436341286f, 0.1052088588476181f, -0.0767231285572052f, -0.029085636138916016f,
    0.8109370470046997f, 0.8040711283683777f, -0.15726183354854584f, -0.3792968690395355f, -0.13301263749599457f,
    0.10703089833259583f, -0.17449815571308136f, 0.005369389429688454f, 0.22658507525920868f, 0.4454353153705597f,
    0.0010391962714493275f, -0.16643215715885162f, -0.28224053978919983f, 0.0009550311369821429f, -0.015465245582163334f,
    0.2540689706802368f, 0.1767932027578354f, -0.013121726922690868f, 0.4035865068435669f, 0.6252536177635193f,
    0.09728594869375229f, -0.20975178480148315f, -0.6289386749267578f, 0.26980850100517273f, 0.2831088602542877f,
    0.30558422207832336f, 0.10508294403553009f, -0.17647600173950195f, 0.3606700003147125f, -0.061358388513326645f,
    0.15399044752120972f, -0.24907447397708893f, 0.5115485191345215f, -0.1557098627090454f, 0.13790705800056458f,
    -0.4028352200984955f, 0.12558311223983765f, -0.4512788951396942f, -0.10080498456954956f, 0.010986341163516045f,
    -0.5336531400680542f, -0.332701176404953f, 0.38351449370384216f, -0.270050585269928f, -0.16942313313484192f,
    0.7336222529411316f, 0.24964238703250885f, 0.1187952309846878f, 0.2815839648246765f, 0.30844390392303467f,
    -0.5621020197868347f, -0.5782213807106018f, -0.9829445481300354f, 0.5255476236343384f, -0.24522556364536285f,
    -0.3832165002822876f, 0.2297699749469757f, 0.045600954443216324f, -0.017493097111582756f, 0.2639714479446411f,
    0.15096904337406158f, 0.07856623083353043f, 0.00014509644825011492f, -0.003587450599297881f, 0.3695192337036133f,
    -1.6071205139160156f, -0.5348666310310364f, -1.1453478336334229f, -0.575575590133667f, 0.3169231116771698f,
    0.2900436520576477f, -0.16377529501914978f, -0.058527614921331406f, -0.3349112868309021f, -0.2982272803783417f,
    0.46270373463630676f, -1.2866778373718262f, -0.8598076701164246f, 0.1059008315205574f, 0.003140021814033389f,
    -0.7062639594078064f, 0.05949539318680763f, 0.09182792156934738f, -0.1594076156616211f, 0.004137490410357714f,
    -0.3509442210197449f, -0.5746563076972961f, -0.17926254868507385f, -1.7378567457199097f, 0.22410766780376434f,
    0.012185527943074703f, -0.25426971912384033f, 0.27653488516807556f, 0.47075292468070984f, -0.3342799246311188f,
    0.28325241804122925f, 0.24748548865318298f, -0.11271482706069946f, -0.45319440960884094f, -0.7166087627410889f,
    -0.10687510669231415f, 0.31174352765083313f, -0.8761069774627686f, -0.9036981463432312f, -9.016418516694102e-06f,
    0.0709836483001709f, 0.06285961717367172f, -0.14416399598121643f, 0.16661305725574493f, 0.18652166426181793f,
    1.428040862083435f, -0.21164309978485107f, 0.23588547110557556f, 0.06693151593208313f, -0.04327164962887764f,
    0.01402957271784544f, -0.45391467213630676f, -0.247315913438797f, -0.1828395128250122f, 0.44269898533821106f,
    0.5254104137420654f, 0.769095778465271f, 0.7767643332481384f, -0.21151231229305267f, 0.5828456282615662f,
    -0.6820922493934631f, 0.0045263562351465225f, 0.14425882697105408f, 0.0032578937243670225f, 0.013955351896584034f,
    0.2542242705821991f, -0.4615575075149536f, -1.5110292434692383f, -0.35307586193084717f, -0.38065260648727417f,
    0.012308814562857151f, 0.1675655096769333f, 0.2657162547111511f, 0.5567293763160706f, -0.08605291694402695f,
    -0.2871089577674866f, 0.19246554374694824f, 0.01971125788986683f, 0.4415125846862793f, 0.5909292697906494f,
    0.37001466751098633f, 0.06966469436883926f, -0.5031053423881531f, 0.428158164024353f, 0.45633044838905334f,
    0.000916698423679918f, -0.0013323843013495207f, -1.5183510780334473f, -1.5393264293670654f, -0.7107354402542114f,
    1.1574046611785889f, 0.3793574869632721f, -0.438030868768692f, -0.3327954113483429f, -0.5119120478630066f,
    -0.2870655059814453f, -0.15357594192028046f, -0.7934972643852234f, 0.5653904676437378f, 0.28225812315940857f,
    -0.12652862071990967f, -0.2005094289779663f, -0.2741144299507141f, 0.6637547016143799f, -0.06252861022949219f,
    0.003902806667611003f, 0.015832943841814995f, 0.026593176648020744f, -0.06094416230916977f, 0.1523076295852661f,
    1.3746370077133179f, -1.414549708366394f, -0.8049703240394592f, -0.16345058381557465f, 0.09439095854759216f,
    -0.05885375291109085f, -0.038214653730392456f, -0.3966480493545532f, 0.3070439398288727f, -0.4650968909263611f,
    -0.19309097528457642f, -0.06007307767868042f, -0.02834809198975563f, -0.18861429393291473f, -0.44466692209243774f,
    -0.13922706246376038f, 0.17203372716903687f, -0.15377475321292877f, 0.09976693242788315f, -0.04607320949435234f,
    0.0336197130382061f, 0.005513713229447603f, 1.8000481128692627f, -0.9368985295295715f, -0.6529282927513123f,
    0.037785604596138f, -0.42978936433792114f, 0.3134025037288666f, -0.26046937704086304f, -0.14574483036994934f,
    -0.07941001653671265f, 0.21648408472537994f, -0.1718132048845291f, -0.3222487270832062f, 0.31255581974983215f,
    -0.035484541207551956f, 0.5061575174331665f, -0.40081626176834106f, 0.08669160306453705f, -0.052503641694784164f,
    -0.017416581511497498f, 0.25334012508392334f, -0.10108321905136108f, -0.25271883606910706f, 0.08486476540565491f,
    0.4322206676006317f, 1.3713477849960327f, 0.6954665184020996f, 0.3393869996070862f, -0.21324953436851501f,
    0.40930894017219543f, -0.2569260597229004f, 0.03683802857995033f, -0.08132611215114594f, -0.05280810222029686f,
    0.2137661874294281f, -0.26946336030960083f, 0.15204089879989624f, -0.17237864434719086f, 0.4364874064922333f,
    0.13268163800239563f, 0.5254335403442383f, -0.025209929794073105f, -0.037397611886262894f, 0.006797504145652056f,
    -0.5093737840652466f, -0.3479936122894287f, -0.1424889713525772f, -1.7771644592285156f, 0.20329813659191132f,
    0.19082963466644287f, 0.15840020775794983f, 0.1144484207034111f, -0.11259715259075165f, 0.20411600172519684f,
    0.5327833294868469f, -0.3609945774078369f, -0.1320558488368988f, -0.051610756665468216f, 0.3647304177284241f,
    -0.04542087763547897f, -0.6114439964294434f, -0.09732772409915924f, 0.1439528912305832f, 0.12025615572929382f,
    -0.25051450729370117f, 0.10837054252624512f, 0.07090878486633301f, -0.2630368769168854f, -0.5921692252159119f,
    0.2861429452896118f, 0.09047992527484894f, -0.2831847667694092f, -3.1492769718170166f, 4.229390621185303f,
    -0.09378979355096817f, 0.019999999552965164f
};

static const float fender_deluxe_reverb_v5_t6_b4_klon_gain_10_sm57_nano_head_scale = 0.02f;
