/**
 * Hoopi Pedal - Dual-channel guitar and vocal effects processor
 * Copyright (c) 2025-2026 Scope Creep Labs LLC
 * SPDX-License-Identifier: MIT
 */

// Model: fullrig_fender_bandmaster_nano
// Architecture: WaveNet, Channels: 4, Head: 2
// Weights: 842, Head scale: 0.02
#pragma once

// Raw float array for NamWavenet::load_weights()
static const float fullrig_fender_bandmaster_nano_weights[842] = {
    0.14943218231201172f, 0.30214348435401917f, -0.8357416391372681f, -0.7069672346115112f, -0.16466735303401947f,
    0.04363768547773361f, -0.3203970491886139f, 0.2292913794517517f, 0.004194297827780247f, -0.2535124719142914f,
    -0.09482184797525406f, -0.08540430665016174f, 0.028420697897672653f, -0.1996517926454544f, -0.1498032510280609f,
    0.3183828890323639f, 0.13139215111732483f, 0.12079474329948425f, 0.1932617425918579f, -0.20512889325618744f,
    -0.027954621240496635f, 0.5378575921058655f, 0.0044036866165697575f, 0.3377435505390167f, -0.3692933917045593f,
    0.09319502860307693f, 0.3812829256057739f, -0.5920130014419556f, -0.1491917222738266f, -0.07878106087446213f,
    0.0651317909359932f, 0.20465318858623505f, -0.2442733496427536f, 0.026955019682645798f, -0.18102973699569702f,
    -0.2293676882982254f, -0.3376048803329468f, 0.26857173442840576f, 0.16826792061328888f, -0.0330803245306015f,
    0.012453657574951649f, -0.10425496101379395f, 0.4318653643131256f, -0.2986244559288025f, -0.1772737205028534f,
    0.17828217148780823f, 0.19716224074363708f, 0.1239355206489563f, -0.4892268180847168f, 0.0026824367232620716f,
    0.1380946934223175f, -0.07426023483276367f, 0.06080003082752228f, 0.06860599666833878f, 0.3679419457912445f,
    -0.14252202212810516f, -0.10559312999248505f, -0.46560680866241455f, -0.5333157777786255f, -0.16880066692829132f,
    0.2313123643398285f, -0.04326142743229866f, -0.38906529545783997f, 0.010726535692811012f, 0.5387866497039795f,
    -0.2082432210445404f, 0.2155465930700302f, -0.045291684567928314f, 0.12382467836141586f, 0.5554035902023315f,
    -0.5295301675796509f, -0.13181868195533752f, 0.0118345245718956f, 0.5211676359176636f, 0.3544764220714569f,
    0.41264641284942627f, 0.13158553838729858f, -0.31265056133270264f, -0.002028652001172304f, -0.23876634240150452f,
    -0.2957308292388916f, 0.1908390372991562f, 0.0395856648683548f, -0.23347924649715424f, 0.03741529956459999f,
    -0.26764389872550964f, 0.2546405494213104f, -0.2337581217288971f, 0.15809334814548492f, -0.11626187711954117f,
    0.054253462702035904f, 0.27710410952568054f, 0.10475166887044907f, 0.320486456155777f, -0.34163787961006165f,
    -0.3508502244949341f, 0.20853936672210693f, -0.029798725619912148f, -0.37953829765319824f, -0.34039291739463806f,
    0.3413141071796417f, 0.24196234345436096f, -0.3021610677242279f, 0.038005243986845016f, -0.4638535678386688f,
    -0.08946608006954193f, -0.09782802313566208f, -0.30615702271461487f, 0.002623080974444747f, -0.008100876584649086f,
    -0.03561367839574814f, 0.1405847817659378f, 0.029371947050094604f, 0.3356209397315979f, 0.21872887015342712f,
    -0.1899188607931137f, -0.07339400053024292f, 0.0874602422118187f, -0.26907455921173096f, 0.23605045676231384f,
    0.35812321305274963f, -0.1603037416934967f, 0.0181491207331419f, -0.06728421151638031f, -0.1781855821609497f,
    -0.17003148794174194f, -0.302900493144989f, 0.037192124873399734f, -0.14830435812473297f, -0.11528030782938004f,
    -0.007947421632707119f, 0.021664422005414963f, -0.5326212048530579f, -0.010055328719317913f, 0.4549010396003723f,
    -0.21407492458820343f, -0.2129535675048828f, -0.16549912095069885f, -0.2155073583126068f, 0.6417520642280579f,
    0.37986400723457336f, 0.29305797815322876f, 0.8593869209289551f, -0.3087688088417053f, -0.30967286229133606f,
    -0.21342898905277252f, 0.494719922542572f, -0.17334803938865662f, -0.33377283811569214f, -0.35989072918891907f,
    -0.13443003594875336f, -0.5395487546920776f, -0.04858087748289108f, 0.2950691878795624f, 0.18732674419879913f,
    -0.4243732988834381f, 0.3233984112739563f, -0.14666931331157684f, -0.28129518032073975f, -0.26751476526260376f,
    0.1322609931230545f, 0.3201063573360443f, -0.3608265817165375f, -0.33020713925361633f, 0.16430507600307465f,
    -0.05835207551717758f, -0.17913851141929626f, 0.21269717812538147f, -0.4094025790691376f, -0.15358413755893707f,
    0.43645361065864563f, -0.4108147621154785f, 0.2758161425590515f, 0.02278236672282219f, -0.15581783652305603f,
    0.2806349992752075f, -0.3207181692123413f, 0.09755469113588333f, 0.34193870425224304f, -0.2582872211933136f,
    0.006029362324625254f, -0.3085452914237976f, 0.20191368460655212f, -0.17825710773468018f, 0.37252962589263916f,
    -0.0671510100364685f, 0.15183241665363312f, 0.4912898540496826f, -0.12812526524066925f, 0.1573827862739563f,
    0.2104569971561432f, 0.1171179935336113f, 0.08055640012025833f, 0.28100505471229553f, -0.3904683291912079f,
    -0.3932173550128937f, -0.3003934621810913f, 0.8658294677734375f, -0.35027459263801575f, -0.39090409874916077f,
    0.19025404751300812f, 0.07900761067867279f, -0.24477483332157135f, 0.052809081971645355f, -0.11614840477705002f,
    0.16143681108951569f, 0.1535414755344391f, 0.03340429440140724f, 0.22291524708271027f, 0.11802525073289871f,
    0.0023105964064598083f, -0.209908127784729f, 0.34058845043182373f, -0.18408718705177307f, -0.1394943743944168f,
    0.29740917682647705f, -0.47757863998413086f, -0.3108883798122406f, 0.21332180500030518f, -0.5292114019393921f,
    -0.05694995075464249f, 0.4314039945602417f, 0.16888248920440674f, -0.03568502888083458f, -0.2996942102909088f,
    0.018673693761229515f, -0.48195692896842957f, 0.07918144762516022f, -0.1433570832014084f, -0.018918165937066078f,
    -0.09570206701755524f, 0.3677144944667816f, 0.3603039085865021f, 0.2217509150505066f, -0.15457460284233093f,
    -0.41338104009628296f, 0.3794986307621002f, -0.0902656763792038f, -0.41657754778862f, -0.026107585057616234f,
    0.14443081617355347f, 0.006703860592097044f, 0.03702704235911369f, 0.4787343442440033f, 0.07066604495048523f,
    -0.5071864128112793f, 0.002892784308642149f, -0.15702326595783234f, -0.3116505444049835f, 0.0826190710067749f,
    -0.10145492851734161f, -0.04013685882091522f, 0.5322771668434143f, -0.35100263357162476f, 0.2508127689361572f,
    0.0017476023640483618f, -0.21641698479652405f, 0.2213226854801178f, 0.01160032581537962f, 0.0680689811706543f,
    -0.6523378491401672f, 0.29328542947769165f, 0.13923586905002594f, -0.47017472982406616f, 0.09548107534646988f,
    0.13910886645317078f, 0.2512311041355133f, -0.0007518994389101863f, 0.28467047214508057f, 0.07540369033813477f,
    -0.3128006160259247f, -0.3882943391799927f, 0.3024444282054901f, 0.1734103262424469f, -0.17570027709007263f,
    -0.019432364031672478f, 0.175670325756073f, -0.2661897838115692f, -0.3813265562057495f, 0.39069774746894836f,
    0.14237074553966522f, -0.0963921993970871f, -0.09416717290878296f, 0.012495128437876701f, 0.07907027751207352f,
    0.3855942487716675f, 0.13225385546684265f, 0.013590500690042973f, 0.2090619057416916f, -0.16384164988994598f,
    -0.4223296642303467f, 0.2796624004840851f, 0.2443690299987793f, 0.20019586384296417f, -0.469007670879364f,
    -0.3238348066806793f, 0.41750261187553406f, -0.4343651533126831f, 0.4865213632583618f, -0.25102901458740234f,
    -0.5322259068489075f, -0.004510033875703812f, -0.29856041073799133f, -0.22170762717723846f, 0.08846645057201385f,
    -0.21367913484573364f, -0.040603626519441605f, 0.14747054874897003f, 0.09588616341352463f, -0.20621530711650848f,
    -0.08345156908035278f, 0.2772616446018219f, -0.09871934354305267f, 0.20631064474582672f, 0.39232343435287476f,
    -0.12315412610769272f, -0.5304388403892517f, 0.02659248374402523f, 0.2606033384799957f, -0.4295939803123474f,
    -0.1377498209476471f, -0.29621636867523193f, -0.35413193702697754f, 0.11483912169933319f, 0.04278453439474106f,
    0.42462044954299927f, -0.08475235104560852f, 0.021373344585299492f, -0.018143964931368828f, 0.005829400382936001f,
    -0.3181241750717163f, -0.7523136138916016f, 0.23833273351192474f, 0.13691969215869904f, -0.3030657172203064f,
    -0.13220398128032684f, -0.16721691191196442f, 0.5414745211601257f, 0.32260721921920776f, -0.48984116315841675f,
    -0.24744778871536255f, -0.11157143861055374f, 0.4348902106285095f, 0.18227337300777435f, -0.29243895411491394f,
    0.2114475667476654f, 0.19553902745246887f, 0.3487800657749176f, -0.09460964798927307f, -0.032430388033390045f,
    0.004877581261098385f, 0.4198133945465088f, 0.08082469552755356f, 0.3799215257167816f, 0.031162429600954056f,
    -0.008422627113759518f, -0.10484431684017181f, 0.10751761496067047f, -0.1068544015288353f, 0.030007407069206238f,
    -0.2954537570476532f, -0.4921220541000366f, 0.05903107300400734f, 0.4901708960533142f, 0.1710422784090042f,
    0.44591769576072693f, 0.0933808907866478f, -0.35295069217681885f, -0.4114230275154114f, -0.001937385182827711f,
    -0.9715850353240967f, 0.5249311327934265f, -0.26875612139701843f, -0.07305460423231125f, -0.43608954548835754f,
    -0.886063814163208f, 0.643284797668457f, 0.5532829165458679f, 0.35003775358200073f, 0.4380785822868347f,
    0.4093795716762543f, -0.06421917676925659f, 0.11267716437578201f, 0.3149259388446808f, 0.1616370528936386f,
    0.1317867934703827f, 0.10290221124887466f, -0.20001304149627686f, -0.1585473120212555f, 0.44967153668403625f,
    -0.19726072251796722f, -0.3587360978126526f, -0.23889268934726715f, -0.24807004630565643f, -0.1627911776304245f,
    0.20898284018039703f, 0.20240604877471924f, 0.0006990550900809467f, -0.0869206041097641f, 0.33502671122550964f,
    0.2867142856121063f, -0.37487319111824036f, -0.04957904666662216f, -0.27105948328971863f, 0.3161996603012085f,
    -0.1954069882631302f, 0.37352100014686584f, -0.018052199855446815f, 0.22557346522808075f, 0.2895090579986572f,
    -0.1529746651649475f, 0.12897011637687683f, 0.11346763372421265f, 0.20885807275772095f, -0.024703029543161392f,
    -0.27875271439552307f, -0.017681173980236053f, -0.37431058287620544f, -0.07603535056114197f, 0.3266940414905548f,
    -0.10816793888807297f, -0.15079112350940704f, 0.1917218565940857f, -0.39841368794441223f, 0.027880040928721428f,
    -0.13740192353725433f, 0.007063677068799734f, 0.18984389305114746f, -0.39112770557403564f, 0.4903828501701355f,
    -0.2610938847064972f, -0.17917580902576447f, 0.15417051315307617f, -0.026954226195812225f, -0.11772546172142029f,
    -0.14184923470020294f, 0.05932879075407982f, -0.19807720184326172f, 0.3196522295475006f, -0.47613170742988586f,
    0.09870421886444092f, -0.5386907458305359f, 0.09899607300758362f, 0.2343807816505432f, -0.854347825050354f,
    0.14406909048557281f, -0.46446749567985535f, 0.2175450623035431f, 0.1818256378173828f, -0.22269438207149506f,
    0.44117221236228943f, 0.14435823261737823f, 0.4528692662715912f, -0.2500937581062317f, -0.3669826090335846f,
    0.14291273057460785f, 0.012662367895245552f, 0.24387717247009277f, -0.3905941843986511f, -0.2813418209552765f,
    -0.30615678429603577f, -0.02793591096997261f, 0.4086499512195587f, 0.23814824223518372f, 0.006900337059050798f,
    -0.16330480575561523f, -0.3086633086204529f, -0.05619541183114052f, 0.22497785091400146f, -0.03650142252445221f,
    0.19597899913787842f, 0.29672083258628845f, -0.06994731724262238f, 0.1164192408323288f, -0.14270591735839844f,
    -0.6035574674606323f, -0.15718449652194977f, 0.3307918310165405f, 0.051125552505254745f, 0.18603268265724182f,
    -0.14371678233146667f, 0.2286732941865921f, -0.28432950377464294f, -0.1074136272072792f, 0.007753503508865833f,
    0.24031002819538116f, -0.10464189201593399f, -0.22525890171527863f, -0.03399626538157463f, 0.172101691365242f,
    0.17413082718849182f, 0.002343220869079232f, -0.27613726258277893f, -0.2632335126399994f, 0.05082416534423828f,
    -0.1561056524515152f, -0.4443621337413788f, -0.5368376970291138f, 0.4304027259349823f, 0.498646080493927f,
    -0.4886920750141144f, 0.30420246720314026f, -0.010475704446434975f, -0.08819767832756042f, -0.06497377157211304f,
    -0.12733428180217743f, 0.32451802492141724f, -0.09036368876695633f, -0.15973156690597534f, 0.14036430418491364f,
    0.010289453901350498f, 0.01623629778623581f, 0.022865749895572662f, -0.05015316605567932f, 0.13018591701984406f,
    -0.06661977618932724f, -0.6157028079032898f, 0.39344775676727295f, 0.5196648240089417f, 0.024304240942001343f,
    0.12762479484081268f, -0.2094074934720993f, 0.07815372198820114f, -0.35965031385421753f, -0.3149927854537964f,
    -0.10951006412506104f, 0.5843995213508606f, -0.14907288551330566f, -0.41835835576057434f, 0.20574358105659485f,
    0.7074494957923889f, 0.30634158849716187f, -0.3944893181324005f, -0.30885887145996094f, -0.43405380845069885f,
    -0.05044475570321083f, 0.3474796712398529f, -0.7321056127548218f, -0.6236982345581055f, 0.8009569048881531f,
    -0.7646676898002625f, 0.5300998687744141f, 0.3487723469734192f, -0.9924790263175964f, 0.07342394441366196f,
    0.40503764152526855f, -0.30716466903686523f, 0.14073297381401062f, -0.2895210087299347f, 0.4807450771331787f,
    -0.46940383315086365f, -0.2637365758419037f, 0.07991594821214676f, 0.07040031999349594f, 0.0024081615265458822f,
    -0.5996729731559753f, 0.22588935494422913f, -0.19846300780773163f, 0.14315980672836304f, 0.13354046642780304f,
    -0.5634746551513672f, -0.5158793330192566f, -0.17234843969345093f, -0.10449536144733429f, -0.13448980450630188f,
    0.4017086625099182f, 0.10048090666532516f, -0.10848433524370193f, 0.42807817459106445f, 0.20489326119422913f,
    0.9899068474769592f, 1.2003408670425415f, -0.13373331725597382f, -0.3399798572063446f, 0.23634152114391327f,
    0.46232303977012634f, -0.2657361924648285f, 0.12280911207199097f, 0.191329225897789f, 0.620202898979187f,
    0.029964422807097435f, -0.5567286610603333f, 0.0361035019159317f, 0.028706075623631477f, 0.029611291363835335f,
    -0.4062134623527527f, 0.14510241150856018f, -0.03209181874990463f, 0.4346606433391571f, 0.5401582717895508f,
    0.06634185463190079f, -0.24929378926753998f, -1.0695195198059082f, 0.8365724682807922f, 0.27884671092033386f,
    0.3019542396068573f, -0.04056795686483383f, 0.09505584090948105f, 0.19314683973789215f, 0.3134511709213257f,
    -0.7000811100006104f, 0.15839003026485443f, -0.0792941153049469f, 0.5448184013366699f, -0.11066291481256485f,
    -0.030729832127690315f, 0.14473026990890503f, -0.41060957312583923f, -0.05219288542866707f, 0.034912414848804474f,
    0.04749182239174843f, -0.5263474583625793f, 0.7921122908592224f, -0.7114315629005432f, 0.7086318135261536f,
    0.16552433371543884f, 0.29616713523864746f, 0.1384476125240326f, 0.5160377621650696f, 0.39382293820381165f,
    -0.3026580214500427f, 0.2073235809803009f, -0.12104552984237671f, -0.3995358943939209f, -0.2798168659210205f,
    -0.3919823169708252f, 0.3032393753528595f, -0.04306596890091896f, -0.3525371253490448f, 0.08363375067710876f,
    0.10580598562955856f, 0.09488799422979355f, 0.17760363221168518f, -0.20333336293697357f, 0.5061179995536804f,
    -0.468549519777298f, -0.0754200741648674f, -0.8210012912750244f, -0.5651955008506775f, 0.3634895980358124f,
    -0.00019520899513736367f, 0.37520694732666016f, 0.19407932460308075f, 0.03791326284408569f, -0.3944149315357208f,
    0.3654888868331909f, -0.3791227340698242f, 0.09042777121067047f, -0.7945905327796936f, 0.03811440244317055f,
    0.30155229568481445f, -0.18496637046337128f, 0.34299349784851074f, -0.15662093460559845f, -0.4525752663612366f,
    -0.2318090945482254f, -0.07220443338155746f, 0.6949909925460815f, -0.23853564262390137f, 0.058488789945840836f,
    -0.14977358281612396f, -0.09263645857572556f, 0.49919450283050537f, -0.11620860546827316f, -0.03993886709213257f,
    0.47613048553466797f, -0.05264267325401306f, 0.14047148823738098f, -0.4343457520008087f, 0.02108306996524334f,
    -0.41726797819137573f, -0.1564956158399582f, -0.12325416505336761f, 0.2063620686531067f, 0.195944145321846f,
    0.28045418858528137f, 0.014440656639635563f, -0.13468965888023376f, 0.9316161274909973f, -0.24835628271102905f,
    0.7963614463806152f, -0.5948920249938965f, -0.10416510701179504f, 0.07833372056484222f, 0.10317769646644592f,
    0.3736986815929413f, 0.4103679656982422f, -0.27418053150177f, 0.07842237502336502f, 0.05833932012319565f,
    0.07859648764133453f, -0.4563997685909271f, -0.3925226628780365f, 0.28253060579299927f, 0.17610600590705872f,
    -0.31894007325172424f, 0.1365865021944046f, -0.2520492970943451f, 0.29618462920188904f, 0.1491927206516266f,
    -0.27334699034690857f, 0.44135674834251404f, -0.3727308213710785f, 0.23688384890556335f, -0.4120233356952667f,
    0.01721479371190071f, 0.3138008415699005f, 0.3726840913295746f, -0.05527731776237488f, 0.47435715794563293f,
    0.11124393343925476f, -0.32533854246139526f, -0.4995653033256531f, -0.32356810569763184f, 0.6264141201972961f,
    -0.3910660743713379f, -0.2084701806306839f, 0.2652517259120941f, 0.2550654709339142f, 0.19645267724990845f,
    0.6326553821563721f, -0.01687186397612095f, 0.19610753655433655f, -1.02921724319458f, -0.2422395646572113f,
    -0.1722763478755951f, 0.6637899875640869f, -0.44589850306510925f, 0.4889732301235199f, -0.0506557859480381f,
    -0.20802393555641174f, 0.6526415944099426f, 0.0137019669637084f, -0.33529502153396606f, -0.581130862236023f,
    0.12853439152240753f, 0.03547926992177963f, -0.5420891046524048f, 0.22335772216320038f, 0.02338774874806404f,
    -0.2910960912704468f, -0.008047783747315407f, -0.027627775445580482f, -0.16029180586338043f, 1.105153203010559f,
    0.1503107249736786f, 0.5893397927284241f, -0.3378235399723053f, -0.052856918424367905f, -0.016636347398161888f,
    0.259134978055954f, 0.9979611039161682f, 0.5510303378105164f, 1.0405781269073486f, 0.38025280833244324f,
    0.46720024943351746f, -0.23633424937725067f, 0.31186941266059875f, -0.2571817636489868f, -0.5801213383674622f,
    -0.05184286832809448f, 0.010472292080521584f, -0.36820584535598755f, 0.1436103731393814f, -0.08809655159711838f,
    -0.18668454885482788f, 0.11276626586914062f, 0.5047850608825684f, -1.348257064819336f, 0.45734578371047974f,
    0.16240166127681732f, -0.44871142506599426f, -0.08716259896755219f, 0.8452439308166504f, -0.2506585121154785f,
    -0.3057860732078552f, 0.44093552231788635f, 0.4401271641254425f, 0.6073843240737915f, -0.7269126772880554f,
    0.09345708787441254f, -0.10647385567426682f, -0.07212135940790176f, -0.42951270937919617f, 0.10124199092388153f,
    -0.1829875111579895f, 0.0364697128534317f, 0.05319323390722275f, 0.5235785841941833f, 0.26933711767196655f,
    -0.4515764117240906f, 0.9425839185714722f, 0.5760465264320374f, 0.30355188250541687f, -0.3777540922164917f,
    -0.2131713479757309f, 0.03370584547519684f, -0.2738913893699646f, 0.3114220201969147f, 0.10702763497829437f,
    0.3173198103904724f, 0.19046351313591003f, 0.046713922172784805f, -0.23025326430797577f, -0.4034459888935089f,
    -0.06645777076482773f, 0.4453449249267578f, -0.3051133155822754f, -0.023960795253515244f, 0.04576941952109337f,
    0.46005648374557495f, -1.3169740438461304f, 0.578198254108429f, -0.30238017439842224f, -0.10328605771064758f,
    0.21325211226940155f, -0.015432540327310562f, -0.26593756675720215f, 0.16150523722171783f, 0.10984595119953156f,
    -0.0919514000415802f, -0.057219043374061584f, 0.1811217963695526f, 0.3276692032814026f, -0.16944420337677002f,
    -0.0958632379770279f, 0.3467353284358978f, -0.092211052775383f, 0.15322661399841309f, -0.04726570472121239f,
    0.3813287317752838f, -0.21466130018234253f, 0.07090878486633301f, -0.2630368769168854f, -0.5921692252159119f,
    0.2861429452896118f, 0.09047992527484894f, -0.2831847667694092f, -1.5148029327392578f, 1.4706538915634155f,
    -0.1039109155535698f, 0.019999999552965164f
};

static const float fullrig_fender_bandmaster_nano_head_scale = 0.02f;
