/**
 * Hoopi Pedal - Dual-channel guitar and vocal effects processor
 * Copyright (c) 2025-2026 Scope Creep Labs LLC
 * SPDX-License-Identifier: MIT
 */

// Model: marshamphub cab
// Architecture: WaveNet, Channels: 4, Head: 2
// Weights: 842, Head scale: 0.02
#pragma once

// Raw float array for NamWavenet::load_weights()
static const float marshamphub_cab_weights[842] = {
    -0.5682819485664368f, 0.9505427479743958f, -0.6952544450759888f, -0.9894810318946838f, -0.24245886504650116f,
    0.4340391159057617f, 0.00801452063024044f, 0.3456256091594696f, -0.382478266954422f, 0.03010452724993229f,
    -0.21309374272823334f, 0.27460166811943054f, -0.25149455666542053f, -0.3107650578022003f, 0.20296892523765564f,
    0.06414767354726791f, 0.08082740753889084f, 0.42674410343170166f, -0.331105500459671f, -0.1236899122595787f,
    -0.15765398740768433f, 0.33161598443984985f, -0.0734003335237503f, 0.46446293592453003f, -0.13458463549613953f,
    0.020265130326151848f, 0.4843880534172058f, -0.3317800760269165f, -0.020979223772883415f, 0.2327350527048111f,
    -0.6053379774093628f, 0.07553061842918396f, -0.485522985458374f, 0.29340559244155884f, -1.91986564459512e-05f,
    0.057824861258268356f, -0.5413187742233276f, 0.4330444037914276f, 0.454179972410202f, -0.2062581479549408f,
    0.29482290148735046f, 0.5461834669113159f, -0.06761851161718369f, -0.5610356330871582f, -0.8908654451370239f,
    -0.08667699992656708f, 0.4649929702281952f, 0.8424363136291504f, -0.1546781361103058f, 0.2768854796886444f,
    0.841666042804718f, 0.27762115001678467f, 0.05001712962985039f, 0.01384393684566021f, 0.3309405744075775f,
    -0.1603122055530548f, 0.1280996948480606f, -0.7261699438095093f, -0.36805248260498047f, -0.5356032252311707f,
    0.09993434697389603f, 0.7210554480552673f, -0.1296500414609909f, 0.5885838866233826f, 0.6669175028800964f,
    -0.2698301672935486f, -0.2687021493911743f, 0.17425653338432312f, 0.21637126803398132f, 0.2760869562625885f,
    -0.3862667977809906f, -0.6380531191825867f, 0.15643948316574097f, 0.4834486246109009f, 0.6243070363998413f,
    0.4493146240711212f, 0.10810872167348862f, -0.584624171257019f, -0.0385964997112751f, -0.19805224239826202f,
    -0.19394226372241974f, 0.37049081921577454f, -0.263784259557724f, -0.28235137462615967f, 0.09987233579158783f,
    -0.0053031425923109055f, -0.21270154416561127f, 0.26607584953308105f, -0.43887779116630554f, 0.2825861871242523f,
    0.3132593333721161f, -0.08983146399259567f, 0.665374219417572f, -0.22489595413208008f, -0.17475244402885437f,
    -0.17856618762016296f, 0.15949593484401703f, 0.053665027022361755f, -0.09522151947021484f, -0.6676121354103088f,
    0.7359839677810669f, 0.4338347911834717f, -0.6021134853363037f, -0.05423428863286972f, -0.258349746465683f,
    -0.5861138701438904f, 0.058778002858161926f, -0.49937447905540466f, -0.23538826406002045f, -0.14269748330116272f,
    -0.28557705879211426f, -1.0353953838348389f, -0.39429619908332825f, -0.11866319179534912f, -0.6543995141983032f,
    -0.20515361428260803f, 0.013840321451425552f, -0.103786401450634f, 0.29182395339012146f, 0.42695125937461853f,
    0.39502719044685364f, 0.30489492416381836f, -0.18703240156173706f, -0.6467148661613464f, -0.18174578249454498f,
    -0.22381944954395294f, -0.058167681097984314f, 0.21568284928798676f, -0.14691664278507233f, -0.21174253523349762f,
    0.139557346701622f, -0.12261814624071121f, -0.3742648959159851f, 0.0040160720236599445f, 0.9432222843170166f,
    0.003211231902241707f, 0.9149236083030701f, -0.2083217352628708f, -0.4143775701522827f, -0.22128865122795105f,
    -0.04168105870485306f, 0.6142316460609436f, 0.8096571564674377f, 0.1044849306344986f, -0.8333581686019897f,
    0.15756505727767944f, 0.6600700616836548f, 0.6972255706787109f, 0.02745877578854561f, -0.751166820526123f,
    -0.7158930897712708f, -0.7704268097877502f, 0.015442205592989922f, 0.2045166939496994f, 0.06843239068984985f,
    -0.1959121972322464f, 0.42106279730796814f, -0.5059366226196289f, 0.18003711104393005f, 0.20718035101890564f,
    0.15904100239276886f, 0.17592644691467285f, -0.6615079045295715f, 0.1820499747991562f, -0.12020159512758255f,
    0.1341402381658554f, -0.47563067078590393f, 0.1459616720676422f, -0.2128196805715561f, -0.5417202711105347f,
    0.28720924258232117f, 0.0450979508459568f, 0.07054469734430313f, -0.2329186350107193f, -0.39097946882247925f,
    0.7599266767501831f, -0.08839500695466995f, 0.29071688652038574f, -0.03484649583697319f, -0.06484755873680115f,
    -0.018814479932188988f, 0.5674676299095154f, 0.06601395457983017f, -0.3812903165817261f, -0.16136908531188965f,
    0.2825762927532196f, 0.27603548765182495f, -0.6493586301803589f, -0.13807106018066406f, -0.10733165591955185f,
    0.5129901170730591f, 0.019247982650995255f, -0.06443452090024948f, -0.23407529294490814f, 0.16458046436309814f,
    0.1634085476398468f, -0.07388682663440704f, 0.045658864080905914f, -0.23757193982601166f, 0.44504374265670776f,
    -0.09857357293367386f, 0.32434505224227905f, -0.49107903242111206f, -0.04661343991756439f, -0.14293323457241058f,
    -0.1602771282196045f, 0.2463931143283844f, 0.17905987799167633f, 0.7607939839363098f, 0.4242020547389984f,
    -0.18443627655506134f, -0.07088823616504669f, 0.1230667233467102f, -0.8144620060920715f, 0.38542449474334717f,
    -0.772517740726471f, -1.684723138809204f, -0.4233975112438202f, 0.30579185485839844f, -0.6348276734352112f,
    0.00720309279859066f, 1.3303308486938477f, -0.4308043122291565f, 0.2571354806423187f, -0.14606036245822906f,
    -0.13510820269584656f, -0.11807473748922348f, -0.48554351925849915f, -0.27525100111961365f, 0.01033067237585783f,
    0.03199031203985214f, 0.3060864508152008f, 0.4630777835845947f, 0.17857880890369415f, -0.5759196877479553f,
    -0.6315537691116333f, 0.10373540967702866f, -1.25532066822052f, -0.44114920496940613f, -0.004814385902136564f,
    0.8642528653144836f, 0.5917555093765259f, -0.17127348482608795f, -0.18230099976062775f, 0.8786696195602417f,
    -0.7890477776527405f, 0.3153710961341858f, -1.086073637008667f, -1.8661446571350098f, 0.3337337076663971f,
    -0.6344964504241943f, 1.1412596702575684f, 0.3945198059082031f, 0.2857205271720886f, -0.7428455352783203f,
    0.301347553730011f, 0.48213690519332886f, -1.2260087728500366f, -1.2206310033798218f, -0.5086278319358826f,
    -1.4310184717178345f, -1.7099498510360718f, -0.9004838466644287f, 1.0580533742904663f, 1.8804705142974854f,
    1.177548885345459f, -1.5209605693817139f, 1.1548055410385132f, 0.32720881700515747f, 0.057240694761276245f,
    -0.16370035707950592f, -0.4570959806442261f, -0.3258480727672577f, 0.2660025358200073f, -0.2931598424911499f,
    -0.23433014750480652f, 0.23329287767410278f, -0.5827869176864624f, 0.19039322435855865f, 0.2266821712255478f,
    -0.07278021425008774f, -0.3282376825809479f, 0.1558019369840622f, 0.07333263009786606f, 0.40131545066833496f,
    0.8486247658729553f, -0.7121298313140869f, 0.5312153100967407f, -0.805576741695404f, 0.36292406916618347f,
    -0.122704416513443f, 0.21011699736118317f, -0.5906516909599304f, 0.17680040001869202f, 0.024531584233045578f,
    -0.7847254276275635f, 0.6415085792541504f, -0.3867473900318146f, 0.011937180534005165f, 0.24810072779655457f,
    -0.193740576505661f, -0.20326606929302216f, 0.04280894622206688f, 0.46874290704727173f, 0.15365657210350037f,
    -0.40319326519966125f, 0.011274157091975212f, 0.022370053455233574f, 0.13461659848690033f, 0.050529737025499344f,
    -0.36589646339416504f, -0.1157073825597763f, 0.1287006437778473f, 0.6566857695579529f, -0.10892719775438309f,
    0.22649513185024261f, 0.05420130491256714f, 0.3196607828140259f, 0.298272043466568f, -0.17764194309711456f,
    0.1749105304479599f, 0.0227203331887722f, -0.24872885644435883f, -0.4963371753692627f, 0.22455286979675293f,
    0.31506192684173584f, 0.16205814480781555f, 0.001653827726840973f, -0.11318743973970413f, 0.2127763032913208f,
    -0.14021530747413635f, -0.19989630579948425f, 0.30432385206222534f, 0.4253075420856476f, 0.07972722500562668f,
    0.10015504062175751f, -0.15949060022830963f, 0.3702962100505829f, 0.4150787889957428f, 0.3656443953514099f,
    0.5818637609481812f, 0.05761215463280678f, 0.22696031630039215f, 0.049922045320272446f, -0.3254795968532562f,
    -0.03181104734539986f, 0.568304717540741f, 0.4648098647594452f, -0.19621224701404572f, 0.35990673303604126f,
    -0.041267454624176025f, 0.14697082340717316f, -0.4932626783847809f, -0.3411608338356018f, -0.387972891330719f,
    0.3966074287891388f, -0.2560945749282837f, 0.07650362700223923f, -0.17676573991775513f, -0.12698650360107422f,
    0.3332485258579254f, -0.8890346884727478f, 0.5895207524299622f, 0.40500137209892273f, 0.5840577483177185f,
    0.8319817781448364f, 0.23617587983608246f, 0.15616056323051453f, -0.9530614018440247f, -0.22444111108779907f,
    -0.41845521330833435f, 0.5119979381561279f, -0.2365143597126007f, -0.05199098959565163f, -0.890172004699707f,
    -0.04076145216822624f, -0.039191167801618576f, 0.39718660712242126f, 0.5934481620788574f, 0.08334939181804657f,
    0.3952665627002716f, -0.1005510464310646f, 0.17780835926532745f, 0.36628562211990356f, 0.5963422060012817f,
    0.10136636346578598f, -0.20249266922473907f, -0.3308699429035187f, 0.024420570582151413f, 0.5537964701652527f,
    0.29048994183540344f, -0.0913127213716507f, -0.031296372413635254f, -0.027069086208939552f, -0.36209413409233093f,
    -0.3121717572212219f, -0.5379973649978638f, -0.009141498245298862f, -0.34985172748565674f, 1.0636625289916992f,
    0.772400438785553f, 0.6069173216819763f, 0.1678638458251953f, 0.560145914554596f, 0.2887347340583801f,
    -0.4990217089653015f, -0.22287525236606598f, -0.031424593180418015f, 0.11617628484964371f, 0.24166594445705414f,
    -0.4395488500595093f, -0.24510879814624786f, -0.4361622929573059f, -1.6446549892425537f, -0.19545847177505493f,
    -0.09951657056808472f, 0.5142155289649963f, 0.13359008729457855f, 0.19989487528800964f, -0.2873392403125763f,
    -0.7921605110168457f, 0.7686436772346497f, 0.021823666989803314f, 0.9703912734985352f, 2.2375729084014893f,
    -0.16733410954475403f, 0.42671769857406616f, -0.8226632475852966f, -0.22007714211940765f, -0.22893112897872925f,
    0.5137887001037598f, -0.08549580723047256f, 0.2899947464466095f, -0.10142292827367783f, -0.11239396780729294f,
    0.04862792044878006f, 0.9640538096427917f, -0.33951351046562195f, 0.8509570360183716f, -0.8745351433753967f,
    1.1189427375793457f, 0.17309832572937012f, 0.03640299662947655f, 0.4653266370296478f, -0.7737447619438171f,
    0.4863292872905731f, -0.7301450371742249f, 0.25356075167655945f, -1.2212729454040527f, -0.06866005063056946f,
    0.18485243618488312f, 0.9282397627830505f, 0.559225857257843f, -0.4381466507911682f, -1.2553443908691406f,
    0.3172207176685333f, 0.017107920721173286f, 0.14078301191329956f, -0.2959739863872528f, -0.2601795792579651f,
    -0.1677406132221222f, -0.06513068079948425f, -0.2672714293003082f, 0.556215226650238f, 0.25444135069847107f,
    0.9392877221107483f, 0.025381870567798615f, -0.029897475615143776f, -0.31721359491348267f, -0.45116570591926575f,
    -0.23364335298538208f, 0.6853538155555725f, 0.21446266770362854f, -0.19054530560970306f, 0.10176236182451248f,
    0.018427053466439247f, 0.03492799773812294f, -0.3068026304244995f, 0.07830245047807693f, -0.24862007796764374f,
    -0.1899801343679428f, -0.4108317196369171f, 0.017336731776595116f, 0.09827935695648193f, -0.36155301332473755f,
    -0.0580931231379509f, 0.04841660335659981f, 0.693856954574585f, 0.6601155996322632f, 0.18286427855491638f,
    0.09372499585151672f, -0.365479052066803f, 0.0002688762324396521f, -0.3904828131198883f, 0.6044526100158691f,
    -0.2645035684108734f, 0.05812307447195053f, -0.17859318852424622f, 0.40027546882629395f, 0.009970373474061489f,
    -0.017392707988619804f, -0.19033971428871155f, -0.007795250043272972f, -0.0730602890253067f, -0.3012350797653198f,
    -0.13573254644870758f, -0.017361799255013466f, -0.8199524879455566f, -0.23628965020179749f, 0.113893523812294f,
    -0.1994824856519699f, 0.4582044780254364f, 1.0023488998413086f, 0.5344570875167847f, -1.4902064800262451f,
    -0.8048267960548401f, -0.7597532868385315f, -0.23716074228286743f, 0.5540942549705505f, 0.5736449956893921f,
    0.8207602500915527f, -0.1159709170460701f, -0.04853760451078415f, -0.49688586592674255f, -0.6924076676368713f,
    -0.2682665288448334f, 0.44783610105514526f, 0.06139276549220085f, 0.8231568932533264f, -0.5929506421089172f,
    0.43111810088157654f, 0.6447321772575378f, -0.2770833969116211f, -0.3940477669239044f, -0.3147623836994171f,
    0.060194842517375946f, -0.14342540502548218f, -0.08157451450824738f, -0.12400423735380173f, -0.06666342914104462f,
    -0.2506735324859619f, -0.18163838982582092f, -0.1432189792394638f, -0.087164506316185f, -0.16866573691368103f,
    0.05746813863515854f, -0.17269673943519592f, 0.039119020104408264f, -0.011195416562259197f, -0.012938166968524456f,
    -0.11589300632476807f, -0.22235779464244843f, -0.010182492434978485f, -0.021149203181266785f, 0.4383314549922943f,
    -0.17387810349464417f, -0.08696424216032028f, -0.23688453435897827f, 0.0880943015217781f, -0.027034122496843338f,
    -0.4013092517852783f, 0.1038481593132019f, -0.08256290853023529f, 0.02813396044075489f, -0.019336041063070297f,
    0.035114508122205734f, -0.12026215344667435f, -0.1717798113822937f, -0.07265264540910721f, 1.2277296781539917f,
    1.9439805746078491f, 0.6848013401031494f, -0.18727895617485046f, -0.33078381419181824f, 0.04195697233080864f,
    0.08872135728597641f, 0.2751471996307373f, -0.04098663851618767f, -0.06306856870651245f, 0.5222352743148804f,
    -0.004619338549673557f, -0.279287189245224f, -0.01012411992996931f, 0.0477093830704689f, 0.30823031067848206f,
    -0.09149602800607681f, 0.19920065999031067f, 0.1176542267203331f, -0.01629806123673916f, -0.04766915738582611f,
    -0.3668449819087982f, -1.1668016910552979f, -0.6548267602920532f, 0.6135038733482361f, 0.19079308211803436f,
    0.2975272536277771f, -0.0776577964425087f, -0.5524340867996216f, -0.060467373579740524f, 0.0944904163479805f,
    0.615881621837616f, 0.6779569387435913f, 0.08090249449014664f, -0.2595728635787964f, 0.8816126585006714f,
    -0.12414867430925369f, 0.20275859534740448f, -0.565988302230835f, -0.025349965319037437f, 0.09614533185958862f,
    -0.26298555731773376f, 0.023872945457696915f, -0.659050464630127f, 0.2867007255554199f, 0.05484115704894066f,
    0.0993943139910698f, 0.14627957344055176f, 0.06001567468047142f, 1.080702781677246f, 1.9202392101287842f,
    0.608126699924469f, 0.15477202832698822f, -0.24418865144252777f, -0.42808908224105835f, -0.4664839804172516f,
    -0.17490139603614807f, 0.7360432744026184f, -0.7733024954795837f, -0.950645387172699f, 0.4788986146450043f,
    -0.5788685083389282f, -0.0012828719336539507f, -0.2251066416501999f, 0.03288693726062775f, 0.8331871032714844f,
    0.12877660989761353f, -0.45767632126808167f, -0.7155178189277649f, -0.3107525706291199f, 0.20664748549461365f,
    0.010399485006928444f, 0.580772340297699f, -0.5014970302581787f, -0.08318132907152176f, 0.4821728467941284f,
    0.4726905822753906f, -0.3173191249370575f, -0.31796035170555115f, -0.23200441896915436f, 0.5884962677955627f,
    0.4197341203689575f, 0.2334693968296051f, -0.21622924506664276f, -0.49287620186805725f, -0.1494082659482956f,
    -0.1574835479259491f, 0.8524615168571472f, 0.6765831708908081f, -0.429714173078537f, 0.7240997552871704f,
    -0.1398947536945343f, -0.08772855997085571f, 0.33027997612953186f, 0.46894508600234985f, -0.5474230647087097f,
    0.0918613150715828f, 0.21073828637599945f, -0.3413892686367035f, 0.04410446807742119f, -0.4793171286582947f,
    0.48036712408065796f, 0.6704854965209961f, -1.184432029724121f, 0.5872571468353271f, 0.1089361384510994f,
    -0.035478487610816956f, 0.09157118946313858f, -0.44636213779449463f, 1.3924906253814697f, 0.011663765646517277f,
    1.0392374992370605f, 0.2638540267944336f, -0.11522702127695084f, 0.05914834514260292f, 0.16580435633659363f,
    -0.31349977850914f, 0.023420462384819984f, -0.2371741533279419f, 0.5573880672454834f, -0.042007263749837875f,
    -0.5146505832672119f, -0.5385868549346924f, 0.40864795446395874f, 0.23385295271873474f, -1.007277250289917f,
    0.523950457572937f, -0.1679915338754654f, -0.10101340711116791f, -0.33042651414871216f, 0.5745791792869568f,
    0.08343019336462021f, -0.27448245882987976f, -1.128234624862671f, -0.5037734508514404f, -0.4661557078361511f,
    0.05419250950217247f, 0.10679615288972855f, 0.371166467666626f, -0.2370051145553589f, -0.013951893895864487f,
    0.4413030445575714f, 0.061039380729198456f, -0.18114860355854034f, -0.18489982187747955f, 0.37983179092407227f,
    -0.1857302039861679f, -0.31727561354637146f, 0.3119046986103058f, 0.020451897755265236f, 0.08041903376579285f,
    0.18913915753364563f, -0.042527128010988235f, 0.5389572978019714f, -1.5735993385314941f, -0.6822168827056885f,
    -0.46314671635627747f, 0.5859294533729553f, -0.20104315876960754f, -0.018953682854771614f, 0.4663526713848114f,
    -0.16698257625102997f, 0.03868969902396202f, 0.4157966375350952f, 0.12310852110385895f, -0.4487206041812897f,
    0.2390938550233841f, -0.1211259514093399f, -0.43133431673049927f, 0.306715190410614f, 0.0824807658791542f,
    -0.032770417630672455f, -0.0592903308570385f, -0.12248164415359497f, -0.06206018105149269f, 1.7538906335830688f,
    -0.32991382479667664f, -0.20044657588005066f, -2.0084779262542725f, -0.16684864461421967f, 0.04902920499444008f,
    -0.14367151260375977f, 0.2726230025291443f, -0.10819592326879501f, -0.22326600551605225f, 0.06835395097732544f,
    -0.17067502439022064f, -0.23149602115154266f, -0.0219572726637125f, -0.5386426448822021f, -0.1198553740978241f,
    0.2551422715187073f, -0.0781247541308403f, 0.13524647057056427f, -0.13086897134780884f, -0.03957830369472504f,
    -0.12874725461006165f, 1.6556884050369263f, 0.33238640427589417f, -1.8318955898284912f, 0.626473069190979f,
    0.0482984222471714f, -0.33386436104774475f, -0.21433718502521515f, -0.27590468525886536f, 0.20603103935718536f,
    -0.6762652397155762f, -0.5458356142044067f, -0.1907966583967209f, 0.29134631156921387f, 0.1717441827058792f,
    0.04513825103640556f, -0.190864697098732f, -0.22218726575374603f, 0.029877884313464165f, -0.0707867443561554f,
    0.03082962892949581f, 0.053635384887456894f, 0.1804485023021698f, -0.5701802372932434f, 0.7750394344329834f,
    -0.34439462423324585f, 1.8418885469436646f, 0.5062000155448914f, 0.30259308218955994f, 0.06048789992928505f,
    -0.29134461283683777f, 0.09504997730255127f, -0.0033905047457665205f, -0.08008764684200287f, -0.25296932458877563f,
    -0.14201264083385468f, -0.030473822727799416f, -0.2429571896791458f, -0.007944492623209953f, 0.1619565635919571f,
    0.4027326703071594f, 0.08370670676231384f, 0.014095071703195572f, -0.49278831481933594f, -0.42244502902030945f,
    0.9036594033241272f, 0.5206837058067322f, 1.165230631828308f, -1.2814191579818726f, -0.07037460058927536f,
    0.09740486741065979f, -0.03593313694000244f, 0.15896564722061157f, 0.42646557092666626f, 0.10350561887025833f,
    0.31054627895355225f, -1.0134671926498413f, -0.09263984113931656f, -0.217380553483963f, -0.45483148097991943f,
    0.11922449618577957f, -0.32454967498779297f, 0.612863302230835f, 0.08072269707918167f, 0.18996183574199677f,
    1.7319146394729614f, 0.4637463390827179f, 0.07090878486633301f, -0.2630368769168854f, -0.5921692252159119f,
    0.2861429452896118f, 0.09047992527484894f, -0.2831847667694092f, -4.056175231933594f, 4.4136643409729f,
    -0.2741512954235077f, 0.019999999552965164f
};

static const float marshamphub_cab_head_scale = 0.02f;
