/**
 * Hoopi Pedal - Dual-channel guitar and vocal effects processor
 * Copyright (c) 2025-2026 Scope Creep Labs LLC
 * SPDX-License-Identifier: MIT
 */

// Model: Mesa Boogie Mark IV - Pushed Fender
// Architecture: WaveNet, Channels: 4, Head: 2
// Weights: 842, Head scale: 0.02
#pragma once

// Raw float array for NamWavenet::load_weights()
static const float mesa_boogie_mark_iv_pushed_fender_weights[842] = {
    -0.4132348895072937f, 0.8127213716506958f, -0.6562608480453491f, -0.690507173538208f, -0.2175365388393402f,
    -0.44401848316192627f, 0.14687155187129974f, 0.3087794780731201f, 0.4646436870098114f, -0.06485464423894882f,
    -0.19190973043441772f, -0.5638335943222046f, -0.17206218838691711f, -0.29141300916671753f, -0.6147395968437195f,
    0.13684093952178955f, 0.10853394865989685f, 0.5282001495361328f, -0.12800690531730652f, -0.1402888298034668f,
    -0.23657570779323578f, 0.12732350826263428f, -0.0723000019788742f, 0.5405628085136414f, 0.03222253918647766f,
    0.04357657954096794f, 0.5939540266990662f, -0.16788449883460999f, 0.014104879461228848f, 0.6067910194396973f,
    0.01044297032058239f, 0.07128166407346725f, -0.8161443471908569f, -0.27999746799468994f, 0.009722991846501827f,
    0.37538960576057434f, -0.01607854850590229f, 0.4260983169078827f, 0.7394956350326538f, 0.27888381481170654f,
    -0.26187559962272644f, 0.28957077860832214f, 0.09772245585918427f, -0.03641945868730545f, -0.6254092454910278f,
    -0.23976239562034607f, -0.01528538204729557f, 0.6124333143234253f, -0.01590680330991745f, -0.2294665277004242f,
    0.5952939391136169f, 0.375670462846756f, 0.1506248414516449f, 0.057346686720848083f, 0.17181041836738586f,
    -0.04987667128443718f, 0.06357604265213013f, -0.910460352897644f, -0.8611263036727905f, -0.6291980147361755f,
    0.1797829568386078f, 0.4596572816371918f, -0.015092570334672928f, 0.33408495783805847f, 0.4741688072681427f,
    -0.36377254128456116f, -0.1807727813720703f, -0.16376610100269318f, 0.7423716187477112f, -0.06774001568555832f,
    -0.6548107266426086f, -0.619433581829071f, 0.3209155201911926f, 0.20696775615215302f, 0.3475390374660492f,
    0.23264192044734955f, 0.14057433605194092f, -0.3780536949634552f, 0.03590697795152664f, -0.2697034478187561f,
    -0.22812557220458984f, -0.05067494139075279f, 0.4347008168697357f, -0.4177018404006958f, 0.17669309675693512f,
    -0.24770011007785797f, 0.16945737600326538f, 0.23966702818870544f, 0.12297376990318298f, -0.16183197498321533f,
    -0.1443844884634018f, 0.33846911787986755f, -0.28720760345458984f, -0.03981848806142807f, 0.044735897332429886f,
    0.1740669310092926f, 0.336478054523468f, -0.2491815984249115f, 0.7959186434745789f, 0.863864541053772f,
    0.3949008584022522f, -0.7748957872390747f, -0.716426432132721f, -0.08689963072538376f, -0.5515429377555847f,
    -0.10544375330209732f, -0.18335840106010437f, -0.03755452483892441f, 0.19525574147701263f, 0.02817492000758648f,
    -0.30618730187416077f, 0.5791573524475098f, -0.3834678828716278f, -0.039563652127981186f, 0.07107333093881607f,
    -0.10955332219600677f, -0.032882995903491974f, -0.43439751863479614f, 0.08093465119600296f, -0.29617932438850403f,
    0.22729693353176117f, 0.02787846140563488f, -0.4441063106060028f, 0.5411324501037598f, -0.14377343654632568f,
    0.04673430323600769f, -0.3138149380683899f, 0.2176002711057663f, -0.0595816969871521f, 0.035871248692274094f,
    -0.09390255063772202f, -0.08037080615758896f, -0.8901650905609131f, -0.3516590893268585f, 0.18888264894485474f,
    -0.847044825553894f, 0.7214597463607788f, 0.13018669188022614f, 0.45865491032600403f, 1.350315809249878f,
    0.055158581584692f, 0.30451807379722595f, 0.42958056926727295f, -0.11333571374416351f, -0.7075585126876831f,
    -0.1948494166135788f, 0.22328536212444305f, -0.26647037267684937f, -0.42002350091934204f, -0.36508122086524963f,
    -0.551132082939148f, -0.689190149307251f, -0.15041251480579376f, 0.28213679790496826f, 0.14710411429405212f,
    -0.410651296377182f, 0.5282705426216125f, 0.21490907669067383f, -0.7803146243095398f, -0.3441496789455414f,
    -0.7816639542579651f, -0.49529504776000977f, -0.30470722913742065f, -0.884081244468689f, 0.19047842919826508f,
    0.13276387751102448f, 0.32103604078292847f, 0.3212260603904724f, -0.32412511110305786f, 0.25247469544410706f,
    0.9129010438919067f, 0.4024239182472229f, 0.24403338134288788f, -0.08485807478427887f, -0.2167779803276062f,
    -0.08383215218782425f, -0.6014523506164551f, -0.46401897072792053f, 0.2994214594364166f, -0.057307157665491104f,
    0.7946938872337341f, -1.8928617238998413f, 0.6549888849258423f, -0.6107820868492126f, 0.28411734104156494f,
    0.6374040246009827f, -1.195103406906128f, 0.5263034701347351f, 0.18645347654819489f, 0.35480886697769165f,
    -0.02413007616996765f, -0.394059419631958f, -0.45075124502182007f, 0.47170084714889526f, 0.421429306268692f,
    -0.4833652377128601f, -0.20804139971733093f, 0.4724620282649994f, -0.024032343178987503f, 0.10691893845796585f,
    0.5473476052284241f, 0.5812718272209167f, 0.09698252379894257f, -0.1738491654396057f, -0.05334348604083061f,
    0.08774299919605255f, 0.2577298879623413f, 0.022935159504413605f, 0.1086823046207428f, -0.2285834699869156f,
    0.010583756491541862f, 0.4722648859024048f, 0.0880545973777771f, -0.6193379759788513f, 0.8565771579742432f,
    0.4574112892150879f, -0.48491448163986206f, -0.07487442344427109f, 0.6148352026939392f, -0.40980660915374756f,
    -0.3440881669521332f, 0.5913259983062744f, 0.8494791984558105f, -0.4472271203994751f, -0.2509397268295288f,
    0.2865534722805023f, -0.9325987100601196f, 0.11316795647144318f, -0.19909577071666718f, -0.1679311841726303f,
    -0.16158629953861237f, 0.43002891540527344f, 0.3172788619995117f, 0.5081267356872559f, -0.05602090433239937f,
    -0.3069498538970947f, 0.6006143689155579f, 0.042695723474025726f, -0.23421026766300201f, 0.26843520998954773f,
    0.204850435256958f, 0.2778344750404358f, -0.8713481426239014f, 0.21779748797416687f, 1.160656452178955f,
    0.23523473739624023f, 0.08263923972845078f, -0.8040862679481506f, 0.2506024241447449f, 0.21889574825763702f,
    -0.6733840107917786f, 0.2275661677122116f, 0.34960758686065674f, 0.13734644651412964f, -0.5201010704040527f,
    0.06072200462222099f, -0.1847735047340393f, 0.3278847336769104f, 0.3101328909397125f, -0.14803902804851532f,
    -0.20316612720489502f, -0.07322118431329727f, 0.18712379038333893f, 0.06751608848571777f, -0.22332099080085754f,
    -0.05966632068157196f, -0.3533839285373688f, 0.14206400513648987f, 0.348940372467041f, -0.37975624203681946f,
    -0.36647263169288635f, -0.2882622480392456f, -0.11795530468225479f, 0.14508028328418732f, -0.3902163803577423f,
    0.028307542204856873f, 0.4011795222759247f, -0.0658281221985817f, 0.02593327686190605f, 0.09467564523220062f,
    0.1647258847951889f, -0.2110854685306549f, -0.18067780137062073f, 0.09382329881191254f, -0.21464039385318756f,
    0.582523763179779f, -0.6019858121871948f, 0.001874741748906672f, -1.036370038986206f, -0.15493322908878326f,
    -0.655907928943634f, 0.5497695803642273f, -0.052833396941423416f, -0.5402562618255615f, -0.06315170228481293f,
    -0.7842729687690735f, 0.9397855997085571f, -0.28911229968070984f, 0.23827195167541504f, -0.5281046032905579f,
    -1.1832040548324585f, 0.00454616779461503f, -0.16216370463371277f, 0.36920788884162903f, 0.0015858295373618603f,
    -0.49159643054008484f, -0.20741869509220123f, 0.19143818318843842f, 0.3135332465171814f, 0.0652875080704689f,
    -0.3035350441932678f, 0.8804906606674194f, -0.2827526330947876f, 0.219680517911911f, 0.4154636859893799f,
    0.0009923875331878662f, -0.23354162275791168f, 0.10092731565237045f, 1.258630633354187f, 0.07876661419868469f,
    0.13005684316158295f, 0.1107475608587265f, 0.1332998424768448f, 0.041283346712589264f, 0.1263943761587143f,
    0.027217723429203033f, 0.16514162719249725f, 0.04883246496319771f, -0.13923272490501404f, 0.1917571723461151f,
    -0.33289214968681335f, -0.2627021074295044f, -0.20656681060791016f, -0.4964540898799896f, 0.771354079246521f,
    0.34506914019584656f, 0.2298332303762436f, -0.03364536166191101f, 0.41585102677345276f, 0.4942755103111267f,
    -0.21670658886432648f, 0.6226603984832764f, 0.407122939825058f, 0.8550289869308472f, -0.14551468193531036f,
    0.14418624341487885f, 0.10156578570604324f, 0.4967154562473297f, -0.3446918725967407f, -0.18476200103759766f,
    0.509307324886322f, 0.18013638257980347f, -0.05404568463563919f, 0.30377936363220215f, 0.1166694313287735f,
    -0.16829879581928253f, -0.21213099360466003f, -0.09596774727106094f, 0.03288441523909569f, 0.0925089567899704f,
    0.07487902045249939f, -0.3280003070831299f, -0.08145713806152344f, 0.6030308604240417f, -0.21363848447799683f,
    0.10906849056482315f, 0.06541624665260315f, -0.7161781787872314f, -0.7175437808036804f, 0.4211655855178833f,
    -0.7074576616287231f, 0.7692446708679199f, -0.4480665326118469f, 0.012649022042751312f, -0.6779064536094666f,
    0.3676844537258148f, 0.13742336630821228f, 0.46815225481987f, 0.09895343333482742f, 1.0190799236297607f,
    0.27507635951042175f, -0.2620878219604492f, -0.18033364415168762f, 0.2220548838376999f, -0.06326502561569214f,
    0.8658708333969116f, 0.13279390335083008f, 0.6807969212532043f, -0.0643172413110733f, 0.3368240296840668f,
    0.1784925013780594f, -0.26198792457580566f, -0.06023908779025078f, 0.6047727465629578f, 0.16628870368003845f,
    -0.19712039828300476f, 1.047426700592041f, 1.0015329122543335f, 0.27345359325408936f, 0.024053597822785378f,
    0.4656030535697937f, -0.018407706171274185f, -0.20136508345603943f, 0.4483274817466736f, 0.05369684845209122f,
    -0.5170575976371765f, 0.20885911583900452f, 0.09596177190542221f, -0.005177242681384087f, 0.019153494387865067f,
    -0.6524697542190552f, -0.08216854929924011f, -0.05513909459114075f, 0.2425464391708374f, -0.43066948652267456f,
    -0.4282342791557312f, 0.22904343903064728f, -0.4783391058444977f, -0.13568399846553802f, 0.5559776425361633f,
    -0.3394624590873718f, -0.2316313534975052f, 1.1672296524047852f, 0.3665112853050232f, 0.4873964190483093f,
    -0.23461125791072845f, 0.20339161157608032f, 0.009613177739083767f, -0.24543066322803497f, 0.31678900122642517f,
    0.012212591245770454f, 0.24140387773513794f, 0.14624068140983582f, -0.024058789014816284f, 0.07667642831802368f,
    -0.3752662241458893f, 0.15618804097175598f, -0.08246442675590515f, 0.4798325002193451f, -0.42664530873298645f,
    -0.4106430113315582f, -0.44117826223373413f, 1.5119816064834595f, 0.5846834182739258f, -0.06448564678430557f,
    0.24855779111385345f, -0.3999273478984833f, 0.11541622132062912f, 0.06563146412372589f, -0.1159009039402008f,
    0.011469516903162003f, 0.03649456426501274f, 0.4928162097930908f, 0.5260660648345947f, -1.1427496671676636f,
    0.4699663817882538f, -0.03126286715269089f, 0.048213280737400055f, -0.49053898453712463f, -0.6751801371574402f,
    -0.3917398154735565f, -0.4059758484363556f, 1.101800799369812f, 0.10528519749641418f, 0.5340827703475952f,
    0.21539507806301117f, 0.09089717268943787f, -0.19414982199668884f, -0.8916181325912476f, 0.16900867223739624f,
    0.22922979295253754f, 1.373182773590088f, -0.06746350228786469f, 0.016426391899585724f, 0.2363613396883011f,
    -0.024529187008738518f, -0.01777208037674427f, -0.07013720273971558f, -0.054862067103385925f, 0.05910015106201172f,
    0.1881871074438095f, -0.0010255039669573307f, 0.0566045343875885f, 0.34172794222831726f, -0.3706648349761963f,
    0.7940165996551514f, 0.1683148592710495f, 0.27712029218673706f, 0.3246441185474396f, -0.2104106992483139f,
    0.174525186419487f, -0.6411390900611877f, 0.048806916922330856f, 0.3426571786403656f, 1.1030828952789307f,
    -0.12944138050079346f, -0.6105656027793884f, 0.015341201797127724f, 0.314791202545166f, 0.2733254134654999f,
    -0.30474963784217834f, 0.011578974314033985f, -0.48808982968330383f, 0.30990341305732727f, -0.12799249589443207f,
    -0.26574239134788513f, 0.0004895447054877877f, -0.06099633127450943f, -0.5502384901046753f, 0.21264474093914032f,
    -0.13251851499080658f, 0.07922139763832092f, 0.8914428353309631f, -1.3199362754821777f, 0.9162413477897644f,
    1.6149262189865112f, 2.2563159465789795f, -0.9378805160522461f, -0.8591818809509277f, -1.021925687789917f,
    0.4700568914413452f, -0.11852401494979858f, -0.18288478255271912f, -0.7102375030517578f, -0.17905011773109436f,
    -0.26002514362335205f, 0.629862904548645f, 0.13101451098918915f, 1.7272013425827026f, -0.9467690587043762f,
    -0.07517015933990479f, 0.09195102006196976f, -0.7187508940696716f, -0.10674238204956055f, -0.7454633116722107f,
    -0.6568446755409241f, -0.11057360470294952f, -0.06682045757770538f, -0.06811076402664185f, -0.08768215030431747f,
    -0.28329548239707947f, -0.15893879532814026f, -0.20408472418785095f, -0.03954903036355972f, -0.029606176540255547f,
    0.2115398347377777f, -0.34570077061653137f, -0.1419948935508728f, -0.08281230181455612f, 0.18609929084777832f,
    -0.3410724401473999f, -0.18377238512039185f, -0.6196319460868835f, -0.7298126220703125f, -0.1311543732881546f,
    -0.7333112955093384f, -0.8213269114494324f, -0.6222610473632812f, -0.12633277475833893f, 0.14074520766735077f,
    -0.7003065347671509f, 0.10172675549983978f, -0.1409386545419693f, -0.01088155247271061f, -0.7018960118293762f,
    0.36946505308151245f, -0.49108898639678955f, 0.023343218490481377f, 0.29652929306030273f, 1.2480192184448242f,
    0.921765923500061f, 0.7356857657432556f, -0.2332613468170166f, -0.23724469542503357f, 0.00046185910468921065f,
    -0.13891805708408356f, 0.08418866246938705f, -0.030978089198470116f, 0.03060409612953663f, 0.48735979199409485f,
    1.051666498184204f, 0.3790818452835083f, -0.28534966707229614f, -0.06565733253955841f, 0.11265735328197479f,
    -0.052144523710012436f, 0.1685788333415985f, 0.15212418138980865f, -0.030007364228367805f, 0.01546446606516838f,
    -0.24697934091091156f, -0.9223544597625732f, -1.2453008890151978f, -0.20926600694656372f, 0.25155162811279297f,
    0.3962568938732147f, 0.8606157302856445f, 0.7774534225463867f, -0.011000613681972027f, -0.2156766951084137f,
    0.10661420226097107f, -0.17500615119934082f, -0.32462260127067566f, -0.2975442707538605f, -0.28097614645957947f,
    0.3339206576347351f, -0.7504140138626099f, 0.017262425273656845f, -0.20762419700622559f, -0.2029535174369812f,
    -0.1323288232088089f, 0.2356465458869934f, 0.9434389472007751f, -0.2997289001941681f, 0.17739073932170868f,
    0.09590362757444382f, 0.24061523377895355f, 0.13961313664913177f, 0.32851147651672363f, 0.5547970533370972f,
    -0.7510643005371094f, 0.38140034675598145f, -0.4387584924697876f, 0.1369219720363617f, 0.06775756180286407f,
    0.13848771154880524f, 0.21752050518989563f, -0.811288595199585f, -1.4133490324020386f, 0.13162079453468323f,
    0.17199310660362244f, -0.16224625706672668f, 0.28659695386886597f, -0.10981369763612747f, 0.9899917840957642f,
    -0.025563085451722145f, -0.10214085876941681f, -0.832024097442627f, -0.5686575174331665f, 0.01627088338136673f,
    0.5421810746192932f, 0.10331512242555618f, -0.495227575302124f, 0.26852932572364807f, -0.37371549010276794f,
    0.2101467251777649f, -0.12470299750566483f, -0.1491967886686325f, -0.49491366744041443f, 0.21262797713279724f,
    -0.5002315640449524f, 0.2820405960083008f, 0.022464724257588387f, -0.19079282879829407f, -0.043235357850790024f,
    0.2613059878349304f, 1.0663888454437256f, 0.09056797623634338f, -0.5002208948135376f, -0.3560110628604889f,
    -0.14114156365394592f, -0.18768316507339478f, 0.5042487978935242f, -0.2468356192111969f, -0.583532989025116f,
    0.41262751817703247f, 0.08224546909332275f, -0.33939841389656067f, 0.0019821389578282833f, -0.3593819737434387f,
    0.2783083915710449f, 0.18524335324764252f, -0.5197725296020508f, 0.30015259981155396f, 0.09422096610069275f,
    -0.038123968988657f, -0.0830029547214508f, 0.04774165898561478f, 0.9031431674957275f, 0.5935872793197632f,
    0.2972452938556671f, -1.2983242273330688f, -0.1036708652973175f, 0.06229185312986374f, 0.33696040511131287f,
    -0.2117639183998108f, 0.18524868786334991f, -0.7308849096298218f, 0.3671327531337738f, 0.14352159202098846f,
    0.02180931158363819f, -0.06560070067644119f, -0.37442201375961304f, 1.3170784711837769f, 0.42307138442993164f,
    -0.09610524028539658f, 0.06663892418146133f, -0.1549414098262787f, -0.14316163957118988f, -0.10261549800634384f,
    -0.07190507650375366f, 0.8260549306869507f, -0.9352391958236694f, 0.673473060131073f, -0.32467055320739746f,
    0.13923776149749756f, 0.4387938976287842f, 0.4583766758441925f, -0.4426476061344147f, -0.1458417922258377f,
    0.14840498566627502f, -0.037439100444316864f, -0.2728496491909027f, -0.6949600577354431f, 0.11620230227708817f,
    -0.05596959963440895f, 0.35012251138687134f, -0.40238744020462036f, 0.0938793271780014f, -0.16626478731632233f,
    0.05730761960148811f, 0.33058229088783264f, 1.77555513381958f, -0.14397919178009033f, -0.384208619594574f,
    1.2981141805648804f, 0.5969745516777039f, -0.23124398291110992f, 0.011789923533797264f, 0.6851848363876343f,
    -0.3368975520133972f, -0.0012189033441245556f, 0.08132439851760864f, -0.16796962916851044f, 0.25949767231941223f,
    0.04420753940939903f, -0.3500972390174866f, 0.037578947842121124f, 0.010652132332324982f, 0.23924878239631653f,
    0.01921750232577324f, -0.0693344995379448f, -0.0043066577054560184f, 0.018008476123213768f, 0.028557421639561653f,
    1.5314465761184692f, -0.793618381023407f, -0.8632898330688477f, -0.18678273260593414f, 0.0505647212266922f,
    -0.039593491703271866f, -0.6206750273704529f, -0.033303748816251755f, 0.21815119683742523f, 0.21766595542430878f,
    -0.24782082438468933f, -0.4540230333805084f, 0.25061458349227905f, -0.501999020576477f, 0.1457715630531311f,
    -0.1554480642080307f, 0.4109700918197632f, 0.01987258531153202f, -0.08265621960163116f, 0.19221481680870056f,
    -0.1875438243150711f, 1.5393409729003906f, 2.4124550819396973f, -1.534055471420288f, 0.5878381729125977f,
    -0.014831272885203362f, -0.31246596574783325f, 0.2681044042110443f, 0.8374477624893188f, 0.17642803490161896f,
    -0.23539790511131287f, -0.35644209384918213f, -0.7295740246772766f, 0.41213274002075195f, -0.33504006266593933f,
    -0.018227294087409973f, 0.1253325641155243f, 0.1444932073354721f, 0.18765224516391754f, -0.6067760586738586f,
    0.08716712892055511f, -0.7515991926193237f, -0.2483603060245514f, 0.13100531697273254f, -0.40060749650001526f,
    0.39703503251075745f, 1.5481232404708862f, 0.4075515568256378f, 0.2343112975358963f, -0.050302088260650635f,
    -0.3575877547264099f, -0.482014924287796f, -0.0022265266161412f, 0.14674462378025055f, -0.303484171628952f,
    0.2603376507759094f, 0.20514684915542603f, 0.047835979610681534f, 0.12804225087165833f, -0.2178041785955429f,
    0.48579514026641846f, 0.4677354693412781f, -0.162481889128685f, 0.9958615899085999f, 0.2607743442058563f,
    0.7537837028503418f, -0.06803712248802185f, -0.05681169405579567f, -1.0848346948623657f, -0.27224820852279663f,
    0.3571089506149292f, -0.07625472545623779f, 0.32420262694358826f, -0.1124572902917862f, 0.2125876098871231f,
    0.21158385276794434f, -0.47328466176986694f, 0.13935518264770508f, -0.24214941263198853f, 0.18522483110427856f,
    -0.006260626018047333f, -0.03176523745059967f, 0.7421311736106873f, 0.12344380468130112f, 0.14704382419586182f,
    0.19906306266784668f, -0.13625402748584747f, 0.07090878486633301f, -0.2630368769168854f, -0.5921692252159119f,
    0.2861429452896118f, 0.09047992527484894f, -0.2831847667694092f, -2.515287399291992f, 2.144578456878662f,
    -0.7651214599609375f, 0.019999999552965164f
};

static const float mesa_boogie_mark_iv_pushed_fender_head_scale = 0.02f;
