/**
 * Hoopi Pedal - Dual-channel guitar and vocal effects processor
 * Copyright (c) 2025-2026 Scope Creep Labs LLC
 * SPDX-License-Identifier: MIT
 */

// NAM Built-in Models - Combined Header
// Auto-generated by nam_to_header.py --combined
#pragma once
#include <cstdint>

static constexpr int NAM_MODEL_COUNT = 8;
static constexpr int NAM_WEIGHTS_PER_MODEL = 842;
static constexpr int NAM_WEIGHTS_SIZE = NAM_WEIGHTS_PER_MODEL * sizeof(float);  // 3368 bytes

// Model names for UI display
static const char* const builtInModelNames[8] = {
    "AMPEG DRIVE NANO",
    "Fender Deluxe Reverb - V5, T6, B4, Klon Gain 10, SM57 - Nano",
    "Mesa Boogie Mark IV - Pushed Fender",
    "Orange OR120 (Dark Crunch)",
    "Plexi",
    "Vox AC 30",
    "fullrig_fender_bandmaster_nano",
    "marshamphub cab"
};

// Model: AMPEG DRIVE NANO
static const float ampeg_drive_nano_weights[842] = {
    -0.3774172067642212f, 1.0524585247039795f, -1.4123845100402832f, -1.2239975929260254f, 0.3851586878299713f,
    0.7433270215988159f, 0.2805320620536804f, -0.2837778925895691f, -0.6819481253623962f, -0.23213829100131989f,
    0.40692922472953796f, 0.5638337731361389f, 0.017003094777464867f, 0.30370569229125977f, 0.5048013925552368f,
    0.3020319938659668f, 0.05258530005812645f, 0.7714940905570984f, 0.2626248598098755f, -0.05914042145013809f,
    -0.4246366024017334f, -0.22282953560352325f, -0.15482474863529205f, 0.6789071559906006f, 0.395971417427063f,
    -0.06044558435678482f, 0.7341997623443604f, 0.17400267720222473f, -0.39870986342430115f, -0.20152196288108826f,
    -0.04420270025730133f, 0.5277071595191956f, 0.012608181685209274f, -0.12977880239486694f, -0.47742176055908203f,
    -0.4639768600463867f, -0.16854174435138702f, -0.02797355130314827f, -0.06491700559854507f, 0.14107128977775574f,
    0.049197062849998474f, 0.36517733335494995f, 0.4147219657897949f, -0.2987707853317261f, -0.6781715750694275f,
    -0.5105755925178528f, 0.1766076683998108f, 0.5753401517868042f, 0.19365395605564117f, -0.01487310416996479f,
    0.5960754752159119f, 0.6074725389480591f, 0.15998777747154236f, -0.021950233727693558f, 0.22170251607894897f,
    -0.27446362376213074f, -0.10713165998458862f, -1.216499924659729f, -0.6841091513633728f, -0.8313957452774048f,
    -0.016235901042819023f, 0.12925317883491516f, -0.18190476298332214f, 0.3300155699253082f, 0.017973294481635094f,
    -1.0857709646224976f, -0.22825887799263f, -0.5121203064918518f, 0.3554924726486206f, 1.084625482559204f,
    -0.28131410479545593f, 0.18475940823554993f, 0.12195980548858643f, 0.669460117816925f, 0.646098792552948f,
    0.6630651354789734f, 0.17122116684913635f, -0.44373708963394165f, 0.045409195125103f, -0.16405068337917328f,
    -0.4331829249858856f, 0.2756931781768799f, 0.29525333642959595f, -0.1379045993089676f, 0.03415849804878235f,
    -0.11913517862558365f, -0.25728750228881836f, -0.08312798291444778f, 0.20287585258483887f, -0.3668394684791565f,
    0.11170985549688339f, 0.16166876256465912f, 0.1644412726163864f, -0.02177385240793228f, -1.2684156894683838f,
    -0.09052465856075287f, 0.3057872951030731f, 0.9443462491035461f, -0.5973414778709412f, -0.570939838886261f,
    -1.0139542818069458f, 0.0793938860297203f, -0.20522883534431458f, -0.6415666937828064f, 0.01917261816561222f,
    0.24396884441375732f, -0.04198705032467842f, -0.2259109765291214f, -0.0349043607711792f, 0.0021412346977740526f,
    0.12564785778522491f, 0.399088978767395f, -0.0975559800863266f, 0.4186744689941406f, 0.3073849380016327f,
    -0.24300336837768555f, -0.3089272379875183f, -0.13500873744487762f, -0.3162769675254822f, 0.09040583670139313f,
    0.12793509662151337f, 0.32497647404670715f, -0.9221225380897522f, -0.4163287281990051f, -1.307837963104248f,
    -0.6893476247787476f, -0.46557047963142395f, -1.2732595205307007f, -0.11309170722961426f, -0.4375602602958679f,
    0.0719056949019432f, 0.14015838503837585f, -0.29972317814826965f, 1.4013457298278809f, 0.7616626620292664f,
    1.1927485466003418f, -0.4973475933074951f, 0.7024033665657043f, -0.20618122816085815f, 0.5868872404098511f,
    -0.7241403460502625f, -0.23916800320148468f, 0.31342703104019165f, -0.2738302946090698f, -0.9314486980438232f,
    -0.6045379042625427f, 0.5078334212303162f, -0.2811744511127472f, -0.7796545028686523f, -0.4646781384944916f,
    -0.5494385957717896f, -0.4183306396007538f, -0.08119194209575653f, 0.2717195153236389f, 0.16574814915657043f,
    -0.37238284945487976f, -0.11705490201711655f, -0.03206299990415573f, -0.05506571754813194f, 0.23083741962909698f,
    -0.21009686589241028f, 0.2317720502614975f, -0.31462717056274414f, -0.4185401499271393f, -0.05518519505858421f,
    0.030815791338682175f, -0.052093181759119034f, 0.18192145228385925f, -0.27455341815948486f, -0.14161372184753418f,
    -0.06425383687019348f, 0.7660136222839355f, 0.818818211555481f, 0.7517590522766113f, -0.5888329148292542f,
    0.011169728823006153f, -0.3268592953681946f, -0.1251954436302185f, 0.0671921968460083f, -0.36285462975502014f,
    -0.5573651194572449f, -0.5977268218994141f, 0.5662285089492798f, 0.11752121150493622f, 0.09912149608135223f,
    0.5915729403495789f, 0.367256760597229f, 0.26843446493148804f, -0.5894442796707153f, 0.20548437535762787f,
    0.2640441954135895f, -0.3796442151069641f, -0.15930446982383728f, 0.3170114755630493f, -0.29738667607307434f,
    0.20097871124744415f, -0.1731916069984436f, 0.4351508915424347f, -0.4697960317134857f, -0.12535309791564941f,
    0.42333847284317017f, -0.04640423506498337f, -0.19269219040870667f, -0.011364240199327469f, -0.2064165472984314f,
    0.08635203540325165f, 0.06982681155204773f, 0.23241059482097626f, 0.4495295286178589f, 1.5165231227874756f,
    1.2428628206253052f, -0.7311809659004211f, 0.32592540979385376f, -0.12721559405326843f, 0.22228802740573883f,
    -0.0672738254070282f, -0.9515769481658936f, -0.05060478299856186f, 0.15272557735443115f, -0.9837637543678284f,
    -0.4071124494075775f, 0.8352551460266113f, 0.3235693871974945f, 0.1406201422214508f, -0.579653799533844f,
    0.1644047647714615f, -0.6969715356826782f, -0.2299061119556427f, -0.08794336020946503f, -0.05472847446799278f,
    -0.15360549092292786f, 0.41544896364212036f, -0.19772055745124817f, 0.1784881353378296f, 0.010394802317023277f,
    -0.26107510924339294f, 0.1858522593975067f, 0.5131606459617615f, -0.3823055624961853f, -0.060183797031641006f,
    0.22951039671897888f, -0.25336867570877075f, 0.18403154611587524f, 0.012751071713864803f, 0.2561912536621094f,
    -0.8224160075187683f, 0.2706231474876404f, -0.8393368124961853f, 0.43028026819229126f, -0.0024223201908171177f,
    -0.36511093378067017f, 0.7530592679977417f, 0.09944259375333786f, -0.4479389786720276f, -0.5099061131477356f,
    -0.20113500952720642f, -0.18109188973903656f, 0.014520561322569847f, -0.3500666320323944f, -0.2879509925842285f,
    0.0962868183851242f, 0.3272639513015747f, -0.1535765379667282f, 0.07098544389009476f, 0.18117617070674896f,
    -0.26080086827278137f, -0.5195220708847046f, 0.5196771621704102f, 0.20528694987297058f, 0.6540639400482178f,
    -1.5397075414657593f, -0.14571323990821838f, -0.07560092210769653f, -0.052273668348789215f, -0.6757485270500183f,
    -1.1518875360488892f, 0.7204076647758484f, 0.170419380068779f, -0.6717889308929443f, 2.8801519870758057f,
    0.012385986745357513f, -0.21845205128192902f, -0.16718940436840057f, 0.24147169291973114f, 1.2030574083328247f,
    -0.43311139941215515f, -0.37109124660491943f, -0.3392130732536316f, -0.11855878680944443f, -0.2250666320323944f,
    0.8962685465812683f, -0.377433717250824f, -0.3574647009372711f, -0.2438257783651352f, -0.3648458421230316f,
    -0.0818651020526886f, 0.7704398036003113f, -0.6670058965682983f, -0.14225491881370544f, 0.531356155872345f,
    0.84127277135849f, 0.22924546897411346f, -1.0999125242233276f, 0.28422772884368896f, 0.11108580231666565f,
    -0.2840062081813812f, 0.06632668524980545f, 0.04985848814249039f, 0.16254691779613495f, -0.116022489964962f,
    -0.10165596753358841f, -0.22333092987537384f, 0.0652560442686081f, 0.02681722864508629f, 0.2513246238231659f,
    0.19923512637615204f, -0.18575334548950195f, -0.21576130390167236f, -0.04353330656886101f, -0.24009713530540466f,
    0.05063481256365776f, 0.2475329339504242f, -0.3417689800262451f, 0.4278861880302429f, -0.13651823997497559f,
    -0.22084186971187592f, 0.2535408139228821f, -0.0628696084022522f, 0.019060950726270676f, -0.10063771903514862f,
    0.10006193816661835f, -0.45486730337142944f, 0.33472004532814026f, -0.4006950557231903f, -0.768604576587677f,
    -0.9728550910949707f, -0.025807112455368042f, 0.6669588685035706f, -0.2800025939941406f, 0.716061532497406f,
    -0.04141153022646904f, 1.0734812021255493f, 1.5197062492370605f, 0.03511132672429085f, 0.4299828112125397f,
    0.8000150918960571f, 0.7891830801963806f, 0.5082470178604126f, -0.49098971486091614f, -0.20865899324417114f,
    0.4117913544178009f, 0.17828308045864105f, 0.13132095336914062f, -0.8119611144065857f, -0.1739582121372223f,
    0.7035036683082581f, -0.14574435353279114f, 0.0014870839659124613f, -0.28766146302223206f, 0.02698434703052044f,
    -2.1243784427642822f, -1.8773846626281738f, -1.2389309406280518f, 0.05861813947558403f, 0.16025106608867645f,
    1.2403420209884644f, 0.034817133098840714f, -0.9532105922698975f, -0.9386003017425537f, -0.009244156070053577f,
    -0.007814723066985607f, 0.01059846393764019f, -1.3454595804214478f, -1.3665791749954224f, -0.20799650251865387f,
    -0.46919751167297363f, 0.9285311102867126f, 0.4722685217857361f, 0.09769272804260254f, 0.3528130352497101f,
    0.3070688843727112f, 0.0956960916519165f, 0.2637784779071808f, 0.24498429894447327f, -0.07470136880874634f,
    -0.01079685240983963f, 0.47458508610725403f, -0.051726922392845154f, -0.12021531164646149f, 0.4770680367946625f,
    0.033193256705999374f, 0.014634944498538971f, 0.026491036638617516f, -0.2926119863986969f, 0.0880206972360611f,
    0.1705472320318222f, -0.3752235174179077f, 0.1297052800655365f, 0.7832480669021606f, -0.05078493803739548f,
    0.2950039505958557f, -0.027846598997712135f, -0.31775152683258057f, -0.1936398297548294f, 0.15590038895606995f,
    0.027037320658564568f, 0.4072681665420532f, 0.4098268449306488f, -0.04459443688392639f, -0.49720028042793274f,
    -0.08004416525363922f, 0.019465502351522446f, -0.1462218314409256f, -0.32962608337402344f, 0.23100365698337555f,
    0.08299847692251205f, -0.04989873245358467f, -0.3388514816761017f, -0.4907754063606262f, 0.40445104241371155f,
    -0.08512912690639496f, 0.15083056688308716f, -0.33738017082214355f, -0.1593962460756302f, 0.2930864989757538f,
    -0.009163543581962585f, -0.17879585921764374f, -0.11021674424409866f, 0.14748768508434296f, 0.2780153155326843f,
    0.47911810874938965f, 0.3033703863620758f, 0.1897411197423935f, -0.00012220529606565833f, -0.10055913776159286f,
    -0.17835575342178345f, -2.0017669200897217f, -0.33598220348358154f, 0.30086749792099f, -0.41100335121154785f,
    -0.7690374255180359f, -0.9632988572120667f, -0.5700929164886475f, 0.6468184590339661f, -1.0303318500518799f,
    0.4625185430049896f, 0.38390493392944336f, 0.6068422794342041f, -0.31557416915893555f, -0.45925456285476685f,
    0.9658136367797852f, 0.7109814882278442f, 0.9575955271720886f, 0.337188720703125f, -0.81257164478302f,
    0.01839621551334858f, 0.12848609685897827f, 0.35650286078453064f, -0.08122294396162033f, -0.2877536118030548f,
    -0.15254905819892883f, 0.09067629277706146f, -0.2144017517566681f, -1.058969259262085f, 0.05456441640853882f,
    0.24518515169620514f, 0.4232182800769806f, -0.0172345582395792f, -0.025333238765597343f, -0.1235431656241417f,
    0.023004435002803802f, -0.1947842687368393f, 0.6105186343193054f, -0.8295372724533081f, -0.17889349162578583f,
    -1.8050674200057983f, -0.26752808690071106f, -0.15647071599960327f, -3.1545250415802f, 0.02455681562423706f,
    0.0308078583329916f, 0.4709045886993408f, 0.004888266324996948f, -0.00467692781239748f, -0.34317827224731445f,
    0.14493490755558014f, -0.4456731677055359f, -0.3048743009567261f, -0.11773887276649475f, -0.07755330204963684f,
    0.07853531837463379f, 0.02602379582822323f, -0.0634390264749527f, 0.29803353548049927f, 0.29173654317855835f,
    0.03718729689717293f, -0.6406394243240356f, -0.4443557560443878f, 0.6494309306144714f, 0.0709972083568573f,
    -0.14366324245929718f, 0.4949713349342346f, -0.1331506222486496f, 0.04276617616415024f, -0.07966616004705429f,
    -0.4768916368484497f, -0.2504163980484009f, 0.5387553572654724f, -0.05349048972129822f, -0.07390335202217102f,
    -0.24841251969337463f, 0.2764419913291931f, -0.22066587209701538f, -0.1028195172548294f, 0.18083864450454712f,
    0.7799104452133179f, 0.7689879536628723f, -0.4716894328594208f, 1.4287012815475464f, -0.08553503453731537f,
    0.21595513820648193f, -0.3298815190792084f, 0.5059130787849426f, -0.8421362638473511f, -0.2650168240070343f,
    -0.08583154529333115f, 0.28207144141197205f, 0.2090906947851181f, 0.41723060607910156f, -0.7154127955436707f,
    0.828794002532959f, 0.7001913189888f, -0.29479679465293884f, -0.29950717091560364f, -0.4235936105251312f,
    -0.02064259722828865f, 0.07848978042602539f, -0.1708679497241974f, -0.22650542855262756f, -0.014424044638872147f,
    -0.5111226439476013f, -0.10222836583852768f, -0.04967634752392769f, -0.09958487004041672f, 0.24626818299293518f,
    0.23892876505851746f, -0.04365413635969162f, -0.1332157999277115f, -0.06407640129327774f, 0.5158033967018127f,
    -0.15628302097320557f, -0.3070073425769806f, 0.042276203632354736f, -0.1427784413099289f, 0.016152892261743546f,
    -0.19595034420490265f, -0.2551939785480499f, -0.42202189564704895f, 0.7491469979286194f, 0.2552865743637085f,
    -0.45009779930114746f, -0.05321483686566353f, 0.1696041226387024f, 0.2415434569120407f, -0.11073485761880875f,
    0.2862066626548767f, -1.1029096841812134f, -0.29267004132270813f, 0.12201767414808273f, 0.36886027455329895f,
    1.1806302070617676f, 0.7179280519485474f, -0.12336134910583496f, -0.3947434425354004f, -1.000180959701538f,
    1.0490601062774658f, 0.287788063287735f, 0.03851936385035515f, 0.6433495283126831f, -0.24325087666511536f,
    -0.3173429071903229f, -0.4276577830314636f, -0.22609259188175201f, -0.09527701139450073f, 0.297867089509964f,
    -0.011440160684287548f, 0.2946392893791199f, 0.2100275307893753f, 0.8644911646842957f, -0.34480157494544983f,
    -0.8276736736297607f, 0.04126860201358795f, -1.2335330247879028f, 0.34800204634666443f, 0.19165657460689545f,
    0.3158348500728607f, -0.6072657704353333f, -0.031164370477199554f, -0.4252737760543823f, 0.18047486245632172f,
    0.42969587445259094f, -0.01457652822136879f, -0.09903507679700851f, -0.0035113063640892506f, -0.018458742648363113f,
    -0.0013228633906692266f, 0.05235425382852554f, -0.3780316114425659f, 0.0004534270556177944f, -0.051141250878572464f,
    0.6968817114830017f, -1.4186468124389648f, -0.15689195692539215f, 1.8164697885513306f, 0.389161080121994f,
    0.6409461498260498f, 0.2453693002462387f, 0.0835646539926529f, 0.5767778754234314f, 1.4240707159042358f,
    -1.4236841201782227f, -0.028724493458867073f, 0.10944953560829163f, -0.03858068212866783f, 0.03376047685742378f,
    0.169988214969635f, -0.13771390914916992f, -0.216577410697937f, -0.3066430985927582f, 0.3303435444831848f,
    -0.04417850077152252f, 0.04557560384273529f, 0.24216574430465698f, 0.22195246815681458f, 0.35309115052223206f,
    0.4340328574180603f, 0.14692679047584534f, -1.695267677307129f, -0.3944171071052551f, 0.3151015639305115f,
    0.614745020866394f, 0.6531259417533875f, -0.12861596047878265f, -0.15437330305576324f, -0.39715418219566345f,
    0.49347689747810364f, -0.0336175300180912f, -0.4299369156360626f, -0.3611004054546356f, 1.4433413743972778f,
    0.8482943773269653f, 1.1485134363174438f, 0.4071846306324005f, -0.5878956913948059f, -0.8418681025505066f,
    0.6686903238296509f, 0.7166991233825684f, 0.8297485113143921f, -0.7298877835273743f, 0.5879406332969666f,
    -0.22089464962482452f, -0.009962249547243118f, 1.1277408599853516f, -0.8263767957687378f, 1.149299144744873f,
    1.8856538534164429f, 1.1380916833877563f, 1.7665010690689087f, 0.29733559489250183f, 0.21583952009677887f,
    -0.25308436155319214f, -0.5047250986099243f, -0.19374780356884003f, 0.3585870862007141f, 0.18060694634914398f,
    0.19506756961345673f, -1.44965398311615f, -0.9455220699310303f, -0.2244148850440979f, -1.5567883253097534f,
    -0.1262766420841217f, -0.6313681602478027f, -0.07657121121883392f, 0.11677975207567215f, -0.023063410073518753f,
    -0.49483421444892883f, 0.4637037217617035f, -0.18872718513011932f, 0.12082097679376602f, -0.26577985286712646f,
    -0.18848885595798492f, -0.18550117313861847f, -0.038112714886665344f, 0.1568640023469925f, 0.08649913221597672f,
    -0.6973530054092407f, 0.15279455482959747f, -0.2146637886762619f, 0.07053021341562271f, 1.6948212385177612f,
    0.37114638090133667f, 1.2143969535827637f, -1.4378350973129272f, 0.7746115922927856f, -0.4517423212528229f,
    0.1406724452972412f, 0.08897660672664642f, -0.0640517845749855f, -0.11280907690525055f, 0.9680426716804504f,
    0.2820567488670349f, -0.570005476474762f, -0.048992354422807693f, -0.1642514318227768f, -0.06865788996219635f,
    -0.42905300855636597f, -0.24302636086940765f, 0.33987995982170105f, 1.2314938306808472f, 0.2208755761384964f,
    0.9228254556655884f, -0.6721534132957458f, -0.13759832084178925f, 0.403494268655777f, 0.6066155433654785f,
    -1.4028433561325073f, 0.5208696126937866f, -0.40359604358673096f, 0.287855863571167f, 0.6860498189926147f,
    -0.06347274035215378f, 0.9436395764350891f, -0.0957760214805603f, -0.13566885888576508f, -0.21061283349990845f,
    -0.7086654901504517f, -0.026303380727767944f, -0.32054805755615234f, -0.06075419485569f, -0.056500352919101715f,
    -1.2441743612289429f, -0.5403006672859192f, -2.2010281085968018f, 0.5960113406181335f, -0.20991212129592896f,
    0.6738471388816833f, 0.046243056654930115f, -0.3266867995262146f, -0.1576758474111557f, 0.038620006293058395f,
    0.059464458376169205f, 0.0004178876697551459f, 0.5292019248008728f, 0.09830440580844879f, 0.2957708537578583f,
    0.09195143729448318f, 0.04789760336279869f, -0.1829640120267868f, -0.42533138394355774f, -0.2502613663673401f,
    -0.2951962649822235f, 0.16398024559020996f, 0.2646249532699585f, -0.41558152437210083f, -0.7040086984634399f,
    -0.4263523817062378f, -1.2134462594985962f, 0.5233614444732666f, 0.3356350362300873f, 0.04815926402807236f,
    -0.26621580123901367f, -0.7176926136016846f, 0.32420074939727783f, 0.10793214291334152f, 0.2422066181898117f,
    0.026852022856473923f, 0.5356820821762085f, -0.13061240315437317f, -0.10537229478359222f, -0.3718382716178894f,
    0.12029305845499039f, 0.08641871809959412f, 0.08776992559432983f, 0.030691247433423996f, -0.9771910309791565f,
    -0.26368269324302673f, -2.1310172080993652f, 0.6038836240768433f, -0.29641419649124146f, -0.46046730875968933f,
    0.8756982684135437f, -0.10051070153713226f, 0.6019416451454163f, 0.001174718956463039f, -0.282662034034729f,
    0.026771947741508484f, -0.0299130380153656f, -0.13633695244789124f, -0.3549281358718872f, 0.13713465631008148f,
    0.01466060895472765f, -0.3859248161315918f, -0.1502346247434616f, -0.004004775546491146f, 0.20001919567584991f,
    0.07284212857484818f, 0.5995349287986755f, -0.18811164796352386f, 1.4211164712905884f, 1.1739296913146973f,
    0.18725977838039398f, -0.4729211926460266f, -0.010741655714809895f, -2.7627389430999756f, 0.07445519417524338f,
    -0.3381853997707367f, -0.2889411151409149f, -0.2760878801345825f, 0.13562358915805817f, -0.05038193613290787f,
    0.16933098435401917f, -0.0017278126906603575f, 0.09343874454498291f, 0.13708359003067017f, 0.2134634405374527f,
    0.02757599577307701f, -0.09777931869029999f, 0.1080072894692421f, -0.9174883365631104f, -0.326263427734375f,
    0.9644576907157898f, -0.6725320219993591f, 0.07090878486633301f, -0.2630368769168854f, -0.5921692252159119f,
    0.2861429452896118f, 0.09047992527484894f, -0.2831847667694092f, -0.38996797800064087f, 1.0634015798568726f,
    -0.12951239943504333f, 0.019999999552965164f
};

// Model: Fender Deluxe Reverb - V5, T6, B4, Klon Gain 10, SM57 - Nano
static const float fender_deluxe_reverb_v5_t6_b4_klon_gain_10_sm57_nano_weights[842] = {
    0.4125284254550934f, 0.8922041058540344f, 0.06442426145076752f, -0.9557670950889587f, -0.4783731997013092f,
    -0.014074919745326042f, -0.19703927636146545f, 0.08981006592512131f, 0.04061155393719673f, 0.15576034784317017f,
    0.021902991458773613f, -0.3342839777469635f, -0.2585626542568207f, -0.06144900619983673f, -0.18446078896522522f,
    -0.06860093772411346f, 0.6393032073974609f, 0.5119821429252625f, -0.5738062262535095f, 0.45463675260543823f,
    0.42665523290634155f, 0.037682268768548965f, -0.22087474167346954f, -0.20179115235805511f, 0.06601583957672119f,
    -0.5384289026260376f, -0.0425422266125679f, -0.06507153064012527f, -0.001044876524247229f, -0.08041008561849594f,
    -0.0347105897963047f, 0.4265701472759247f, -0.16792044043540955f, -0.12940940260887146f, -0.30489933490753174f,
    -0.05734457075595856f, -0.1479191780090332f, 0.07854855060577393f, 0.10945408046245575f, 0.13727572560310364f,
    0.15874843299388885f, -0.44089365005493164f, 0.12282004952430725f, 0.007117971312254667f, -0.33025962114334106f,
    0.026521770283579826f, 0.09613637626171112f, 0.45340460538864136f, -0.2037435919046402f, -0.28211069107055664f,
    0.29586362838745117f, 0.11628850549459457f, 0.12697221338748932f, -0.013594343326985836f, 0.2877458930015564f,
    -0.05815337598323822f, 0.30553850531578064f, -0.9475101828575134f, -0.7226863503456116f, -0.36107394099235535f,
    0.8882285952568054f, 0.8518331050872803f, -0.7975013256072998f, -0.4513125717639923f, 0.5128613114356995f,
    -0.2689642310142517f, -0.22343315184116364f, -0.07880319654941559f, 0.8302828073501587f, 1.1772785186767578f,
    -0.8328759670257568f, -0.5711489319801331f, -0.019962942227721214f, 0.2193000465631485f, 0.7040492296218872f,
    0.6773974895477295f, 0.09827880561351776f, -0.31092190742492676f, 0.04486347362399101f, -0.2012711763381958f,
    -0.3995392918586731f, 0.1411445587873459f, 0.4121987521648407f, -0.36556535959243774f, -0.18596526980400085f,
    0.14207182824611664f, -0.15761715173721313f, -0.13979095220565796f, 0.3579808175563812f, -0.19197650253772736f,
    0.48487022519111633f, -0.15139742195606232f, -0.057111386209726334f, -0.03218832612037659f, 0.015027696266770363f,
    -0.3943506181240082f, -0.10890253633260727f, 0.21894432604312897f, -0.4615189731121063f, -0.2027682363986969f,
    0.62677001953125f, 0.36653268337249756f, 0.27011361718177795f, -0.4292933940887451f, -0.3785196840763092f,
    0.10071704536676407f, 0.05656064301729202f, -0.40479162335395813f, 0.025445785373449326f, 0.2755553126335144f,
    -0.3233094811439514f, 0.14796334505081177f, -0.003746721660718322f, 0.428104966878891f, 0.17394214868545532f,
    -0.604808509349823f, 0.24313680827617645f, -0.10112173855304718f, -0.0750078335404396f, 0.18853580951690674f,
    0.13932888209819794f, -0.022140443325042725f, 0.24979928135871887f, -0.017047882080078125f, -0.3023901879787445f,
    -0.16323421895503998f, -0.037190940231084824f, 0.03642594814300537f, -0.06946443766355515f, -0.18473725020885468f,
    0.0011206598719581962f, 0.051717065274715424f, -0.2301318347454071f, 0.4271659553050995f, 1.1097772121429443f,
    -0.17713390290737152f, -0.6368948817253113f, -0.5352296233177185f, 0.4851713478565216f, 1.0633907318115234f,
    0.6818364262580872f, 0.5562235713005066f, 0.691615104675293f, -0.23521077632904053f, -0.9472267627716064f,
    -0.24013927578926086f, 0.6069632172584534f, 0.9850191473960876f, -0.4464374780654907f, -0.7275969386100769f,
    -0.5601708889007568f, -0.28377968072891235f, -0.0942065566778183f, 0.2760425806045532f, 0.27788737416267395f,
    -0.4228055775165558f, -0.026015089824795723f, -0.3310810327529907f, 0.2812480032444f, 0.1207089051604271f,
    -0.041845474392175674f, 0.09870026260614395f, -0.40577220916748047f, -0.26235416531562805f, 0.35909268260002136f,
    0.034658096730709076f, 0.010860167443752289f, -0.028721030801534653f, -0.6222493648529053f, 0.04370168223977089f,
    0.6817820072174072f, 0.5800211429595947f, 1.4623234272003174f, -0.12795709073543549f, -0.6731798052787781f,
    0.13984903693199158f, 0.2691987156867981f, 0.03363776579499245f, -0.053265996277332306f, -0.17652474343776703f,
    -0.025549614802002907f, -0.0672939196228981f, 0.16912828385829926f, 0.4763079881668091f, -0.1004679724574089f,
    0.05183706432580948f, 0.03237398341298103f, 0.06891632825136185f, -0.1329796463251114f, -0.04959412291646004f,
    0.14937996864318848f, 0.03011172078549862f, -0.3534908592700958f, -0.08519276231527328f, 0.1428484320640564f,
    -0.12746411561965942f, -0.062440868467092514f, -0.03467012569308281f, -0.2829166352748871f, -0.043391481041908264f,
    0.3383346199989319f, 0.2782140076160431f, -0.16920946538448334f, -0.24529814720153809f, -0.21319569647312164f,
    0.006923696491867304f, 0.06375622749328613f, 0.252922922372818f, 0.5227742195129395f, 0.20387083292007446f,
    0.36978980898857117f, -0.13340625166893005f, 0.47426459193229675f, 1.1510871648788452f, -0.3513438105583191f,
    0.1890573352575302f, -0.6849666237831116f, -0.8817072510719299f, 0.41461366415023804f, -0.5308557748794556f,
    -0.4198093116283417f, 0.7001071572303772f, -0.8251824975013733f, -0.013245712034404278f, -0.7678829431533813f,
    -0.11513438075780869f, -0.558354377746582f, -0.400392085313797f, -0.19973993301391602f, 0.08312546461820602f,
    -0.020984016358852386f, 0.32406094670295715f, -0.5732962489128113f, -0.12426812201738358f, 0.7298593521118164f,
    -0.5997501611709595f, -0.3986244797706604f, 0.3952401876449585f, -0.6030728220939636f, -0.39066699147224426f,
    0.8009953498840332f, -0.45348265767097473f, 0.6843539476394653f, -1.427048921585083f, 0.3107173442840576f,
    -0.3346976041793823f, -0.24514490365982056f, -0.27194643020629883f, 0.44477060437202454f, 0.12199828028678894f,
    0.18704858422279358f, 0.018939556553959846f, -0.15617415308952332f, -0.7791075706481934f, -0.32540518045425415f,
    0.8145201206207275f, -0.4942680299282074f, 0.04037401080131531f, -0.006541712209582329f, -0.5445966720581055f,
    0.3502216935157776f, -0.31653255224227905f, -0.21700768172740936f, 0.20628200471401215f, 0.20523510873317719f,
    -0.46137017011642456f, 0.1291014850139618f, 0.12556149065494537f, 0.7337115406990051f, -0.09605931490659714f,
    -0.4800224304199219f, 1.1616345643997192f, -0.25318586826324463f, 0.06511880457401276f, 0.11563119292259216f,
    -0.4991861581802368f, 0.09040983021259308f, 0.12361578643321991f, 1.9711381196975708f, -0.35696470737457275f,
    0.06170497089624405f, -0.13537976145744324f, -0.12836076319217682f, 0.14171302318572998f, 0.7518311738967896f,
    0.18536515533924103f, -0.28959015011787415f, 0.23667344450950623f, 0.5355054140090942f, 0.2286641001701355f,
    -0.5072944164276123f, -0.3248167335987091f, -0.2906622886657715f, -0.5552087426185608f, -0.4843481481075287f,
    -0.48337650299072266f, 1.4918463230133057f, -0.00431686220690608f, 0.17531055212020874f, -0.621515154838562f,
    -1.6146540641784668f, 0.2633307874202728f, -1.2399859428405762f, -0.26704955101013184f, 0.12309574335813522f,
    -0.1890830248594284f, 0.09387887269258499f, 0.16660228371620178f, 0.23152944445610046f, 0.10428116470575333f,
    -0.7103592753410339f, -0.08073197305202484f, 1.1065655946731567f, 0.4911230504512787f, 0.2143147736787796f,
    0.6426184773445129f, -0.7414260506629944f, -0.17224758863449097f, -0.31942838430404663f, 0.57161545753479f,
    0.22839060425758362f, 0.0842818021774292f, -0.3834346830844879f, -0.0008665402419865131f, 0.40648558735847473f,
    0.16782520711421967f, 0.08187070488929749f, 0.311796635389328f, -0.3270385265350342f, 0.03785393387079239f,
    -0.016508007422089577f, -0.6234750151634216f, 0.7782092094421387f, -0.15950149297714233f, -0.5929231643676758f,
    0.012744423933327198f, 1.0622564554214478f, -0.49111267924308777f, 0.7729228138923645f, 0.0007850971887819469f,
    -1.1167666912078857f, 0.12352775782346725f, 2.6398091316223145f, -0.37256312370300293f, 0.1206730529665947f,
    -0.022324593737721443f, -0.13180015981197357f, 0.12871159613132477f, -0.23667430877685547f, 0.27088263630867004f,
    -0.056205879896879196f, 0.09662812948226929f, -0.25945577025413513f, 0.13563743233680725f, 0.07644675672054291f,
    -0.936025857925415f, 0.054889146238565445f, 0.09675426781177521f, -0.06200744956731796f, 0.17425799369812012f,
    -0.45690903067588806f, -0.5055662393569946f, -0.3203205466270447f, 0.8863112330436707f, 0.039708461612463f,
    0.48230138421058655f, 0.34321972727775574f, -0.2879211902618408f, -0.9102643728256226f, -0.6809865832328796f,
    -0.9139280319213867f, -1.021288275718689f, -0.8900231122970581f, -1.2129602432250977f, -0.1217101514339447f,
    -0.9370927214622498f, 0.6041171550750732f, 1.763953447341919f, -0.026540394872426987f, 2.0959713459014893f,
    0.36069947481155396f, -0.039443228393793106f, 0.16340094804763794f, 0.17827574908733368f, 0.2973121106624603f,
    0.17222166061401367f, -0.1114637702703476f, 0.051532939076423645f, 0.20041823387145996f, -0.06845995038747787f,
    -0.07725587487220764f, -0.1414550542831421f, -0.16603206098079681f, -0.12191770225763321f, -0.24027690291404724f,
    -0.4042550325393677f, -0.14972558617591858f, 0.24095600843429565f, 0.06492859870195389f, -0.0690782219171524f,
    0.08370277285575867f, -0.27192971110343933f, 0.1274874359369278f, 0.2000550776720047f, -0.5928765535354614f,
    0.10321823507547379f, 0.5650559067726135f, 0.3524496257305145f, -0.11708392202854156f, 0.1552526205778122f,
    -0.48157021403312683f, 0.02468842640519142f, 0.7874523401260376f, 0.18964654207229614f, 0.37541663646698f,
    -0.6580150723457336f, 0.08799593150615692f, 0.36233848333358765f, 0.8937087059020996f, -0.09429740905761719f,
    -0.418484628200531f, -0.3172532618045807f, 0.11838161945343018f, 0.14841943979263306f, 0.16401003301143646f,
    0.19287297129631042f, -0.2907297909259796f, 1.5921566486358643f, 0.047834865748882294f, -0.7191140055656433f,
    -1.0409966707229614f, 0.11293552070856094f, 0.4072621464729309f, -0.04730787128210068f, -0.0019374012481421232f,
    -0.20105065405368805f, 1.2162188291549683f, -0.03712998703122139f, -0.09459224343299866f, -1.379408836364746f,
    0.2714868485927582f, -0.07279400527477264f, -0.16216371953487396f, 0.533623993396759f, -0.09539452195167542f,
    0.6222671866416931f, 0.37154462933540344f, 0.38731202483177185f, 0.47796499729156494f, -1.1092121601104736f,
    0.45679840445518494f, 0.5850847959518433f, 0.9237945675849915f, 0.595935046672821f, -0.17919577658176422f,
    -0.1050695851445198f, -0.04909185692667961f, 0.2607569098472595f, -0.3452571630477905f, -0.3481149673461914f,
    -0.02508598007261753f, -0.06132940202951431f, 0.020820744335651398f, 0.04890790209174156f, -0.019278932362794876f,
    0.4078575670719147f, 0.03383205085992813f, 0.07337978482246399f, -0.25750410556793213f, 0.052269771695137024f,
    0.10786247253417969f, 0.42153996229171753f, -0.04229094088077545f, -0.10968213528394699f, 0.5542195439338684f,
    -0.0761241540312767f, -0.05581633001565933f, 1.1938270330429077f, 0.010413425043225288f, -0.07217826694250107f,
    -1.908549189567566f, 0.04477604106068611f, 0.02983366884291172f, 1.9112284183502197f, -0.004363007843494415f,
    -0.22122007608413696f, 0.06984587758779526f, -0.03970375657081604f, -0.02895263023674488f, 0.010305315256118774f,
    0.02038191445171833f, 0.05629967898130417f, -0.04558304697275162f, -0.008454331196844578f, 0.002132824156433344f,
    -0.08355103433132172f, -0.2942647635936737f, -0.2809745669364929f, -0.052141137421131134f, -0.8245136737823486f,
    -0.047553375363349915f, 0.20603631436824799f, 1.3083971738815308f, 0.15632884204387665f, 0.10445865243673325f,
    -1.3598356246948242f, 0.16732192039489746f, 0.15748803317546844f, -0.02654014341533184f, -0.13731299340724945f,
    -0.07698167860507965f, 0.1575682908296585f, -0.7250814437866211f, 0.7066985964775085f, 0.5979472994804382f,
    -0.3440289795398712f, 0.8717980980873108f, 0.30244019627571106f, -1.1446770429611206f, -0.08933760970830917f,
    0.5055615901947021f, 0.23944038152694702f, -0.5513802766799927f, -0.2511654198169708f, -0.2782464325428009f,
    -0.5309000015258789f, 0.28996339440345764f, -0.3362489938735962f, 0.08120089769363403f, -0.4666252136230469f,
    0.21866004168987274f, 0.3366060256958008f, -0.3429884612560272f, -0.2777338922023773f, -0.4265802204608917f,
    -0.12700723111629486f, -0.2116081416606903f, -0.12449560314416885f, -0.16706594824790955f, -0.07656758278608322f,
    -0.1573953926563263f, -0.0929541066288948f, -0.12439215928316116f, -0.05742489546537399f, 0.030796444043517113f,
    0.01243084017187357f, -0.025334322825074196f, -0.02611871249973774f, 0.06466353684663773f, 0.02791617438197136f,
    -0.08113747090101242f, -0.10246029496192932f, 0.07871302217245102f, 0.09519165009260178f, 0.6286018490791321f,
    -0.010045269504189491f, -0.02911669947206974f, -0.5581140518188477f, 0.5270357728004456f, 0.30717378854751587f,
    -0.08725126832723618f, 0.0378454364836216f, -0.09851082414388657f, -0.17524203658103943f, 0.037631016224622726f,
    0.039546169340610504f, -0.05394113436341286f, 0.1052088588476181f, -0.0767231285572052f, -0.029085636138916016f,
    0.8109370470046997f, 0.8040711283683777f, -0.15726183354854584f, -0.3792968690395355f, -0.13301263749599457f,
    0.10703089833259583f, -0.17449815571308136f, 0.005369389429688454f, 0.22658507525920868f, 0.4454353153705597f,
    0.0010391962714493275f, -0.16643215715885162f, -0.28224053978919983f, 0.0009550311369821429f, -0.015465245582163334f,
    0.2540689706802368f, 0.1767932027578354f, -0.013121726922690868f, 0.4035865068435669f, 0.6252536177635193f,
    0.09728594869375229f, -0.20975178480148315f, -0.6289386749267578f, 0.26980850100517273f, 0.2831088602542877f,
    0.30558422207832336f, 0.10508294403553009f, -0.17647600173950195f, 0.3606700003147125f, -0.061358388513326645f,
    0.15399044752120972f, -0.24907447397708893f, 0.5115485191345215f, -0.1557098627090454f, 0.13790705800056458f,
    -0.4028352200984955f, 0.12558311223983765f, -0.4512788951396942f, -0.10080498456954956f, 0.010986341163516045f,
    -0.5336531400680542f, -0.332701176404953f, 0.38351449370384216f, -0.270050585269928f, -0.16942313313484192f,
    0.7336222529411316f, 0.24964238703250885f, 0.1187952309846878f, 0.2815839648246765f, 0.30844390392303467f,
    -0.5621020197868347f, -0.5782213807106018f, -0.9829445481300354f, 0.5255476236343384f, -0.24522556364536285f,
    -0.3832165002822876f, 0.2297699749469757f, 0.045600954443216324f, -0.017493097111582756f, 0.2639714479446411f,
    0.15096904337406158f, 0.07856623083353043f, 0.00014509644825011492f, -0.003587450599297881f, 0.3695192337036133f,
    -1.6071205139160156f, -0.5348666310310364f, -1.1453478336334229f, -0.575575590133667f, 0.3169231116771698f,
    0.2900436520576477f, -0.16377529501914978f, -0.058527614921331406f, -0.3349112868309021f, -0.2982272803783417f,
    0.46270373463630676f, -1.2866778373718262f, -0.8598076701164246f, 0.1059008315205574f, 0.003140021814033389f,
    -0.7062639594078064f, 0.05949539318680763f, 0.09182792156934738f, -0.1594076156616211f, 0.004137490410357714f,
    -0.3509442210197449f, -0.5746563076972961f, -0.17926254868507385f, -1.7378567457199097f, 0.22410766780376434f,
    0.012185527943074703f, -0.25426971912384033f, 0.27653488516807556f, 0.47075292468070984f, -0.3342799246311188f,
    0.28325241804122925f, 0.24748548865318298f, -0.11271482706069946f, -0.45319440960884094f, -0.7166087627410889f,
    -0.10687510669231415f, 0.31174352765083313f, -0.8761069774627686f, -0.9036981463432312f, -9.016418516694102e-06f,
    0.0709836483001709f, 0.06285961717367172f, -0.14416399598121643f, 0.16661305725574493f, 0.18652166426181793f,
    1.428040862083435f, -0.21164309978485107f, 0.23588547110557556f, 0.06693151593208313f, -0.04327164962887764f,
    0.01402957271784544f, -0.45391467213630676f, -0.247315913438797f, -0.1828395128250122f, 0.44269898533821106f,
    0.5254104137420654f, 0.769095778465271f, 0.7767643332481384f, -0.21151231229305267f, 0.5828456282615662f,
    -0.6820922493934631f, 0.0045263562351465225f, 0.14425882697105408f, 0.0032578937243670225f, 0.013955351896584034f,
    0.2542242705821991f, -0.4615575075149536f, -1.5110292434692383f, -0.35307586193084717f, -0.38065260648727417f,
    0.012308814562857151f, 0.1675655096769333f, 0.2657162547111511f, 0.5567293763160706f, -0.08605291694402695f,
    -0.2871089577674866f, 0.19246554374694824f, 0.01971125788986683f, 0.4415125846862793f, 0.5909292697906494f,
    0.37001466751098633f, 0.06966469436883926f, -0.5031053423881531f, 0.428158164024353f, 0.45633044838905334f,
    0.000916698423679918f, -0.0013323843013495207f, -1.5183510780334473f, -1.5393264293670654f, -0.7107354402542114f,
    1.1574046611785889f, 0.3793574869632721f, -0.438030868768692f, -0.3327954113483429f, -0.5119120478630066f,
    -0.2870655059814453f, -0.15357594192028046f, -0.7934972643852234f, 0.5653904676437378f, 0.28225812315940857f,
    -0.12652862071990967f, -0.2005094289779663f, -0.2741144299507141f, 0.6637547016143799f, -0.06252861022949219f,
    0.003902806667611003f, 0.015832943841814995f, 0.026593176648020744f, -0.06094416230916977f, 0.1523076295852661f,
    1.3746370077133179f, -1.414549708366394f, -0.8049703240394592f, -0.16345058381557465f, 0.09439095854759216f,
    -0.05885375291109085f, -0.038214653730392456f, -0.3966480493545532f, 0.3070439398288727f, -0.4650968909263611f,
    -0.19309097528457642f, -0.06007307767868042f, -0.02834809198975563f, -0.18861429393291473f, -0.44466692209243774f,
    -0.13922706246376038f, 0.17203372716903687f, -0.15377475321292877f, 0.09976693242788315f, -0.04607320949435234f,
    0.0336197130382061f, 0.005513713229447603f, 1.8000481128692627f, -0.9368985295295715f, -0.6529282927513123f,
    0.037785604596138f, -0.42978936433792114f, 0.3134025037288666f, -0.26046937704086304f, -0.14574483036994934f,
    -0.07941001653671265f, 0.21648408472537994f, -0.1718132048845291f, -0.3222487270832062f, 0.31255581974983215f,
    -0.035484541207551956f, 0.5061575174331665f, -0.40081626176834106f, 0.08669160306453705f, -0.052503641694784164f,
    -0.017416581511497498f, 0.25334012508392334f, -0.10108321905136108f, -0.25271883606910706f, 0.08486476540565491f,
    0.4322206676006317f, 1.3713477849960327f, 0.6954665184020996f, 0.3393869996070862f, -0.21324953436851501f,
    0.40930894017219543f, -0.2569260597229004f, 0.03683802857995033f, -0.08132611215114594f, -0.05280810222029686f,
    0.2137661874294281f, -0.26946336030960083f, 0.15204089879989624f, -0.17237864434719086f, 0.4364874064922333f,
    0.13268163800239563f, 0.5254335403442383f, -0.025209929794073105f, -0.037397611886262894f, 0.006797504145652056f,
    -0.5093737840652466f, -0.3479936122894287f, -0.1424889713525772f, -1.7771644592285156f, 0.20329813659191132f,
    0.19082963466644287f, 0.15840020775794983f, 0.1144484207034111f, -0.11259715259075165f, 0.20411600172519684f,
    0.5327833294868469f, -0.3609945774078369f, -0.1320558488368988f, -0.051610756665468216f, 0.3647304177284241f,
    -0.04542087763547897f, -0.6114439964294434f, -0.09732772409915924f, 0.1439528912305832f, 0.12025615572929382f,
    -0.25051450729370117f, 0.10837054252624512f, 0.07090878486633301f, -0.2630368769168854f, -0.5921692252159119f,
    0.2861429452896118f, 0.09047992527484894f, -0.2831847667694092f, -3.1492769718170166f, 4.229390621185303f,
    -0.09378979355096817f, 0.019999999552965164f
};

// Model: Mesa Boogie Mark IV - Pushed Fender
static const float mesa_boogie_mark_iv_pushed_fender_weights[842] = {
    -0.4132348895072937f, 0.8127213716506958f, -0.6562608480453491f, -0.690507173538208f, -0.2175365388393402f,
    -0.44401848316192627f, 0.14687155187129974f, 0.3087794780731201f, 0.4646436870098114f, -0.06485464423894882f,
    -0.19190973043441772f, -0.5638335943222046f, -0.17206218838691711f, -0.29141300916671753f, -0.6147395968437195f,
    0.13684093952178955f, 0.10853394865989685f, 0.5282001495361328f, -0.12800690531730652f, -0.1402888298034668f,
    -0.23657570779323578f, 0.12732350826263428f, -0.0723000019788742f, 0.5405628085136414f, 0.03222253918647766f,
    0.04357657954096794f, 0.5939540266990662f, -0.16788449883460999f, 0.014104879461228848f, 0.6067910194396973f,
    0.01044297032058239f, 0.07128166407346725f, -0.8161443471908569f, -0.27999746799468994f, 0.009722991846501827f,
    0.37538960576057434f, -0.01607854850590229f, 0.4260983169078827f, 0.7394956350326538f, 0.27888381481170654f,
    -0.26187559962272644f, 0.28957077860832214f, 0.09772245585918427f, -0.03641945868730545f, -0.6254092454910278f,
    -0.23976239562034607f, -0.01528538204729557f, 0.6124333143234253f, -0.01590680330991745f, -0.2294665277004242f,
    0.5952939391136169f, 0.375670462846756f, 0.1506248414516449f, 0.057346686720848083f, 0.17181041836738586f,
    -0.04987667128443718f, 0.06357604265213013f, -0.910460352897644f, -0.8611263036727905f, -0.6291980147361755f,
    0.1797829568386078f, 0.4596572816371918f, -0.015092570334672928f, 0.33408495783805847f, 0.4741688072681427f,
    -0.36377254128456116f, -0.1807727813720703f, -0.16376610100269318f, 0.7423716187477112f, -0.06774001568555832f,
    -0.6548107266426086f, -0.619433581829071f, 0.3209155201911926f, 0.20696775615215302f, 0.3475390374660492f,
    0.23264192044734955f, 0.14057433605194092f, -0.3780536949634552f, 0.03590697795152664f, -0.2697034478187561f,
    -0.22812557220458984f, -0.05067494139075279f, 0.4347008168697357f, -0.4177018404006958f, 0.17669309675693512f,
    -0.24770011007785797f, 0.16945737600326538f, 0.23966702818870544f, 0.12297376990318298f, -0.16183197498321533f,
    -0.1443844884634018f, 0.33846911787986755f, -0.28720760345458984f, -0.03981848806142807f, 0.044735897332429886f,
    0.1740669310092926f, 0.336478054523468f, -0.2491815984249115f, 0.7959186434745789f, 0.863864541053772f,
    0.3949008584022522f, -0.7748957872390747f, -0.716426432132721f, -0.08689963072538376f, -0.5515429377555847f,
    -0.10544375330209732f, -0.18335840106010437f, -0.03755452483892441f, 0.19525574147701263f, 0.02817492000758648f,
    -0.30618730187416077f, 0.5791573524475098f, -0.3834678828716278f, -0.039563652127981186f, 0.07107333093881607f,
    -0.10955332219600677f, -0.032882995903491974f, -0.43439751863479614f, 0.08093465119600296f, -0.29617932438850403f,
    0.22729693353176117f, 0.02787846140563488f, -0.4441063106060028f, 0.5411324501037598f, -0.14377343654632568f,
    0.04673430323600769f, -0.3138149380683899f, 0.2176002711057663f, -0.0595816969871521f, 0.035871248692274094f,
    -0.09390255063772202f, -0.08037080615758896f, -0.8901650905609131f, -0.3516590893268585f, 0.18888264894485474f,
    -0.847044825553894f, 0.7214597463607788f, 0.13018669188022614f, 0.45865491032600403f, 1.350315809249878f,
    0.055158581584692f, 0.30451807379722595f, 0.42958056926727295f, -0.11333571374416351f, -0.7075585126876831f,
    -0.1948494166135788f, 0.22328536212444305f, -0.26647037267684937f, -0.42002350091934204f, -0.36508122086524963f,
    -0.551132082939148f, -0.689190149307251f, -0.15041251480579376f, 0.28213679790496826f, 0.14710411429405212f,
    -0.410651296377182f, 0.5282705426216125f, 0.21490907669067383f, -0.7803146243095398f, -0.3441496789455414f,
    -0.7816639542579651f, -0.49529504776000977f, -0.30470722913742065f, -0.884081244468689f, 0.19047842919826508f,
    0.13276387751102448f, 0.32103604078292847f, 0.3212260603904724f, -0.32412511110305786f, 0.25247469544410706f,
    0.9129010438919067f, 0.4024239182472229f, 0.24403338134288788f, -0.08485807478427887f, -0.2167779803276062f,
    -0.08383215218782425f, -0.6014523506164551f, -0.46401897072792053f, 0.2994214594364166f, -0.057307157665491104f,
    0.7946938872337341f, -1.8928617238998413f, 0.6549888849258423f, -0.6107820868492126f, 0.28411734104156494f,
    0.6374040246009827f, -1.195103406906128f, 0.5263034701347351f, 0.18645347654819489f, 0.35480886697769165f,
    -0.02413007616996765f, -0.394059419631958f, -0.45075124502182007f, 0.47170084714889526f, 0.421429306268692f,
    -0.4833652377128601f, -0.20804139971733093f, 0.4724620282649994f, -0.024032343178987503f, 0.10691893845796585f,
    0.5473476052284241f, 0.5812718272209167f, 0.09698252379894257f, -0.1738491654396057f, -0.05334348604083061f,
    0.08774299919605255f, 0.2577298879623413f, 0.022935159504413605f, 0.1086823046207428f, -0.2285834699869156f,
    0.010583756491541862f, 0.4722648859024048f, 0.0880545973777771f, -0.6193379759788513f, 0.8565771579742432f,
    0.4574112892150879f, -0.48491448163986206f, -0.07487442344427109f, 0.6148352026939392f, -0.40980660915374756f,
    -0.3440881669521332f, 0.5913259983062744f, 0.8494791984558105f, -0.4472271203994751f, -0.2509397268295288f,
    0.2865534722805023f, -0.9325987100601196f, 0.11316795647144318f, -0.19909577071666718f, -0.1679311841726303f,
    -0.16158629953861237f, 0.43002891540527344f, 0.3172788619995117f, 0.5081267356872559f, -0.05602090433239937f,
    -0.3069498538970947f, 0.6006143689155579f, 0.042695723474025726f, -0.23421026766300201f, 0.26843520998954773f,
    0.204850435256958f, 0.2778344750404358f, -0.8713481426239014f, 0.21779748797416687f, 1.160656452178955f,
    0.23523473739624023f, 0.08263923972845078f, -0.8040862679481506f, 0.2506024241447449f, 0.21889574825763702f,
    -0.6733840107917786f, 0.2275661677122116f, 0.34960758686065674f, 0.13734644651412964f, -0.5201010704040527f,
    0.06072200462222099f, -0.1847735047340393f, 0.3278847336769104f, 0.3101328909397125f, -0.14803902804851532f,
    -0.20316612720489502f, -0.07322118431329727f, 0.18712379038333893f, 0.06751608848571777f, -0.22332099080085754f,
    -0.05966632068157196f, -0.3533839285373688f, 0.14206400513648987f, 0.348940372467041f, -0.37975624203681946f,
    -0.36647263169288635f, -0.2882622480392456f, -0.11795530468225479f, 0.14508028328418732f, -0.3902163803577423f,
    0.028307542204856873f, 0.4011795222759247f, -0.0658281221985817f, 0.02593327686190605f, 0.09467564523220062f,
    0.1647258847951889f, -0.2110854685306549f, -0.18067780137062073f, 0.09382329881191254f, -0.21464039385318756f,
    0.582523763179779f, -0.6019858121871948f, 0.001874741748906672f, -1.036370038986206f, -0.15493322908878326f,
    -0.655907928943634f, 0.5497695803642273f, -0.052833396941423416f, -0.5402562618255615f, -0.06315170228481293f,
    -0.7842729687690735f, 0.9397855997085571f, -0.28911229968070984f, 0.23827195167541504f, -0.5281046032905579f,
    -1.1832040548324585f, 0.00454616779461503f, -0.16216370463371277f, 0.36920788884162903f, 0.0015858295373618603f,
    -0.49159643054008484f, -0.20741869509220123f, 0.19143818318843842f, 0.3135332465171814f, 0.0652875080704689f,
    -0.3035350441932678f, 0.8804906606674194f, -0.2827526330947876f, 0.219680517911911f, 0.4154636859893799f,
    0.0009923875331878662f, -0.23354162275791168f, 0.10092731565237045f, 1.258630633354187f, 0.07876661419868469f,
    0.13005684316158295f, 0.1107475608587265f, 0.1332998424768448f, 0.041283346712589264f, 0.1263943761587143f,
    0.027217723429203033f, 0.16514162719249725f, 0.04883246496319771f, -0.13923272490501404f, 0.1917571723461151f,
    -0.33289214968681335f, -0.2627021074295044f, -0.20656681060791016f, -0.4964540898799896f, 0.771354079246521f,
    0.34506914019584656f, 0.2298332303762436f, -0.03364536166191101f, 0.41585102677345276f, 0.4942755103111267f,
    -0.21670658886432648f, 0.6226603984832764f, 0.407122939825058f, 0.8550289869308472f, -0.14551468193531036f,
    0.14418624341487885f, 0.10156578570604324f, 0.4967154562473297f, -0.3446918725967407f, -0.18476200103759766f,
    0.509307324886322f, 0.18013638257980347f, -0.05404568463563919f, 0.30377936363220215f, 0.1166694313287735f,
    -0.16829879581928253f, -0.21213099360466003f, -0.09596774727106094f, 0.03288441523909569f, 0.0925089567899704f,
    0.07487902045249939f, -0.3280003070831299f, -0.08145713806152344f, 0.6030308604240417f, -0.21363848447799683f,
    0.10906849056482315f, 0.06541624665260315f, -0.7161781787872314f, -0.7175437808036804f, 0.4211655855178833f,
    -0.7074576616287231f, 0.7692446708679199f, -0.4480665326118469f, 0.012649022042751312f, -0.6779064536094666f,
    0.3676844537258148f, 0.13742336630821228f, 0.46815225481987f, 0.09895343333482742f, 1.0190799236297607f,
    0.27507635951042175f, -0.2620878219604492f, -0.18033364415168762f, 0.2220548838376999f, -0.06326502561569214f,
    0.8658708333969116f, 0.13279390335083008f, 0.6807969212532043f, -0.0643172413110733f, 0.3368240296840668f,
    0.1784925013780594f, -0.26198792457580566f, -0.06023908779025078f, 0.6047727465629578f, 0.16628870368003845f,
    -0.19712039828300476f, 1.047426700592041f, 1.0015329122543335f, 0.27345359325408936f, 0.024053597822785378f,
    0.4656030535697937f, -0.018407706171274185f, -0.20136508345603943f, 0.4483274817466736f, 0.05369684845209122f,
    -0.5170575976371765f, 0.20885911583900452f, 0.09596177190542221f, -0.005177242681384087f, 0.019153494387865067f,
    -0.6524697542190552f, -0.08216854929924011f, -0.05513909459114075f, 0.2425464391708374f, -0.43066948652267456f,
    -0.4282342791557312f, 0.22904343903064728f, -0.4783391058444977f, -0.13568399846553802f, 0.5559776425361633f,
    -0.3394624590873718f, -0.2316313534975052f, 1.1672296524047852f, 0.3665112853050232f, 0.4873964190483093f,
    -0.23461125791072845f, 0.20339161157608032f, 0.009613177739083767f, -0.24543066322803497f, 0.31678900122642517f,
    0.012212591245770454f, 0.24140387773513794f, 0.14624068140983582f, -0.024058789014816284f, 0.07667642831802368f,
    -0.3752662241458893f, 0.15618804097175598f, -0.08246442675590515f, 0.4798325002193451f, -0.42664530873298645f,
    -0.4106430113315582f, -0.44117826223373413f, 1.5119816064834595f, 0.5846834182739258f, -0.06448564678430557f,
    0.24855779111385345f, -0.3999273478984833f, 0.11541622132062912f, 0.06563146412372589f, -0.1159009039402008f,
    0.011469516903162003f, 0.03649456426501274f, 0.4928162097930908f, 0.5260660648345947f, -1.1427496671676636f,
    0.4699663817882538f, -0.03126286715269089f, 0.048213280737400055f, -0.49053898453712463f, -0.6751801371574402f,
    -0.3917398154735565f, -0.4059758484363556f, 1.101800799369812f, 0.10528519749641418f, 0.5340827703475952f,
    0.21539507806301117f, 0.09089717268943787f, -0.19414982199668884f, -0.8916181325912476f, 0.16900867223739624f,
    0.22922979295253754f, 1.373182773590088f, -0.06746350228786469f, 0.016426391899585724f, 0.2363613396883011f,
    -0.024529187008738518f, -0.01777208037674427f, -0.07013720273971558f, -0.054862067103385925f, 0.05910015106201172f,
    0.1881871074438095f, -0.0010255039669573307f, 0.0566045343875885f, 0.34172794222831726f, -0.3706648349761963f,
    0.7940165996551514f, 0.1683148592710495f, 0.27712029218673706f, 0.3246441185474396f, -0.2104106992483139f,
    0.174525186419487f, -0.6411390900611877f, 0.048806916922330856f, 0.3426571786403656f, 1.1030828952789307f,
    -0.12944138050079346f, -0.6105656027793884f, 0.015341201797127724f, 0.314791202545166f, 0.2733254134654999f,
    -0.30474963784217834f, 0.011578974314033985f, -0.48808982968330383f, 0.30990341305732727f, -0.12799249589443207f,
    -0.26574239134788513f, 0.0004895447054877877f, -0.06099633127450943f, -0.5502384901046753f, 0.21264474093914032f,
    -0.13251851499080658f, 0.07922139763832092f, 0.8914428353309631f, -1.3199362754821777f, 0.9162413477897644f,
    1.6149262189865112f, 2.2563159465789795f, -0.9378805160522461f, -0.8591818809509277f, -1.021925687789917f,
    0.4700568914413452f, -0.11852401494979858f, -0.18288478255271912f, -0.7102375030517578f, -0.17905011773109436f,
    -0.26002514362335205f, 0.629862904548645f, 0.13101451098918915f, 1.7272013425827026f, -0.9467690587043762f,
    -0.07517015933990479f, 0.09195102006196976f, -0.7187508940696716f, -0.10674238204956055f, -0.7454633116722107f,
    -0.6568446755409241f, -0.11057360470294952f, -0.06682045757770538f, -0.06811076402664185f, -0.08768215030431747f,
    -0.28329548239707947f, -0.15893879532814026f, -0.20408472418785095f, -0.03954903036355972f, -0.029606176540255547f,
    0.2115398347377777f, -0.34570077061653137f, -0.1419948935508728f, -0.08281230181455612f, 0.18609929084777832f,
    -0.3410724401473999f, -0.18377238512039185f, -0.6196319460868835f, -0.7298126220703125f, -0.1311543732881546f,
    -0.7333112955093384f, -0.8213269114494324f, -0.6222610473632812f, -0.12633277475833893f, 0.14074520766735077f,
    -0.7003065347671509f, 0.10172675549983978f, -0.1409386545419693f, -0.01088155247271061f, -0.7018960118293762f,
    0.36946505308151245f, -0.49108898639678955f, 0.023343218490481377f, 0.29652929306030273f, 1.2480192184448242f,
    0.921765923500061f, 0.7356857657432556f, -0.2332613468170166f, -0.23724469542503357f, 0.00046185910468921065f,
    -0.13891805708408356f, 0.08418866246938705f, -0.030978089198470116f, 0.03060409612953663f, 0.48735979199409485f,
    1.051666498184204f, 0.3790818452835083f, -0.28534966707229614f, -0.06565733253955841f, 0.11265735328197479f,
    -0.052144523710012436f, 0.1685788333415985f, 0.15212418138980865f, -0.030007364228367805f, 0.01546446606516838f,
    -0.24697934091091156f, -0.9223544597625732f, -1.2453008890151978f, -0.20926600694656372f, 0.25155162811279297f,
    0.3962568938732147f, 0.8606157302856445f, 0.7774534225463867f, -0.011000613681972027f, -0.2156766951084137f,
    0.10661420226097107f, -0.17500615119934082f, -0.32462260127067566f, -0.2975442707538605f, -0.28097614645957947f,
    0.3339206576347351f, -0.7504140138626099f, 0.017262425273656845f, -0.20762419700622559f, -0.2029535174369812f,
    -0.1323288232088089f, 0.2356465458869934f, 0.9434389472007751f, -0.2997289001941681f, 0.17739073932170868f,
    0.09590362757444382f, 0.24061523377895355f, 0.13961313664913177f, 0.32851147651672363f, 0.5547970533370972f,
    -0.7510643005371094f, 0.38140034675598145f, -0.4387584924697876f, 0.1369219720363617f, 0.06775756180286407f,
    0.13848771154880524f, 0.21752050518989563f, -0.811288595199585f, -1.4133490324020386f, 0.13162079453468323f,
    0.17199310660362244f, -0.16224625706672668f, 0.28659695386886597f, -0.10981369763612747f, 0.9899917840957642f,
    -0.025563085451722145f, -0.10214085876941681f, -0.832024097442627f, -0.5686575174331665f, 0.01627088338136673f,
    0.5421810746192932f, 0.10331512242555618f, -0.495227575302124f, 0.26852932572364807f, -0.37371549010276794f,
    0.2101467251777649f, -0.12470299750566483f, -0.1491967886686325f, -0.49491366744041443f, 0.21262797713279724f,
    -0.5002315640449524f, 0.2820405960083008f, 0.022464724257588387f, -0.19079282879829407f, -0.043235357850790024f,
    0.2613059878349304f, 1.0663888454437256f, 0.09056797623634338f, -0.5002208948135376f, -0.3560110628604889f,
    -0.14114156365394592f, -0.18768316507339478f, 0.5042487978935242f, -0.2468356192111969f, -0.583532989025116f,
    0.41262751817703247f, 0.08224546909332275f, -0.33939841389656067f, 0.0019821389578282833f, -0.3593819737434387f,
    0.2783083915710449f, 0.18524335324764252f, -0.5197725296020508f, 0.30015259981155396f, 0.09422096610069275f,
    -0.038123968988657f, -0.0830029547214508f, 0.04774165898561478f, 0.9031431674957275f, 0.5935872793197632f,
    0.2972452938556671f, -1.2983242273330688f, -0.1036708652973175f, 0.06229185312986374f, 0.33696040511131287f,
    -0.2117639183998108f, 0.18524868786334991f, -0.7308849096298218f, 0.3671327531337738f, 0.14352159202098846f,
    0.02180931158363819f, -0.06560070067644119f, -0.37442201375961304f, 1.3170784711837769f, 0.42307138442993164f,
    -0.09610524028539658f, 0.06663892418146133f, -0.1549414098262787f, -0.14316163957118988f, -0.10261549800634384f,
    -0.07190507650375366f, 0.8260549306869507f, -0.9352391958236694f, 0.673473060131073f, -0.32467055320739746f,
    0.13923776149749756f, 0.4387938976287842f, 0.4583766758441925f, -0.4426476061344147f, -0.1458417922258377f,
    0.14840498566627502f, -0.037439100444316864f, -0.2728496491909027f, -0.6949600577354431f, 0.11620230227708817f,
    -0.05596959963440895f, 0.35012251138687134f, -0.40238744020462036f, 0.0938793271780014f, -0.16626478731632233f,
    0.05730761960148811f, 0.33058229088783264f, 1.77555513381958f, -0.14397919178009033f, -0.384208619594574f,
    1.2981141805648804f, 0.5969745516777039f, -0.23124398291110992f, 0.011789923533797264f, 0.6851848363876343f,
    -0.3368975520133972f, -0.0012189033441245556f, 0.08132439851760864f, -0.16796962916851044f, 0.25949767231941223f,
    0.04420753940939903f, -0.3500972390174866f, 0.037578947842121124f, 0.010652132332324982f, 0.23924878239631653f,
    0.01921750232577324f, -0.0693344995379448f, -0.0043066577054560184f, 0.018008476123213768f, 0.028557421639561653f,
    1.5314465761184692f, -0.793618381023407f, -0.8632898330688477f, -0.18678273260593414f, 0.0505647212266922f,
    -0.039593491703271866f, -0.6206750273704529f, -0.033303748816251755f, 0.21815119683742523f, 0.21766595542430878f,
    -0.24782082438468933f, -0.4540230333805084f, 0.25061458349227905f, -0.501999020576477f, 0.1457715630531311f,
    -0.1554480642080307f, 0.4109700918197632f, 0.01987258531153202f, -0.08265621960163116f, 0.19221481680870056f,
    -0.1875438243150711f, 1.5393409729003906f, 2.4124550819396973f, -1.534055471420288f, 0.5878381729125977f,
    -0.014831272885203362f, -0.31246596574783325f, 0.2681044042110443f, 0.8374477624893188f, 0.17642803490161896f,
    -0.23539790511131287f, -0.35644209384918213f, -0.7295740246772766f, 0.41213274002075195f, -0.33504006266593933f,
    -0.018227294087409973f, 0.1253325641155243f, 0.1444932073354721f, 0.18765224516391754f, -0.6067760586738586f,
    0.08716712892055511f, -0.7515991926193237f, -0.2483603060245514f, 0.13100531697273254f, -0.40060749650001526f,
    0.39703503251075745f, 1.5481232404708862f, 0.4075515568256378f, 0.2343112975358963f, -0.050302088260650635f,
    -0.3575877547264099f, -0.482014924287796f, -0.0022265266161412f, 0.14674462378025055f, -0.303484171628952f,
    0.2603376507759094f, 0.20514684915542603f, 0.047835979610681534f, 0.12804225087165833f, -0.2178041785955429f,
    0.48579514026641846f, 0.4677354693412781f, -0.162481889128685f, 0.9958615899085999f, 0.2607743442058563f,
    0.7537837028503418f, -0.06803712248802185f, -0.05681169405579567f, -1.0848346948623657f, -0.27224820852279663f,
    0.3571089506149292f, -0.07625472545623779f, 0.32420262694358826f, -0.1124572902917862f, 0.2125876098871231f,
    0.21158385276794434f, -0.47328466176986694f, 0.13935518264770508f, -0.24214941263198853f, 0.18522483110427856f,
    -0.006260626018047333f, -0.03176523745059967f, 0.7421311736106873f, 0.12344380468130112f, 0.14704382419586182f,
    0.19906306266784668f, -0.13625402748584747f, 0.07090878486633301f, -0.2630368769168854f, -0.5921692252159119f,
    0.2861429452896118f, 0.09047992527484894f, -0.2831847667694092f, -2.515287399291992f, 2.144578456878662f,
    -0.7651214599609375f, 0.019999999552965164f
};

// Model: Orange OR120 (Dark Crunch)
static const float orange_or120_dark_crunch_weights[842] = {
    0.4003174602985382f, 0.8874006271362305f, -1.048201084136963f, -1.0025361776351929f, -0.2520545721054077f,
    0.3474547266960144f, 0.015434003435075283f, 0.11441261321306229f, 0.2594086825847626f, 0.11697227507829666f,
    0.024302847683429718f, -0.3339477777481079f, -0.3185025751590729f, -0.07082173973321915f, -0.39309075474739075f,
    -0.01633346639573574f, -0.018264569342136383f, -0.2050355225801468f, -0.09493876248598099f, -0.20723193883895874f,
    -0.21644194424152374f, 0.3867892920970917f, 0.00972786732017994f, 0.5174904465675354f, -0.19896604120731354f,
    0.11321506649255753f, 0.5775229334831238f, -0.4275297522544861f, -0.450858473777771f, -0.16464245319366455f,
    -0.09366755932569504f, 0.011156484484672546f, -0.2590835988521576f, -0.13731010258197784f, 0.028124665841460228f,
    -0.20990782976150513f, -0.1618483066558838f, 0.47026610374450684f, 0.18405374884605408f, 0.12377352267503738f,
    -0.43432971835136414f, -0.1549539566040039f, 0.40944936871528625f, -0.6420518755912781f, -0.16362932324409485f,
    0.24210353195667267f, 0.5416938662528992f, 0.10960566252470016f, -0.5211366415023804f, 0.34403088688850403f,
    0.12422027438879013f, -0.12431435286998749f, 0.13691429793834686f, -0.0030892803333699703f, 0.1698257029056549f,
    -0.07620418071746826f, 0.23316937685012817f, -0.6265853047370911f, -0.6939092874526978f, -0.11970070004463196f,
    0.7590799927711487f, -0.4813305735588074f, -0.7556788921356201f, -0.4882907271385193f, 0.635520339012146f,
    -0.44974812865257263f, -0.28878018260002136f, -0.2567060589790344f, 0.16929341852664948f, 0.7771597504615784f,
    -0.4329524338245392f, 0.11679166555404663f, -0.35850152373313904f, 1.1466302871704102f, 0.8809545636177063f,
    1.0002280473709106f, 0.1347263902425766f, -0.3574940264225006f, -0.047911789268255234f, -0.20640972256660461f,
    -0.054114360362291336f, 0.21911069750785828f, 0.04983239248394966f, -0.028239334002137184f, 0.11239846050739288f,
    -0.1001206636428833f, -0.5658019185066223f, -0.32166385650634766f, 0.2475588321685791f, -0.45057904720306396f,
    0.15404191613197327f, 0.2804481089115143f, -0.23135723173618317f, 0.8327212929725647f, -0.4731824994087219f,
    -0.4531905949115753f, 0.47214221954345703f, -0.1031092032790184f, -0.5559864044189453f, 0.09720611572265625f,
    0.4028010070323944f, 0.49315109848976135f, -0.8208541870117188f, 0.1281084269285202f, -0.5326438546180725f,
    -0.03422084078192711f, 0.1942836493253708f, -0.465985506772995f, 0.014315885491669178f, 0.4110231399536133f,
    -0.04892861470580101f, -0.23542484641075134f, -0.737182080745697f, 0.4866301119327545f, 0.22193966805934906f,
    -0.6185951828956604f, -0.06588862091302872f, -0.09273409843444824f, -0.2811509072780609f, 0.122549869120121f,
    0.20261919498443604f, 0.04201136529445648f, -0.04912303015589714f, -0.10280606150627136f, -0.7668402194976807f,
    -0.3032103180885315f, 0.029452454298734665f, 0.16596238315105438f, -0.13019803166389465f, -0.07894950360059738f,
    -0.05154935643076897f, 0.09469576179981232f, -0.5880115032196045f, 0.1294902116060257f, 1.1902624368667603f,
    -0.24282269179821014f, 0.3492075204849243f, -0.09325728565454483f, 0.39672374725341797f, 0.547162652015686f,
    0.620134711265564f, 0.4255931079387665f, 0.8516366481781006f, 0.2538575530052185f, -1.0840940475463867f,
    -0.4104265570640564f, 0.595757246017456f, -0.3358917832374573f, -0.48524582386016846f, -0.24156975746154785f,
    -0.9396674633026123f, -0.7326614856719971f, -0.1403617411851883f, 0.29739969968795776f, 0.13846302032470703f,
    -0.3507532477378845f, 0.41802120208740234f, -0.49744394421577454f, -0.04436691105365753f, 0.17641445994377136f,
    -0.3990314304828644f, 0.07734141498804092f, -0.29431092739105225f, 0.13202933967113495f, -0.19470858573913574f,
    -0.1984056681394577f, 0.21973548829555511f, -0.04136023670434952f, -0.3687507212162018f, 0.056173551827669144f,
    0.513608992099762f, 0.07493293285369873f, 0.02472798153758049f, 0.02403455413877964f, 0.25466224551200867f,
    0.20637591183185577f, -0.09085984528064728f, -0.12693430483341217f, 0.5058945417404175f, -0.21769964694976807f,
    -0.15513235330581665f, -0.11582674086093903f, 0.8412692546844482f, -0.08264321088790894f, 0.6113420128822327f,
    0.5439096093177795f, 1.4162240028381348f, 0.743597149848938f, -0.34721308946609497f, 0.473269522190094f,
    -0.06107306480407715f, -0.22671423852443695f, 0.0697120949625969f, 0.15427298843860626f, -0.10583262890577316f,
    0.2921777367591858f, -0.6803420186042786f, 0.01217526663094759f, -0.09441809356212616f, 0.19690242409706116f,
    -0.26833221316337585f, -0.0268939808011055f, 0.25717779994010925f, -0.07806035876274109f, -0.043734319508075714f,
    0.09744743257761002f, 0.04446900635957718f, 0.1557052582502365f, 0.2873992919921875f, -0.11416992545127869f,
    0.27947309613227844f, -0.13440680503845215f, 0.9506648182868958f, -0.5090769529342651f, -0.13921909034252167f,
    0.09282761812210083f, -1.0534402132034302f, -0.49940726161003113f, 0.7474953532218933f, -0.951396107673645f,
    0.4118582010269165f, 0.9748950600624084f, 0.4049459397792816f, 0.37724047899246216f, -0.3844425678253174f,
    0.7193719148635864f, -0.0250777006149292f, 0.1022205650806427f, -0.19083768129348755f, -0.029750220477581024f,
    -0.07293765991926193f, 0.42558610439300537f, 0.2609270215034485f, 0.21786658465862274f, -0.05875775218009949f,
    0.0019138712668791413f, -0.1988244205713272f, 0.11961585283279419f, -0.17851780354976654f, 0.19417260587215424f,
    -0.9209772944450378f, 0.04973257705569267f, 0.11020228266716003f, 0.29963913559913635f, -1.0364224910736084f,
    -0.3207893967628479f, 0.47413283586502075f, -0.3656487762928009f, -0.14513561129570007f, 0.9813156127929688f,
    -0.1168837696313858f, 0.28479626774787903f, 0.18265341222286224f, 0.8523262739181519f, 0.06303519010543823f,
    -1.0166597366333008f, 0.29599931836128235f, -0.0009620591881684959f, -0.19099777936935425f, -0.18985572457313538f,
    -1.380185604095459f, 0.3214748203754425f, -2.387359380722046f, 0.36167606711387634f, -0.024064496159553528f,
    -0.43900901079177856f, 0.31118592619895935f, 0.09967935085296631f, 0.6195194125175476f, -0.09194247424602509f,
    -0.39848023653030396f, 0.030803371220827103f, -0.2054157704114914f, -0.30089494585990906f, -0.22820080816745758f,
    -0.97605299949646f, 0.9417917132377625f, -0.49410203099250793f, 0.18572956323623657f, 0.1474652886390686f,
    0.14505213499069214f, -0.17708632349967957f, -0.045049674808979034f, -0.040086984634399414f, -0.3300681412220001f,
    1.2220659255981445f, -0.46425849199295044f, 0.14950443804264069f, 0.10746639966964722f, 0.015673311427235603f,
    -0.40456438064575195f, 0.7674328088760376f, 0.7563178539276123f, -0.3189828097820282f, 0.4400065839290619f,
    -1.1464511156082153f, 0.6490107178688049f, -1.3361903429031372f, 0.37217533588409424f, 0.43986356258392334f,
    -1.13246750831604f, -0.4956185221672058f, 0.02000046893954277f, 0.646361768245697f, 0.099252849817276f,
    -0.343332976102829f, 0.04839736968278885f, 0.1339556872844696f, 0.2975110411643982f, 0.0445881225168705f,
    0.1752690076828003f, -0.030732175335288048f, -0.04490502178668976f, -0.45180365443229675f, -0.04887435957789421f,
    -0.2851503789424896f, 0.3809725344181061f, -0.2707802653312683f, -0.06460050493478775f, 0.15816305577754974f,
    -0.5698828101158142f, -0.5615308880805969f, -0.48261985182762146f, -0.026761624962091446f, -0.21472172439098358f,
    1.143003225326538f, -0.03678835555911064f, 0.14712496101856232f, -0.772007942199707f, 0.4562481939792633f,
    0.33407390117645264f, -0.579060971736908f, 0.22255338728427887f, -0.5278280973434448f, -0.9015616178512573f,
    -0.0744655430316925f, 0.02390299178659916f, 0.31945735216140747f, 0.3940097987651825f, 1.1693456172943115f,
    -0.10776121914386749f, -0.377358615398407f, -0.3098364770412445f, -0.37639904022216797f, 0.2724722921848297f,
    0.9110502004623413f, -0.08555765450000763f, 0.19766145944595337f, -0.44085410237312317f, -0.16750942170619965f,
    0.03849019110202789f, 0.891349732875824f, 0.22521048784255981f, -0.3240083158016205f, 0.2889845371246338f,
    -0.16748295724391937f, -0.09886292368173599f, 0.11984533816576004f, -0.13703639805316925f, -0.006974188610911369f,
    -0.1604732722043991f, -0.36863619089126587f, -0.5179827809333801f, 0.8442686200141907f, -0.279935747385025f,
    -0.48287391662597656f, -0.6377997994422913f, -0.9350760579109192f, -0.19696809351444244f, 0.9408965110778809f,
    0.20583568513393402f, 1.254041075706482f, -1.6638238430023193f, -2.056291103363037f, -0.1476375162601471f,
    0.24327896535396576f, 0.7739144563674927f, 0.40160155296325684f, 0.611496090888977f, -0.0773179829120636f,
    0.5715059041976929f, -0.14924603700637817f, 0.1993757039308548f, 0.3692091703414917f, 0.32801976799964905f,
    0.22553838789463043f, -0.43909311294555664f, 0.4404827058315277f, 0.23244591057300568f, -0.26191598176956177f,
    0.1722707450389862f, 0.31174764037132263f, -0.2070842981338501f, 0.3526764512062073f, 0.007188968360424042f,
    -0.13798236846923828f, 0.20950947701931f, 0.23603729903697968f, -0.36075469851493835f, 0.1645229011774063f,
    0.3082703649997711f, 0.4691731631755829f, 0.05102260410785675f, 0.2219126671552658f, -0.3969084918498993f,
    0.10259132832288742f, 0.42445671558380127f, 0.3703135550022125f, -0.31932520866394043f, 0.34123897552490234f,
    -0.03262883797287941f, -0.34872299432754517f, 0.4836503267288208f, -0.13000033795833588f, -0.094345822930336f,
    -0.286105215549469f, -0.19227105379104614f, 0.11487860977649689f, -0.04989878088235855f, 0.002168683335185051f,
    0.05959111079573631f, -0.3361032009124756f, -0.04169728234410286f, 0.1436089426279068f, 0.541523277759552f,
    -0.08794908225536346f, 0.2514146864414215f, -0.6251510977745056f, -0.03965024650096893f, 0.14325931668281555f,
    0.5480799674987793f, -0.1465219408273697f, 0.07500843703746796f, 0.0060390993021428585f, 0.02741902321577072f,
    0.13093996047973633f, 0.9309011101722717f, -0.22851154208183289f, -0.4478824734687805f, -0.9475089311599731f,
    -0.9939213395118713f, -0.4278201460838318f, -0.003079250454902649f, 0.6390284299850464f, -0.32928451895713806f,
    0.3383472263813019f, 0.561154305934906f, 0.3387925624847412f, 0.4969812333583832f, -0.4223848283290863f,
    0.6567299962043762f, 0.6011198163032532f, 0.6990753412246704f, 0.7511189579963684f, -0.22362492978572845f,
    0.2957458198070526f, 0.07436252385377884f, 0.19352814555168152f, -0.3611413538455963f, -0.25216183066368103f,
    0.12931804358959198f, -0.016539687290787697f, 0.07786747813224792f, 0.06018620729446411f, 0.08720086514949799f,
    -0.05335099995136261f, -0.03927060216665268f, 0.14659368991851807f, 0.034450381994247437f, 0.15787982940673828f,
    0.17339077591896057f, 0.17801406979560852f, -0.06284163147211075f, 0.01765923574566841f, -0.09142353385686874f,
    -0.059699419885873795f, -0.0068896133452653885f, 0.29607465863227844f, 0.012209463864564896f, 0.005391077138483524f,
    -0.3250512182712555f, -0.12134350836277008f, 0.03416362404823303f, 0.5555888414382935f, -0.05548641085624695f,
    -0.23686465620994568f, -0.18383684754371643f, -0.037237055599689484f, -0.19001154601573944f, -0.12463368475437164f,
    0.031273771077394485f, -0.027939610183238983f, 0.010854694992303848f, -0.05091753602027893f, -0.23844583332538605f,
    -0.1513170450925827f, -0.3058467507362366f, -0.010411066003143787f, -0.12299691140651703f, 0.446595698595047f,
    -0.1297757774591446f, -0.036131102591753006f, 0.07342184334993362f, -0.06853732466697693f, -0.04996267706155777f,
    -0.09830029308795929f, 0.1527259349822998f, -0.15896160900592804f, -0.152200847864151f, -0.15308040380477905f,
    0.17252422869205475f, 0.34185391664505005f, 0.1826077550649643f, 1.0125588178634644f, 0.8441659212112427f,
    0.460145503282547f, -0.3598989248275757f, 0.9342194199562073f, 0.7066372036933899f, -0.05593371018767357f,
    0.5096340179443359f, 0.2143290638923645f, 0.4457988142967224f, -0.30294349789619446f, -0.6567351222038269f,
    -0.12376733124256134f, 0.4153514504432678f, -0.09320277720689774f, -0.1254887580871582f, 0.12191172689199448f,
    0.7697275280952454f, 0.3288270831108093f, -0.25470471382141113f, -0.4605455994606018f, -0.281006395816803f,
    0.025947004556655884f, -0.3043302595615387f, -0.22054055333137512f, -0.11064789444208145f, 0.10374655574560165f,
    -0.05510779842734337f, -0.03925209864974022f, -0.1910391002893448f, -0.23278546333312988f, 0.15855130553245544f,
    0.13391683995723724f, -0.05019989237189293f, 0.21555446088314056f, -0.14584627747535706f, 0.07986517250537872f,
    -0.23685665428638458f, -0.016491223126649857f, -0.2874734103679657f, -0.12274172902107239f, 0.3860946595668793f,
    0.11589962244033813f, 0.007883130572736263f, -0.31894415616989136f, 0.14261195063591003f, -0.10150860249996185f,
    0.40563976764678955f, -0.0806867927312851f, -0.055805500596761703f, 1.5817971229553223f, 0.029811501502990723f,
    -0.03811606019735336f, 0.016095951199531555f, -0.6568953394889832f, -0.3126787543296814f, -0.011336952447891235f,
    0.626761257648468f, 0.8202370405197144f, -0.2645818293094635f, -0.44462403655052185f, -0.12000769376754761f,
    0.10729869455099106f, 0.27574920654296875f, 0.03770150616765022f, -0.05708247423171997f, 0.445946604013443f,
    0.11105327308177948f, 0.5959711670875549f, -0.16583725810050964f, -0.2536601722240448f, -0.3061700165271759f,
    -0.009548099711537361f, 0.24174900352954865f, -0.049961477518081665f, 0.5161608457565308f, 0.3181934654712677f,
    -0.3960292339324951f, -0.13417784869670868f, -0.22383545339107513f, 0.43210068345069885f, 0.3033030331134796f,
    0.29930150508880615f, 0.05683804303407669f, 0.4333823323249817f, -0.11949317902326584f, -0.03344349563121796f,
    -0.08259570598602295f, -0.4538164734840393f, 0.10836516320705414f, 0.3014857769012451f, -1.366650938987732f,
    -0.033600933849811554f, -0.12804509699344635f, -1.1532446146011353f, -0.012303004041314125f, -0.10200097411870956f,
    -0.06086486950516701f, -1.2042156457901f, 0.21643058955669403f, -0.6424943804740906f, 0.42001134157180786f,
    0.011448802426457405f, 0.2477494180202484f, 0.0523870624601841f, 0.20829683542251587f, 0.20269402861595154f,
    -0.40748047828674316f, -0.0843491181731224f, -0.03642018884420395f, 0.15259268879890442f, -0.08153184503316879f,
    -0.18026991188526154f, -0.022683747112751007f, -0.03228471428155899f, -0.05526188388466835f, 0.37661123275756836f,
    0.00018577977607492357f, 0.07057929784059525f, 0.12579245865345f, 0.09886625409126282f, 1.6707980632781982f,
    -1.1215236186981201f, 0.08090659976005554f, -1.978761911392212f, -0.47586721181869507f, 0.28503942489624023f,
    -0.08703912794589996f, -0.19611647725105286f, 0.025568882003426552f, -0.4483685791492462f, -0.3775317072868347f,
    -0.2700240910053253f, -0.8451405167579651f, 0.49313148856163025f, -0.17006652057170868f, 0.11595229804515839f,
    0.34074363112449646f, -0.286886602640152f, 0.278482049703598f, -0.14075103402137756f, -0.24788127839565277f,
    -0.09554366022348404f, -1.0612738132476807f, 0.25855156779289246f, 0.24665755033493042f, 0.8520846366882324f,
    -0.1147914007306099f, -0.14798569679260254f, 0.5852564573287964f, 0.20242710411548615f, -0.25545111298561096f,
    0.44955000281333923f, 0.6088095307350159f, 0.198849618434906f, -0.4941520392894745f, -0.14087963104248047f,
    -0.09944264590740204f, -0.3011579215526581f, -0.2891974151134491f, -0.1690511405467987f, 0.019154226407408714f,
    -0.071037657558918f, 0.2776305675506592f, -0.4627068042755127f, -0.3370043635368347f, 0.5500271320343018f,
    -0.12313082069158554f, 0.566474199295044f, -0.04448612779378891f, -0.022753534838557243f, 0.2239898294210434f,
    0.11253651976585388f, -0.25662535429000854f, -0.07395537197589874f, -0.09491494297981262f, 0.37596550583839417f,
    -0.07794936001300812f, -0.2985699474811554f, 0.22400525212287903f, -0.010132502764463425f, -0.1158384159207344f,
    -0.6979129910469055f, -0.005311460699886084f, 0.05568660795688629f, 0.03304802253842354f, 0.28462228178977966f,
    -0.11904509365558624f, 1.0882740020751953f, -2.331993579864502f, 0.9328750371932983f, -0.4075877368450165f,
    -0.024059375748038292f, 0.1608864963054657f, 0.41203567385673523f, -0.36340492963790894f, -0.3304571211338043f,
    -0.5266249775886536f, 0.15566277503967285f, -0.13221274316310883f, 0.026856066659092903f, 0.29682686924934387f,
    0.17795981466770172f, 0.2596515715122223f, -0.14110606908798218f, 0.2880036234855652f, 0.12386525422334671f,
    0.10635220259428024f, -0.5231181383132935f, 0.23362085223197937f, 0.38448676466941833f, -1.3603696823120117f,
    0.7569330930709839f, 0.6715565919876099f, -0.33952364325523376f, 0.228505939245224f, -0.5618170499801636f,
    0.09093352407217026f, -0.24105112254619598f, 0.3645016849040985f, -0.29614898562431335f, 0.3042430281639099f,
    0.178139328956604f, -0.10545902699232101f, -0.324901282787323f, -0.05690562725067139f, 0.26267972588539124f,
    -0.09170925617218018f, 0.02263619750738144f, 0.20856964588165283f, -0.03485911339521408f, 1.4511622190475464f,
    -0.15115639567375183f, 0.12737828493118286f, -2.0177266597747803f, -0.06027922406792641f, -0.0356496199965477f,
    -0.4162227213382721f, -0.009908612817525864f, -0.14924143254756927f, 0.4187318980693817f, -0.21488778293132782f,
    -0.13064078986644745f, 0.38652175664901733f, 0.17790953814983368f, 0.05975884944200516f, -0.05926591902971268f,
    -0.15435026586055756f, 0.440029114484787f, -0.10042612254619598f, 0.26418837904930115f, 0.4570011794567108f,
    -0.43620631098747253f, -0.667823076248169f, -0.19552476704120636f, 0.7072324752807617f, -0.9051992297172546f,
    0.3014131784439087f, -0.3713725209236145f, 0.308643639087677f, -0.144435316324234f, -0.18241746723651886f,
    -0.10624870657920837f, 0.46795526146888733f, -0.48412445187568665f, -0.2089354246854782f, 0.5004580616950989f,
    0.07371290773153305f, 0.32708653807640076f, -0.5445195436477661f, 0.8212502598762512f, -0.1588682234287262f,
    0.29500290751457214f, -0.7930043935775757f, -1.4170072078704834f, 0.010839865542948246f, -0.014690269716084003f,
    0.2942817509174347f, -0.7758029699325562f, 0.5976378917694092f, 0.40257084369659424f, 0.05159681290388107f,
    0.08949816972017288f, -0.37320050597190857f, 0.038599636405706406f, -0.29164886474609375f, -0.26312562823295593f,
    -0.07738187909126282f, -0.08921246975660324f, 0.641880989074707f, -0.1421475112438202f, 0.1308431625366211f,
    0.4920155704021454f, 0.14460742473602295f, -0.2945224344730377f, 0.972037136554718f, 1.8686914443969727f,
    -0.027715176343917847f, -0.6440063118934631f, -0.8521149158477783f, -0.5639134645462036f, -0.14222878217697144f,
    0.3593665063381195f, 0.019351806491613388f, 0.06252967566251755f, -0.4601876735687256f, -0.023131022229790688f,
    0.15606991946697235f, -0.6991919279098511f, 0.06687027215957642f, -0.07424484938383102f, 0.7009881734848022f,
    -0.023584524169564247f, -0.11824340373277664f, 0.08517874777317047f, 0.18595349788665771f, -0.2441525161266327f,
    1.8515018224716187f, 1.7073822021484375f, 0.07090878486633301f, -0.2630368769168854f, -0.5921692252159119f,
    0.2861429452896118f, 0.09047992527484894f, -0.2831847667694092f, -2.868804693222046f, 2.9772534370422363f,
    -0.16531933844089508f, 0.019999999552965164f
};

// Model: Plexi
static const float plexi_weights[842] = {
    0.29239267110824585f, 1.2456421852111816f, -1.1341813802719116f, -1.098008155822754f, -0.393001914024353f,
    0.7754238843917847f, 0.43698543310165405f, 0.196623757481575f, 0.9977931380271912f, 0.9210220575332642f,
    -0.0658312514424324f, -1.0687047243118286f, -1.1056180000305176f, -0.16721093654632568f, -1.129020094871521f,
    -0.8222584128379822f, -0.04406430944800377f, -0.07196439057588577f, -0.03920476511120796f, -0.3882777988910675f,
    -0.5021443963050842f, 0.32229799032211304f, 0.20466992259025574f, 0.8157179951667786f, -0.12502312660217285f,
    0.2929772734642029f, 0.8586053848266602f, -0.3477902114391327f, -0.36246657371520996f, -0.21971233189105988f,
    0.36906686425209045f, -0.20109577476978302f, -0.2573842406272888f, 0.5633308291435242f, 0.240111842751503f,
    -0.18980956077575684f, -0.8356155157089233f, 0.690373957157135f, 0.20398268103599548f, -0.5332750082015991f,
    -0.5613367557525635f, -0.42588987946510315f, 0.12047909945249557f, -0.701843798160553f, -0.6114634275436401f,
    0.26716384291648865f, 0.607169508934021f, 0.5593699216842651f, -0.5351812243461609f, 0.4122413396835327f,
    0.5691027641296387f, -0.1244596391916275f, -0.15399137139320374f, -0.26917314529418945f, 0.6966785192489624f,
    -0.19210173189640045f, 1.0155564546585083f, -0.7155629992485046f, -0.04030473530292511f, -0.12702053785324097f,
    -0.26582375168800354f, 0.5437356233596802f, -0.49873024225234985f, 0.48697319626808167f, 0.7404528260231018f,
    -0.7988247275352478f, 0.0024149285163730383f, -0.39744579792022705f, 0.3847787082195282f, 0.640923798084259f,
    -0.5054845213890076f, -0.03289857134222984f, 0.25401172041893005f, 0.676588237285614f, 0.6513015627861023f,
    0.8860677480697632f, 0.06636764854192734f, -0.5980455875396729f, -0.2565329074859619f, -0.1912337690591812f,
    -0.5484036803245544f, 0.21032297611236572f, 0.23837172985076904f, -0.3727259039878845f, 0.11969620734453201f,
    -0.13849204778671265f, 0.15214824676513672f, -0.27530908584594727f, 0.24257314205169678f, -0.22696860134601593f,
    -0.13001316785812378f, 0.2586126923561096f, 0.7226343154907227f, 0.2625509798526764f, -0.4402884244918823f,
    -0.8610056042671204f, 0.2679448127746582f, 0.5881737470626831f, 0.14227394759655f, -0.5307411551475525f,
    0.22825045883655548f, 0.7660407423973083f, -0.11098641157150269f, -0.21158523857593536f, -0.6631955504417419f,
    -0.2132449746131897f, -0.20472818613052368f, -0.4011000990867615f, -0.15026919543743134f, -0.23918309807777405f,
    -0.8761073350906372f, -0.4342527389526367f, -0.6456177830696106f, -0.40741243958473206f, -0.4551880657672882f,
    -0.5363443493843079f, -0.683505654335022f, -0.3236008584499359f, 0.7084600925445557f, 0.2917872965335846f,
    0.4645296335220337f, -0.3076130747795105f, -0.12499392032623291f, -0.107439324259758f, 0.14551249146461487f,
    -0.8107777237892151f, -0.05332263559103012f, 0.6540722250938416f, 0.12559573352336884f, -0.2549870014190674f,
    0.22726429998874664f, -0.09610873460769653f, -0.937821090221405f, 0.7856736183166504f, 0.7300784587860107f,
    -0.4914039671421051f, -0.19186890125274658f, -0.8566538095474243f, -0.4531365931034088f, 0.7389408946037292f,
    0.47280049324035645f, 0.7070446014404297f, 0.8248182535171509f, -0.11604166030883789f, -0.3739440441131592f,
    0.10804887861013412f, 0.6871274709701538f, 0.41936194896698f, -0.31338807940483093f, -0.8970873355865479f,
    -0.24270248413085938f, -0.5646560192108154f, -0.09372567385435104f, 0.2670975625514984f, -0.03707888349890709f,
    -0.31902578473091125f, -0.18814519047737122f, -0.05605340003967285f, -0.3625997304916382f, 0.4855741262435913f,
    0.5094089508056641f, -0.4392549693584442f, -1.485791802406311f, -0.5004944205284119f, -0.06801808625459671f,
    -0.3952009379863739f, -0.5842664241790771f, 0.5161333680152893f, -0.4533320963382721f, -0.07608992606401443f,
    0.33077535033226013f, -0.18993613123893738f, -0.043117206543684006f, 0.23764319717884064f, -0.17398951947689056f,
    -0.1665841042995453f, -0.08818801492452621f, -0.2730834484100342f, 0.7590358257293701f, -0.37710487842559814f,
    -0.5372670292854309f, 0.8199139833450317f, 0.3500862717628479f, 0.44421666860580444f, 0.5593382716178894f,
    0.11096937954425812f, -1.4204617738723755f, -0.038651976734399796f, 0.7158179879188538f, 0.554100751876831f,
    -0.19565600156784058f, -0.11876395344734192f, -0.5856614708900452f, -0.03322486951947212f, 0.3418331742286682f,
    -0.1590808779001236f, -0.23719586431980133f, -0.04279432073235512f, -0.18162347376346588f, 0.5772581100463867f,
    0.5789402723312378f, 0.1764133721590042f, -0.07381700724363327f, 0.0590737909078598f, -0.017018169164657593f,
    0.1629888266324997f, 0.0786297619342804f, 0.3973251283168793f, -0.2591036558151245f, -0.0477561317384243f,
    -0.5708192586898804f, -0.4710160195827484f, 1.0608181953430176f, -2.338257312774658f, 1.0930341482162476f,
    -0.7539196014404297f, -0.14400504529476166f, -0.23302340507507324f, -0.20882350206375122f, -0.34851616621017456f,
    0.4508349895477295f, -0.17599700391292572f, 0.4064258635044098f, -0.9037227630615234f, -1.0360689163208008f,
    1.6960890293121338f, -0.4549241364002228f, 0.45549169182777405f, -0.2764250934123993f, -0.07367072999477386f,
    -0.23181474208831787f, 0.3932667374610901f, -0.5148277878761292f, -0.674923837184906f, 0.949424147605896f,
    -0.3120254874229431f, 0.6654618382453918f, 0.5219771265983582f, -1.1498709917068481f, -1.2874171733856201f,
    0.28527912497520447f, 0.3127671182155609f, -0.13760791718959808f, -0.8354612588882446f, 0.8761189579963684f,
    -1.1245707273483276f, 0.16272971034049988f, -0.5343582034111023f, -0.03750165179371834f, -0.242364302277565f,
    0.48319339752197266f, -0.8027545213699341f, 0.3304003179073334f, -0.4800533652305603f, 0.2407236248254776f,
    -0.02454102225601673f, -0.1666596531867981f, -0.29779794812202454f, 0.5535183548927307f, -0.302767276763916f,
    0.034565459936857224f, 0.5034381747245789f, -0.07959897816181183f, -0.2599984109401703f, 0.4385324716567993f,
    0.14877697825431824f, 0.14549458026885986f, -0.33411091566085815f, 0.6089575290679932f, 1.226257562637329f,
    -1.3869584798812866f, 0.3836853504180908f, -0.6927939057350159f, -0.7849647998809814f, 0.5663360357284546f,
    0.9372547268867493f, -0.9452462792396545f, -0.6497489809989929f, -0.43035370111465454f, 0.8333455920219421f,
    0.6306173205375671f, -0.5655236840248108f, -0.6497606039047241f, 0.7833918333053589f, 0.4090859889984131f,
    1.2891443967819214f, 0.1125236302614212f, -0.7423163056373596f, 0.358662486076355f, 0.6413824558258057f,
    -1.9589051008224487f, -0.3840603828430176f, 1.1056106090545654f, 0.08832035958766937f, -0.5342615246772766f,
    -1.1075407266616821f, 0.9803651571273804f, 0.6819844245910645f, -0.4748537242412567f, -1.3200242519378662f,
    -1.3347619771957397f, -0.24219325184822083f, 1.3252108097076416f, 1.22649347782135f, -0.3334673047065735f,
    -0.08338245749473572f, 0.10786603391170502f, 0.24310266971588135f, 0.1219501718878746f, -0.759392499923706f,
    -0.6459305882453918f, 0.28192856907844543f, 0.732327938079834f, -0.4529951214790344f, -0.3775961697101593f,
    0.41172242164611816f, -1.3265258073806763f, -0.26928290724754333f, -0.39088284969329834f, 0.325001060962677f,
    -0.24579912424087524f, 0.5658631324768066f, -0.6504561901092529f, -0.1432437300682068f, -0.5825892090797424f,
    0.17412351071834564f, -0.41033318638801575f, -0.958942174911499f, 0.37448880076408386f, -0.6545175313949585f,
    -0.06698159873485565f, -0.1671316921710968f, 0.669906497001648f, 0.4053840637207031f, -1.0975459814071655f,
    0.4275839626789093f, 0.28984978795051575f, 0.05014602839946747f, -0.20600374042987823f, 0.03459198400378227f,
    -0.445767879486084f, -0.5861161351203918f, 0.03219935670495033f, 0.5296090245246887f, 0.07250358909368515f,
    -0.433687686920166f, 0.8394829034805298f, 0.3267083168029785f, -0.6109911203384399f, -0.0003414629609324038f,
    0.46399492025375366f, -0.4985838532447815f, -0.2085454761981964f, -0.26268795132637024f, 0.3720734417438507f,
    -0.16161780059337616f, -0.07105867564678192f, 0.4718528091907501f, -0.0012015411630272865f, 0.15415607392787933f,
    0.9344472289085388f, -1.4646297693252563f, 0.4048459231853485f, -0.49934083223342896f, -0.18390610814094543f,
    0.08186855167150497f, 0.7807790040969849f, -0.7459017634391785f, -1.51148521900177f, -0.8852072358131409f,
    -0.5254395604133606f, 0.5020246505737305f, -0.8972418904304504f, -0.3911784291267395f, -0.2487766146659851f,
    0.08113346248865128f, 1.6325703859329224f, 0.8950741291046143f, 0.28626230359077454f, 0.09425327926874161f,
    -0.3790503442287445f, 0.2744039297103882f, 0.6009988784790039f, 0.04509860649704933f, 0.6080380082130432f,
    0.5214632153511047f, -0.30453237891197205f, 0.6986637115478516f, -0.8749081492424011f, -0.11260734498500824f,
    -0.8033080101013184f, -3.0342681407928467f, -0.49742230772972107f, -0.21634551882743835f, 0.3998253345489502f,
    -0.5070884227752686f, 1.7429224252700806f, 2.1011757850646973f, 0.7669708132743835f, 0.4447304904460907f,
    -1.9389148950576782f, 0.20627285540103912f, -0.38474389910697937f, -2.157709836959839f, -0.21053220331668854f,
    -0.05783398076891899f, 2.770380735397339f, 0.22937026619911194f, -1.0786571502685547f, 0.7448610067367554f,
    0.7123295664787292f, 1.7770559787750244f, -0.037273406982421875f, 0.042865920811891556f, 1.847935438156128f,
    -0.14997193217277527f, 0.05013721063733101f, -1.8165580034255981f, -0.31183865666389465f, 0.11901863664388657f,
    -0.18806973099708557f, -0.048000119626522064f, 0.15090946853160858f, -0.018876109272241592f, 0.9227204322814941f,
    -0.36189979314804077f, 0.3009633719921112f, 1.062476634979248f, 0.21816322207450867f, 0.22425337135791779f,
    -1.9173674583435059f, -0.10054413974285126f, -0.760956883430481f, -0.7157494425773621f, 0.6686416864395142f,
    -0.04267014563083649f, -0.1152760460972786f, 1.8817553520202637f, 2.826486110687256f, 1.8651623725891113f,
    0.44202715158462524f, -1.430280089378357f, -1.4540749788284302f, 1.2037020921707153f, 0.13616745173931122f,
    -0.2859952449798584f, 0.7422162890434265f, 0.1419719159603119f, 0.09952430427074432f, -0.5259444713592529f,
    0.2086072415113449f, -0.07518625259399414f, 0.6325956583023071f, -0.08934985846281052f, 0.6815946698188782f,
    1.1814250946044922f, 0.12844231724739075f, 0.205120250582695f, -0.343116819858551f, -0.07852932065725327f,
    0.025570625439286232f, -0.019566617906093597f, 0.18646958470344543f, 0.022376494482159615f, -0.9804041385650635f,
    -0.34365421533584595f, 0.09202636778354645f, -0.9253889918327332f, 0.0514327734708786f, -0.019815517589449883f,
    1.1704399585723877f, -0.2718716263771057f, -0.10049758851528168f, -0.05438320338726044f, 0.009996913373470306f,
    -0.3070423901081085f, -0.19799861311912537f, -0.05655534565448761f, 0.1310567706823349f, 0.15531034767627716f,
    0.23080626130104065f, -0.1583295613527298f, -0.04829775542020798f, 0.02617628127336502f, -0.005200865678489208f,
    0.09534312039613724f, 0.0034168248530477285f, 0.18241043388843536f, -0.009890727698802948f, 0.24924707412719727f,
    -0.1973305195569992f, 0.23456545174121857f, -0.41274410486221313f, 0.0018841001437976956f, 0.15347015857696533f,
    -0.035809386521577835f, 0.04111156612634659f, -0.1157292053103447f, -0.03883817046880722f, 1.1718829870224f,
    -0.21262861788272858f, 0.1278703212738037f, 1.4468611478805542f, 0.4459250867366791f, 0.07866339385509491f,
    -1.7453731298446655f, 0.27390411496162415f, 0.17065158486366272f, 0.02736269310116768f, 0.08026165515184402f,
    -0.16049891710281372f, 0.07738472521305084f, 0.31289413571357727f, -0.7303440570831299f, 0.02501971833407879f,
    1.8487515449523926f, 0.08347134292125702f, -0.4448760449886322f, -0.08713004738092422f, 0.02791604772210121f,
    0.5301889777183533f, 0.5157139897346497f, -0.6704788208007812f, -0.494803786277771f, -0.39742761850357056f,
    -1.0922859907150269f, 1.1852717399597168f, 0.08599559962749481f, 0.2574959099292755f, -0.7651516199111938f,
    0.18381370604038239f, 0.5496636033058167f, -0.33839091658592224f, -0.3761173486709595f, -0.4461382031440735f,
    0.030009016394615173f, -0.18803279101848602f, -0.13775914907455444f, -0.15838101506233215f, -0.07922323048114777f,
    -0.17525097727775574f, -0.1285824477672577f, -0.14702631533145905f, -0.07414060086011887f, 0.016390377655625343f,
    0.07542579621076584f, -0.09223514050245285f, 0.013073877431452274f, -0.030510952696204185f, -0.001313796266913414f,
    -0.07971913367509842f, -0.0523371696472168f, 0.21151962876319885f, -0.20593710243701935f, -0.14084039628505707f,
    -0.07956504076719284f, -0.3223390281200409f, -0.3197028338909149f, 0.07843270152807236f, -0.09110932052135468f,
    -0.5405107736587524f, -0.022606365382671356f, -0.15906691551208496f, 0.09470678120851517f, 0.08218353986740112f,
    0.13574673235416412f, 0.08902213722467422f, 0.09855979681015015f, 0.8524500131607056f, 0.722161591053009f,
    0.6563207507133484f, 0.31081825494766235f, -0.15975715219974518f, -0.3759719133377075f, -0.014398179017007351f,
    0.1665346473455429f, 0.40909242630004883f, 0.003740644548088312f, -0.017590539529919624f, 0.3174518644809723f,
    -0.006498802453279495f, 0.5607786774635315f, 0.02052384614944458f, -0.09332643449306488f, -0.07957000285387039f,
    0.05694287270307541f, 0.08589164167642593f, 0.011854742653667927f, 0.15884700417518616f, 0.575022280216217f,
    -0.4734736382961273f, -0.3749604821205139f, -1.4296799898147583f, 0.6316275596618652f, 0.25874677300453186f,
    0.22022350132465363f, -0.0729338675737381f, -0.0005067897727712989f, 0.175344780087471f, 0.16220057010650635f,
    -0.30120590329170227f, 0.09553445875644684f, -0.015718728303909302f, 0.17026886343955994f, 0.1051386222243309f,
    0.20945432782173157f, 0.017462220042943954f, -0.5025088787078857f, -0.001270076259970665f, 0.20117931067943573f,
    -0.045832835137844086f, -0.41473859548568726f, 0.4702928960323334f, -0.4179903566837311f, -0.38849562406539917f,
    0.2135312706232071f, 0.26459965109825134f, 0.04259558022022247f, 0.46288198232650757f, 0.36959710717201233f,
    -0.7219387888908386f, 0.07661636918783188f, -0.13256262242794037f, 0.2898900806903839f, -0.07589395344257355f,
    -0.0740569457411766f, 0.3407977819442749f, -0.08402349799871445f, -0.11480094492435455f, 0.6886193752288818f,
    -0.06882282346487045f, -0.1252070665359497f, 0.025874391198158264f, -0.005158071406185627f, 0.8019179105758667f,
    -0.2851502001285553f, -0.4507284462451935f, -1.1185545921325684f, -0.4573817849159241f, 0.20127557218074799f,
    0.4062924385070801f, 0.01068820059299469f, -0.19193550944328308f, 0.05585378408432007f, -0.40357735753059387f,
    0.8282415866851807f, 0.056423068046569824f, 0.12731555104255676f, -0.17340019345283508f, 0.13107499480247498f,
    0.3798952102661133f, -0.07294301688671112f, -0.13337592780590057f, -0.16589446365833282f, -0.010448699817061424f,
    -0.000972038134932518f, 1.0901559591293335f, 1.0026021003723145f, -0.8696877956390381f, 0.9198020100593567f,
    0.004641569685190916f, -0.3195662498474121f, 0.1507142335176468f, -0.2038586288690567f, 0.05329744890332222f,
    0.6931524872779846f, 0.33475786447525024f, -0.5089089870452881f, -0.931854784488678f, -1.0100585222244263f,
    0.22023463249206543f, 0.476463258266449f, -0.30744469165802f, -0.35849958658218384f, -0.0033381162211298943f,
    -0.18582428991794586f, -0.015642955899238586f, -0.12288564443588257f, -0.9600623250007629f, -0.18739448487758636f,
    2.639054298400879f, -0.481619268655777f, 0.03307896852493286f, 0.17439420521259308f, 0.6269763708114624f,
    0.3811805844306946f, 0.17111939191818237f, -0.5910643935203552f, 0.3243732750415802f, 0.4788380563259125f,
    0.2092094123363495f, -0.5250020623207092f, -1.0718868970870972f, 2.2573091983795166f, 0.18777208030223846f,
    -0.21832075715065002f, 0.2542930841445923f, -0.3246893286705017f, 0.057018574327230453f, -0.22873426973819733f,
    0.48282092809677124f, 0.8976478576660156f, -1.641005516052246f, 0.6781943440437317f, -0.3582097291946411f,
    0.11067941039800644f, 0.6277519464492798f, 0.8968245387077332f, -0.021617025136947632f, -0.25306761264801025f,
    -0.4856411814689636f, 0.3958166837692261f, -0.2643001973628998f, 0.048437509685754776f, 0.22990770637989044f,
    0.384443074464798f, 0.2315075844526291f, 0.13714927434921265f, 0.4526281952857971f, 0.3036729097366333f,
    -0.10428676754236221f, 0.11293922364711761f, -1.2587980031967163f, -0.9904540181159973f, -1.2534284591674805f,
    1.4877148866653442f, 0.5471434593200684f, -0.2797209322452545f, -1.2323030233383179f, -1.674110770225525f,
    -1.6520401239395142f, -0.3880407214164734f, -0.24144533276557922f, -0.5564092397689819f, 0.10444892197847366f,
    0.23254120349884033f, -0.3079286813735962f, -0.06259322166442871f, -0.12187249213457108f, 0.2692483067512512f,
    0.4358929991722107f, -0.047834500670433044f, -1.1478557586669922f, 0.056294165551662445f, 0.1839432716369629f,
    1.9269593954086304f, -0.020420188084244728f, -0.6521932482719421f, -0.17152132093906403f, 0.33981117606163025f,
    -0.24935272336006165f, -0.6498798131942749f, -0.19310422241687775f, 0.1386207789182663f, 0.15004833042621613f,
    0.043034628033638f, 0.25213655829429626f, 0.3908170759677887f, -0.19035595655441284f, -0.20770587027072906f,
    -0.4334721863269806f, 0.14759604632854462f, -0.138270303606987f, 0.14791879057884216f, -0.029731430113315582f,
    0.22800886631011963f, -0.6410659551620483f, 1.38951575756073f, -0.5037161111831665f, -0.470247745513916f,
    0.1638849526643753f, -0.27383917570114136f, 0.5061139464378357f, 0.016200264915823936f, -0.5738152265548706f,
    0.20238220691680908f, -0.11937201023101807f, 0.08333800733089447f, 0.6758994460105896f, 0.8702341318130493f,
    -0.08755425363779068f, -0.13619965314865112f, -1.113276720046997f, 0.8000321984291077f, 0.043969761580228806f,
    -0.2802610993385315f, -0.05367126688361168f, -0.525316059589386f, 0.47804585099220276f, -0.15853992104530334f,
    0.048411775380373f, -0.33409154415130615f, 0.39722710847854614f, 0.4301477372646332f, -0.26173433661460876f,
    0.615462601184845f, -0.3349965214729309f, -0.2858146131038666f, -0.6059538125991821f, -0.06999054551124573f,
    0.3880046010017395f, -1.014561414718628f, 0.4016698896884918f, 0.3774271011352539f, 0.7197195291519165f,
    0.24489325284957886f, 0.18577100336551666f, -0.17925146222114563f, 0.402944952249527f, -0.6533703207969666f,
    -0.9512923955917358f, -0.6947715878486633f, -0.2787470519542694f, -0.6486135721206665f, -0.2432684749364853f,
    0.036901164799928665f, -0.06505122780799866f, -0.19631356000900269f, -0.213262677192688f, 0.09752612560987473f,
    0.08482765406370163f, -1.4996418952941895f, 0.21935975551605225f, 0.2951526939868927f, 0.23671409487724304f,
    0.05217691883444786f, -0.6137809157371521f, 0.6484055519104004f, 0.49621081352233887f, -0.24518321454524994f,
    0.7069995999336243f, -0.20489931106567383f, 0.07090878486633301f, -0.2630368769168854f, -0.5921692252159119f,
    0.2861429452896118f, 0.09047992527484894f, -0.2831847667694092f, -3.213918685913086f, 3.4409756660461426f,
    0.024017952382564545f, 0.019999999552965164f
};

// Model: Vox AC 30
static const float vox_ac_30_weights[842] = {
    0.06979745626449585f, 0.7474777698516846f, -0.2969450354576111f, -0.779924213886261f, -0.09382358193397522f,
    -0.22442448139190674f, 0.16924948990345f, 0.21501889824867249f, 0.22499102354049683f, -0.0374470017850399f,
    -0.08124855905771255f, -0.3081880807876587f, -0.1646445393562317f, -0.1699790060520172f, -0.36316561698913574f,
    0.13027118146419525f, -0.48266902565956116f, -0.4068561792373657f, -0.2933298945426941f, 0.5791155099868774f,
    0.3101271986961365f, 0.3417503833770752f, -0.7146728038787842f, 0.03639538213610649f, -0.14209607243537903f,
    -0.6478259563446045f, 0.07729507982730865f, -0.36322903633117676f, -0.32915356755256653f, 0.1395493894815445f,
    -0.46953192353248596f, 0.19537480175495148f, -0.5897155404090881f, 0.008376901969313622f, -0.12517289817333221f,
    0.15547437965869904f, -0.28958359360694885f, 0.2933056056499481f, 0.5262377262115479f, -0.008795666508376598f,
    -0.19909082353115082f, -0.11974358558654785f, -0.2794770896434784f, -0.25650596618652344f, -0.6458891034126282f,
    0.13106945157051086f, 0.18956197798252106f, 0.6229300498962402f, -0.37627723813056946f, -0.031688641756772995f,
    0.6152266263961792f, 0.0011736927554011345f, 0.20731577277183533f, -0.03548527508974075f, 0.13230857253074646f,
    -0.008745044469833374f, 0.09161676466464996f, -0.6588098406791687f, -0.5744091868400574f, -0.2543286085128784f,
    0.622883141040802f, 0.6731918454170227f, -0.3767413794994354f, -0.16587693989276886f, 0.49423766136169434f,
    0.058801114559173584f, -0.1787937432527542f, -0.15560734272003174f, 0.7099366784095764f, 0.9592389464378357f,
    -0.8780043721199036f, -0.6561881899833679f, 0.2332659363746643f, 0.10233543068170547f, 0.5552968382835388f,
    0.5209605693817139f, 0.12806226313114166f, -0.4825398325920105f, -0.15058712661266327f, -0.18953937292099f,
    -0.450361967086792f, 0.1880529671907425f, 0.2998998165130615f, -0.46764934062957764f, 0.045337654650211334f,
    0.008340969681739807f, -0.035826779901981354f, -0.0412740521132946f, 0.29382261633872986f, 0.010800103656947613f,
    0.032014213502407074f, 0.2994857132434845f, -0.24002261459827423f, -0.11665306240320206f, 0.22991015017032623f,
    -0.6666550040245056f, 0.000204532450879924f, 0.42822784185409546f, -0.6297788023948669f, -0.4495508074760437f,
