/**
 * Hoopi Pedal - Dual-channel guitar and vocal effects processor
 * Copyright (c) 2025-2026 Scope Creep Labs LLC
 * SPDX-License-Identifier: MIT
 */

// Model: Orange OR120 (Dark Crunch)
// Architecture: WaveNet, Channels: 4, Head: 2
// Weights: 842, Head scale: 0.02
#pragma once

// Raw float array for NamWavenet::load_weights()
static const float orange_or120_dark_crunch_weights[842] = {
    0.4003174602985382f, 0.8874006271362305f, -1.048201084136963f, -1.0025361776351929f, -0.2520545721054077f,
    0.3474547266960144f, 0.015434003435075283f, 0.11441261321306229f, 0.2594086825847626f, 0.11697227507829666f,
    0.024302847683429718f, -0.3339477777481079f, -0.3185025751590729f, -0.07082173973321915f, -0.39309075474739075f,
    -0.01633346639573574f, -0.018264569342136383f, -0.2050355225801468f, -0.09493876248598099f, -0.20723193883895874f,
    -0.21644194424152374f, 0.3867892920970917f, 0.00972786732017994f, 0.5174904465675354f, -0.19896604120731354f,
    0.11321506649255753f, 0.5775229334831238f, -0.4275297522544861f, -0.450858473777771f, -0.16464245319366455f,
    -0.09366755932569504f, 0.011156484484672546f, -0.2590835988521576f, -0.13731010258197784f, 0.028124665841460228f,
    -0.20990782976150513f, -0.1618483066558838f, 0.47026610374450684f, 0.18405374884605408f, 0.12377352267503738f,
    -0.43432971835136414f, -0.1549539566040039f, 0.40944936871528625f, -0.6420518755912781f, -0.16362932324409485f,
    0.24210353195667267f, 0.5416938662528992f, 0.10960566252470016f, -0.5211366415023804f, 0.34403088688850403f,
    0.12422027438879013f, -0.12431435286998749f, 0.13691429793834686f, -0.0030892803333699703f, 0.1698257029056549f,
    -0.07620418071746826f, 0.23316937685012817f, -0.6265853047370911f, -0.6939092874526978f, -0.11970070004463196f,
    0.7590799927711487f, -0.4813305735588074f, -0.7556788921356201f, -0.4882907271385193f, 0.635520339012146f,
    -0.44974812865257263f, -0.28878018260002136f, -0.2567060589790344f, 0.16929341852664948f, 0.7771597504615784f,
    -0.4329524338245392f, 0.11679166555404663f, -0.35850152373313904f, 1.1466302871704102f, 0.8809545636177063f,
    1.0002280473709106f, 0.1347263902425766f, -0.3574940264225006f, -0.047911789268255234f, -0.20640972256660461f,
    -0.054114360362291336f, 0.21911069750785828f, 0.04983239248394966f, -0.028239334002137184f, 0.11239846050739288f,
    -0.1001206636428833f, -0.5658019185066223f, -0.32166385650634766f, 0.2475588321685791f, -0.45057904720306396f,
    0.15404191613197327f, 0.2804481089115143f, -0.23135723173618317f, 0.8327212929725647f, -0.4731824994087219f,
    -0.4531905949115753f, 0.47214221954345703f, -0.1031092032790184f, -0.5559864044189453f, 0.09720611572265625f,
    0.4028010070323944f, 0.49315109848976135f, -0.8208541870117188f, 0.1281084269285202f, -0.5326438546180725f,
    -0.03422084078192711f, 0.1942836493253708f, -0.465985506772995f, 0.014315885491669178f, 0.4110231399536133f,
    -0.04892861470580101f, -0.23542484641075134f, -0.737182080745697f, 0.4866301119327545f, 0.22193966805934906f,
    -0.6185951828956604f, -0.06588862091302872f, -0.09273409843444824f, -0.2811509072780609f, 0.122549869120121f,
    0.20261919498443604f, 0.04201136529445648f, -0.04912303015589714f, -0.10280606150627136f, -0.7668402194976807f,
    -0.3032103180885315f, 0.029452454298734665f, 0.16596238315105438f, -0.13019803166389465f, -0.07894950360059738f,
    -0.05154935643076897f, 0.09469576179981232f, -0.5880115032196045f, 0.1294902116060257f, 1.1902624368667603f,
    -0.24282269179821014f, 0.3492075204849243f, -0.09325728565454483f, 0.39672374725341797f, 0.547162652015686f,
    0.620134711265564f, 0.4255931079387665f, 0.8516366481781006f, 0.2538575530052185f, -1.0840940475463867f,
    -0.4104265570640564f, 0.595757246017456f, -0.3358917832374573f, -0.48524582386016846f, -0.24156975746154785f,
    -0.9396674633026123f, -0.7326614856719971f, -0.1403617411851883f, 0.29739969968795776f, 0.13846302032470703f,
    -0.3507532477378845f, 0.41802120208740234f, -0.49744394421577454f, -0.04436691105365753f, 0.17641445994377136f,
    -0.3990314304828644f, 0.07734141498804092f, -0.29431092739105225f, 0.13202933967113495f, -0.19470858573913574f,
    -0.1984056681394577f, 0.21973548829555511f, -0.04136023670434952f, -0.3687507212162018f, 0.056173551827669144f,
    0.513608992099762f, 0.07493293285369873f, 0.02472798153758049f, 0.02403455413877964f, 0.25466224551200867f,
    0.20637591183185577f, -0.09085984528064728f, -0.12693430483341217f, 0.5058945417404175f, -0.21769964694976807f,
    -0.15513235330581665f, -0.11582674086093903f, 0.8412692546844482f, -0.08264321088790894f, 0.6113420128822327f,
    0.5439096093177795f, 1.4162240028381348f, 0.743597149848938f, -0.34721308946609497f, 0.473269522190094f,
    -0.06107306480407715f, -0.22671423852443695f, 0.0697120949625969f, 0.15427298843860626f, -0.10583262890577316f,
    0.2921777367591858f, -0.6803420186042786f, 0.01217526663094759f, -0.09441809356212616f, 0.19690242409706116f,
    -0.26833221316337585f, -0.0268939808011055f, 0.25717779994010925f, -0.07806035876274109f, -0.043734319508075714f,
    0.09744743257761002f, 0.04446900635957718f, 0.1557052582502365f, 0.2873992919921875f, -0.11416992545127869f,
    0.27947309613227844f, -0.13440680503845215f, 0.9506648182868958f, -0.5090769529342651f, -0.13921909034252167f,
    0.09282761812210083f, -1.0534402132034302f, -0.49940726161003113f, 0.7474953532218933f, -0.951396107673645f,
    0.4118582010269165f, 0.9748950600624084f, 0.4049459397792816f, 0.37724047899246216f, -0.3844425678253174f,
    0.7193719148635864f, -0.0250777006149292f, 0.1022205650806427f, -0.19083768129348755f, -0.029750220477581024f,
    -0.07293765991926193f, 0.42558610439300537f, 0.2609270215034485f, 0.21786658465862274f, -0.05875775218009949f,
    0.0019138712668791413f, -0.1988244205713272f, 0.11961585283279419f, -0.17851780354976654f, 0.19417260587215424f,
    -0.9209772944450378f, 0.04973257705569267f, 0.11020228266716003f, 0.29963913559913635f, -1.0364224910736084f,
    -0.3207893967628479f, 0.47413283586502075f, -0.3656487762928009f, -0.14513561129570007f, 0.9813156127929688f,
    -0.1168837696313858f, 0.28479626774787903f, 0.18265341222286224f, 0.8523262739181519f, 0.06303519010543823f,
    -1.0166597366333008f, 0.29599931836128235f, -0.0009620591881684959f, -0.19099777936935425f, -0.18985572457313538f,
    -1.380185604095459f, 0.3214748203754425f, -2.387359380722046f, 0.36167606711387634f, -0.024064496159553528f,
    -0.43900901079177856f, 0.31118592619895935f, 0.09967935085296631f, 0.6195194125175476f, -0.09194247424602509f,
    -0.39848023653030396f, 0.030803371220827103f, -0.2054157704114914f, -0.30089494585990906f, -0.22820080816745758f,
    -0.97605299949646f, 0.9417917132377625f, -0.49410203099250793f, 0.18572956323623657f, 0.1474652886390686f,
    0.14505213499069214f, -0.17708632349967957f, -0.045049674808979034f, -0.040086984634399414f, -0.3300681412220001f,
    1.2220659255981445f, -0.46425849199295044f, 0.14950443804264069f, 0.10746639966964722f, 0.015673311427235603f,
    -0.40456438064575195f, 0.7674328088760376f, 0.7563178539276123f, -0.3189828097820282f, 0.4400065839290619f,
    -1.1464511156082153f, 0.6490107178688049f, -1.3361903429031372f, 0.37217533588409424f, 0.43986356258392334f,
    -1.13246750831604f, -0.4956185221672058f, 0.02000046893954277f, 0.646361768245697f, 0.099252849817276f,
    -0.343332976102829f, 0.04839736968278885f, 0.1339556872844696f, 0.2975110411643982f, 0.0445881225168705f,
    0.1752690076828003f, -0.030732175335288048f, -0.04490502178668976f, -0.45180365443229675f, -0.04887435957789421f,
    -0.2851503789424896f, 0.3809725344181061f, -0.2707802653312683f, -0.06460050493478775f, 0.15816305577754974f,
    -0.5698828101158142f, -0.5615308880805969f, -0.48261985182762146f, -0.026761624962091446f, -0.21472172439098358f,
    1.143003225326538f, -0.03678835555911064f, 0.14712496101856232f, -0.772007942199707f, 0.4562481939792633f,
    0.33407390117645264f, -0.579060971736908f, 0.22255338728427887f, -0.5278280973434448f, -0.9015616178512573f,
    -0.0744655430316925f, 0.02390299178659916f, 0.31945735216140747f, 0.3940097987651825f, 1.1693456172943115f,
    -0.10776121914386749f, -0.377358615398407f, -0.3098364770412445f, -0.37639904022216797f, 0.2724722921848297f,
    0.9110502004623413f, -0.08555765450000763f, 0.19766145944595337f, -0.44085410237312317f, -0.16750942170619965f,
    0.03849019110202789f, 0.891349732875824f, 0.22521048784255981f, -0.3240083158016205f, 0.2889845371246338f,
    -0.16748295724391937f, -0.09886292368173599f, 0.11984533816576004f, -0.13703639805316925f, -0.006974188610911369f,
    -0.1604732722043991f, -0.36863619089126587f, -0.5179827809333801f, 0.8442686200141907f, -0.279935747385025f,
    -0.48287391662597656f, -0.6377997994422913f, -0.9350760579109192f, -0.19696809351444244f, 0.9408965110778809f,
    0.20583568513393402f, 1.254041075706482f, -1.6638238430023193f, -2.056291103363037f, -0.1476375162601471f,
    0.24327896535396576f, 0.7739144563674927f, 0.40160155296325684f, 0.611496090888977f, -0.0773179829120636f,
    0.5715059041976929f, -0.14924603700637817f, 0.1993757039308548f, 0.3692091703414917f, 0.32801976799964905f,
    0.22553838789463043f, -0.43909311294555664f, 0.4404827058315277f, 0.23244591057300568f, -0.26191598176956177f,
    0.1722707450389862f, 0.31174764037132263f, -0.2070842981338501f, 0.3526764512062073f, 0.007188968360424042f,
    -0.13798236846923828f, 0.20950947701931f, 0.23603729903697968f, -0.36075469851493835f, 0.1645229011774063f,
    0.3082703649997711f, 0.4691731631755829f, 0.05102260410785675f, 0.2219126671552658f, -0.3969084918498993f,
    0.10259132832288742f, 0.42445671558380127f, 0.3703135550022125f, -0.31932520866394043f, 0.34123897552490234f,
    -0.03262883797287941f, -0.34872299432754517f, 0.4836503267288208f, -0.13000033795833588f, -0.094345822930336f,
    -0.286105215549469f, -0.19227105379104614f, 0.11487860977649689f, -0.04989878088235855f, 0.002168683335185051f,
    0.05959111079573631f, -0.3361032009124756f, -0.04169728234410286f, 0.1436089426279068f, 0.541523277759552f,
    -0.08794908225536346f, 0.2514146864414215f, -0.6251510977745056f, -0.03965024650096893f, 0.14325931668281555f,
    0.5480799674987793f, -0.1465219408273697f, 0.07500843703746796f, 0.0060390993021428585f, 0.02741902321577072f,
    0.13093996047973633f, 0.9309011101722717f, -0.22851154208183289f, -0.4478824734687805f, -0.9475089311599731f,
    -0.9939213395118713f, -0.4278201460838318f, -0.003079250454902649f, 0.6390284299850464f, -0.32928451895713806f,
    0.3383472263813019f, 0.561154305934906f, 0.3387925624847412f, 0.4969812333583832f, -0.4223848283290863f,
    0.6567299962043762f, 0.6011198163032532f, 0.6990753412246704f, 0.7511189579963684f, -0.22362492978572845f,
    0.2957458198070526f, 0.07436252385377884f, 0.19352814555168152f, -0.3611413538455963f, -0.25216183066368103f,
    0.12931804358959198f, -0.016539687290787697f, 0.07786747813224792f, 0.06018620729446411f, 0.08720086514949799f,
    -0.05335099995136261f, -0.03927060216665268f, 0.14659368991851807f, 0.034450381994247437f, 0.15787982940673828f,
    0.17339077591896057f, 0.17801406979560852f, -0.06284163147211075f, 0.01765923574566841f, -0.09142353385686874f,
    -0.059699419885873795f, -0.0068896133452653885f, 0.29607465863227844f, 0.012209463864564896f, 0.005391077138483524f,
    -0.3250512182712555f, -0.12134350836277008f, 0.03416362404823303f, 0.5555888414382935f, -0.05548641085624695f,
    -0.23686465620994568f, -0.18383684754371643f, -0.037237055599689484f, -0.19001154601573944f, -0.12463368475437164f,
    0.031273771077394485f, -0.027939610183238983f, 0.010854694992303848f, -0.05091753602027893f, -0.23844583332538605f,
    -0.1513170450925827f, -0.3058467507362366f, -0.010411066003143787f, -0.12299691140651703f, 0.446595698595047f,
    -0.1297757774591446f, -0.036131102591753006f, 0.07342184334993362f, -0.06853732466697693f, -0.04996267706155777f,
    -0.09830029308795929f, 0.1527259349822998f, -0.15896160900592804f, -0.152200847864151f, -0.15308040380477905f,
    0.17252422869205475f, 0.34185391664505005f, 0.1826077550649643f, 1.0125588178634644f, 0.8441659212112427f,
    0.460145503282547f, -0.3598989248275757f, 0.9342194199562073f, 0.7066372036933899f, -0.05593371018767357f,
    0.5096340179443359f, 0.2143290638923645f, 0.4457988142967224f, -0.30294349789619446f, -0.6567351222038269f,
    -0.12376733124256134f, 0.4153514504432678f, -0.09320277720689774f, -0.1254887580871582f, 0.12191172689199448f,
    0.7697275280952454f, 0.3288270831108093f, -0.25470471382141113f, -0.4605455994606018f, -0.281006395816803f,
    0.025947004556655884f, -0.3043302595615387f, -0.22054055333137512f, -0.11064789444208145f, 0.10374655574560165f,
    -0.05510779842734337f, -0.03925209864974022f, -0.1910391002893448f, -0.23278546333312988f, 0.15855130553245544f,
    0.13391683995723724f, -0.05019989237189293f, 0.21555446088314056f, -0.14584627747535706f, 0.07986517250537872f,
    -0.23685665428638458f, -0.016491223126649857f, -0.2874734103679657f, -0.12274172902107239f, 0.3860946595668793f,
    0.11589962244033813f, 0.007883130572736263f, -0.31894415616989136f, 0.14261195063591003f, -0.10150860249996185f,
    0.40563976764678955f, -0.0806867927312851f, -0.055805500596761703f, 1.5817971229553223f, 0.029811501502990723f,
    -0.03811606019735336f, 0.016095951199531555f, -0.6568953394889832f, -0.3126787543296814f, -0.011336952447891235f,
    0.626761257648468f, 0.8202370405197144f, -0.2645818293094635f, -0.44462403655052185f, -0.12000769376754761f,
    0.10729869455099106f, 0.27574920654296875f, 0.03770150616765022f, -0.05708247423171997f, 0.445946604013443f,
    0.11105327308177948f, 0.5959711670875549f, -0.16583725810050964f, -0.2536601722240448f, -0.3061700165271759f,
    -0.009548099711537361f, 0.24174900352954865f, -0.049961477518081665f, 0.5161608457565308f, 0.3181934654712677f,
    -0.3960292339324951f, -0.13417784869670868f, -0.22383545339107513f, 0.43210068345069885f, 0.3033030331134796f,
    0.29930150508880615f, 0.05683804303407669f, 0.4333823323249817f, -0.11949317902326584f, -0.03344349563121796f,
    -0.08259570598602295f, -0.4538164734840393f, 0.10836516320705414f, 0.3014857769012451f, -1.366650938987732f,
    -0.033600933849811554f, -0.12804509699344635f, -1.1532446146011353f, -0.012303004041314125f, -0.10200097411870956f,
    -0.06086486950516701f, -1.2042156457901f, 0.21643058955669403f, -0.6424943804740906f, 0.42001134157180786f,
    0.011448802426457405f, 0.2477494180202484f, 0.0523870624601841f, 0.20829683542251587f, 0.20269402861595154f,
    -0.40748047828674316f, -0.0843491181731224f, -0.03642018884420395f, 0.15259268879890442f, -0.08153184503316879f,
    -0.18026991188526154f, -0.022683747112751007f, -0.03228471428155899f, -0.05526188388466835f, 0.37661123275756836f,
    0.00018577977607492357f, 0.07057929784059525f, 0.12579245865345f, 0.09886625409126282f, 1.6707980632781982f,
    -1.1215236186981201f, 0.08090659976005554f, -1.978761911392212f, -0.47586721181869507f, 0.28503942489624023f,
    -0.08703912794589996f, -0.19611647725105286f, 0.025568882003426552f, -0.4483685791492462f, -0.3775317072868347f,
    -0.2700240910053253f, -0.8451405167579651f, 0.49313148856163025f, -0.17006652057170868f, 0.11595229804515839f,
    0.34074363112449646f, -0.286886602640152f, 0.278482049703598f, -0.14075103402137756f, -0.24788127839565277f,
    -0.09554366022348404f, -1.0612738132476807f, 0.25855156779289246f, 0.24665755033493042f, 0.8520846366882324f,
    -0.1147914007306099f, -0.14798569679260254f, 0.5852564573287964f, 0.20242710411548615f, -0.25545111298561096f,
    0.44955000281333923f, 0.6088095307350159f, 0.198849618434906f, -0.4941520392894745f, -0.14087963104248047f,
    -0.09944264590740204f, -0.3011579215526581f, -0.2891974151134491f, -0.1690511405467987f, 0.019154226407408714f,
    -0.071037657558918f, 0.2776305675506592f, -0.4627068042755127f, -0.3370043635368347f, 0.5500271320343018f,
    -0.12313082069158554f, 0.566474199295044f, -0.04448612779378891f, -0.022753534838557243f, 0.2239898294210434f,
    0.11253651976585388f, -0.25662535429000854f, -0.07395537197589874f, -0.09491494297981262f, 0.37596550583839417f,
    -0.07794936001300812f, -0.2985699474811554f, 0.22400525212287903f, -0.010132502764463425f, -0.1158384159207344f,
    -0.6979129910469055f, -0.005311460699886084f, 0.05568660795688629f, 0.03304802253842354f, 0.28462228178977966f,
    -0.11904509365558624f, 1.0882740020751953f, -2.331993579864502f, 0.9328750371932983f, -0.4075877368450165f,
    -0.024059375748038292f, 0.1608864963054657f, 0.41203567385673523f, -0.36340492963790894f, -0.3304571211338043f,
    -0.5266249775886536f, 0.15566277503967285f, -0.13221274316310883f, 0.026856066659092903f, 0.29682686924934387f,
    0.17795981466770172f, 0.2596515715122223f, -0.14110606908798218f, 0.2880036234855652f, 0.12386525422334671f,
    0.10635220259428024f, -0.5231181383132935f, 0.23362085223197937f, 0.38448676466941833f, -1.3603696823120117f,
    0.7569330930709839f, 0.6715565919876099f, -0.33952364325523376f, 0.228505939245224f, -0.5618170499801636f,
    0.09093352407217026f, -0.24105112254619598f, 0.3645016849040985f, -0.29614898562431335f, 0.3042430281639099f,
    0.178139328956604f, -0.10545902699232101f, -0.324901282787323f, -0.05690562725067139f, 0.26267972588539124f,
    -0.09170925617218018f, 0.02263619750738144f, 0.20856964588165283f, -0.03485911339521408f, 1.4511622190475464f,
    -0.15115639567375183f, 0.12737828493118286f, -2.0177266597747803f, -0.06027922406792641f, -0.0356496199965477f,
    -0.4162227213382721f, -0.009908612817525864f, -0.14924143254756927f, 0.4187318980693817f, -0.21488778293132782f,
    -0.13064078986644745f, 0.38652175664901733f, 0.17790953814983368f, 0.05975884944200516f, -0.05926591902971268f,
    -0.15435026586055756f, 0.440029114484787f, -0.10042612254619598f, 0.26418837904930115f, 0.4570011794567108f,
    -0.43620631098747253f, -0.667823076248169f, -0.19552476704120636f, 0.7072324752807617f, -0.9051992297172546f,
    0.3014131784439087f, -0.3713725209236145f, 0.308643639087677f, -0.144435316324234f, -0.18241746723651886f,
    -0.10624870657920837f, 0.46795526146888733f, -0.48412445187568665f, -0.2089354246854782f, 0.5004580616950989f,
    0.07371290773153305f, 0.32708653807640076f, -0.5445195436477661f, 0.8212502598762512f, -0.1588682234287262f,
    0.29500290751457214f, -0.7930043935775757f, -1.4170072078704834f, 0.010839865542948246f, -0.014690269716084003f,
    0.2942817509174347f, -0.7758029699325562f, 0.5976378917694092f, 0.40257084369659424f, 0.05159681290388107f,
    0.08949816972017288f, -0.37320050597190857f, 0.038599636405706406f, -0.29164886474609375f, -0.26312562823295593f,
    -0.07738187909126282f, -0.08921246975660324f, 0.641880989074707f, -0.1421475112438202f, 0.1308431625366211f,
    0.4920155704021454f, 0.14460742473602295f, -0.2945224344730377f, 0.972037136554718f, 1.8686914443969727f,
    -0.027715176343917847f, -0.6440063118934631f, -0.8521149158477783f, -0.5639134645462036f, -0.14222878217697144f,
    0.3593665063381195f, 0.019351806491613388f, 0.06252967566251755f, -0.4601876735687256f, -0.023131022229790688f,
    0.15606991946697235f, -0.6991919279098511f, 0.06687027215957642f, -0.07424484938383102f, 0.7009881734848022f,
    -0.023584524169564247f, -0.11824340373277664f, 0.08517874777317047f, 0.18595349788665771f, -0.2441525161266327f,
    1.8515018224716187f, 1.7073822021484375f, 0.07090878486633301f, -0.2630368769168854f, -0.5921692252159119f,
    0.2861429452896118f, 0.09047992527484894f, -0.2831847667694092f, -2.868804693222046f, 2.9772534370422363f,
    -0.16531933844089508f, 0.019999999552965164f
};

static const float orange_or120_dark_crunch_head_scale = 0.02f;
