/**
 * Hoopi Pedal - Dual-channel guitar and vocal effects processor
 * Copyright (c) 2025-2026 Scope Creep Labs LLC
 * SPDX-License-Identifier: MIT
 */

// Model: Plexi
// Architecture: WaveNet, Channels: 4, Head: 2
// Weights: 842, Head scale: 0.02
#pragma once

// Raw float array for NamWavenet::load_weights()
static const float plexi_weights[842] = {
    0.29239267110824585f, 1.2456421852111816f, -1.1341813802719116f, -1.098008155822754f, -0.393001914024353f,
    0.7754238843917847f, 0.43698543310165405f, 0.196623757481575f, 0.9977931380271912f, 0.9210220575332642f,
    -0.0658312514424324f, -1.0687047243118286f, -1.1056180000305176f, -0.16721093654632568f, -1.129020094871521f,
    -0.8222584128379822f, -0.04406430944800377f, -0.07196439057588577f, -0.03920476511120796f, -0.3882777988910675f,
    -0.5021443963050842f, 0.32229799032211304f, 0.20466992259025574f, 0.8157179951667786f, -0.12502312660217285f,
    0.2929772734642029f, 0.8586053848266602f, -0.3477902114391327f, -0.36246657371520996f, -0.21971233189105988f,
    0.36906686425209045f, -0.20109577476978302f, -0.2573842406272888f, 0.5633308291435242f, 0.240111842751503f,
    -0.18980956077575684f, -0.8356155157089233f, 0.690373957157135f, 0.20398268103599548f, -0.5332750082015991f,
    -0.5613367557525635f, -0.42588987946510315f, 0.12047909945249557f, -0.701843798160553f, -0.6114634275436401f,
    0.26716384291648865f, 0.607169508934021f, 0.5593699216842651f, -0.5351812243461609f, 0.4122413396835327f,
    0.5691027641296387f, -0.1244596391916275f, -0.15399137139320374f, -0.26917314529418945f, 0.6966785192489624f,
    -0.19210173189640045f, 1.0155564546585083f, -0.7155629992485046f, -0.04030473530292511f, -0.12702053785324097f,
    -0.26582375168800354f, 0.5437356233596802f, -0.49873024225234985f, 0.48697319626808167f, 0.7404528260231018f,
    -0.7988247275352478f, 0.0024149285163730383f, -0.39744579792022705f, 0.3847787082195282f, 0.640923798084259f,
    -0.5054845213890076f, -0.03289857134222984f, 0.25401172041893005f, 0.676588237285614f, 0.6513015627861023f,
    0.8860677480697632f, 0.06636764854192734f, -0.5980455875396729f, -0.2565329074859619f, -0.1912337690591812f,
    -0.5484036803245544f, 0.21032297611236572f, 0.23837172985076904f, -0.3727259039878845f, 0.11969620734453201f,
    -0.13849204778671265f, 0.15214824676513672f, -0.27530908584594727f, 0.24257314205169678f, -0.22696860134601593f,
    -0.13001316785812378f, 0.2586126923561096f, 0.7226343154907227f, 0.2625509798526764f, -0.4402884244918823f,
    -0.8610056042671204f, 0.2679448127746582f, 0.5881737470626831f, 0.14227394759655f, -0.5307411551475525f,
    0.22825045883655548f, 0.7660407423973083f, -0.11098641157150269f, -0.21158523857593536f, -0.6631955504417419f,
    -0.2132449746131897f, -0.20472818613052368f, -0.4011000990867615f, -0.15026919543743134f, -0.23918309807777405f,
    -0.8761073350906372f, -0.4342527389526367f, -0.6456177830696106f, -0.40741243958473206f, -0.4551880657672882f,
    -0.5363443493843079f, -0.683505654335022f, -0.3236008584499359f, 0.7084600925445557f, 0.2917872965335846f,
    0.4645296335220337f, -0.3076130747795105f, -0.12499392032623291f, -0.107439324259758f, 0.14551249146461487f,
    -0.8107777237892151f, -0.05332263559103012f, 0.6540722250938416f, 0.12559573352336884f, -0.2549870014190674f,
    0.22726429998874664f, -0.09610873460769653f, -0.937821090221405f, 0.7856736183166504f, 0.7300784587860107f,
    -0.4914039671421051f, -0.19186890125274658f, -0.8566538095474243f, -0.4531365931034088f, 0.7389408946037292f,
    0.47280049324035645f, 0.7070446014404297f, 0.8248182535171509f, -0.11604166030883789f, -0.3739440441131592f,
    0.10804887861013412f, 0.6871274709701538f, 0.41936194896698f, -0.31338807940483093f, -0.8970873355865479f,
    -0.24270248413085938f, -0.5646560192108154f, -0.09372567385435104f, 0.2670975625514984f, -0.03707888349890709f,
    -0.31902578473091125f, -0.18814519047737122f, -0.05605340003967285f, -0.3625997304916382f, 0.4855741262435913f,
    0.5094089508056641f, -0.4392549693584442f, -1.485791802406311f, -0.5004944205284119f, -0.06801808625459671f,
    -0.3952009379863739f, -0.5842664241790771f, 0.5161333680152893f, -0.4533320963382721f, -0.07608992606401443f,
    0.33077535033226013f, -0.18993613123893738f, -0.043117206543684006f, 0.23764319717884064f, -0.17398951947689056f,
    -0.1665841042995453f, -0.08818801492452621f, -0.2730834484100342f, 0.7590358257293701f, -0.37710487842559814f,
    -0.5372670292854309f, 0.8199139833450317f, 0.3500862717628479f, 0.44421666860580444f, 0.5593382716178894f,
    0.11096937954425812f, -1.4204617738723755f, -0.038651976734399796f, 0.7158179879188538f, 0.554100751876831f,
    -0.19565600156784058f, -0.11876395344734192f, -0.5856614708900452f, -0.03322486951947212f, 0.3418331742286682f,
    -0.1590808779001236f, -0.23719586431980133f, -0.04279432073235512f, -0.18162347376346588f, 0.5772581100463867f,
    0.5789402723312378f, 0.1764133721590042f, -0.07381700724363327f, 0.0590737909078598f, -0.017018169164657593f,
    0.1629888266324997f, 0.0786297619342804f, 0.3973251283168793f, -0.2591036558151245f, -0.0477561317384243f,
    -0.5708192586898804f, -0.4710160195827484f, 1.0608181953430176f, -2.338257312774658f, 1.0930341482162476f,
    -0.7539196014404297f, -0.14400504529476166f, -0.23302340507507324f, -0.20882350206375122f, -0.34851616621017456f,
    0.4508349895477295f, -0.17599700391292572f, 0.4064258635044098f, -0.9037227630615234f, -1.0360689163208008f,
    1.6960890293121338f, -0.4549241364002228f, 0.45549169182777405f, -0.2764250934123993f, -0.07367072999477386f,
    -0.23181474208831787f, 0.3932667374610901f, -0.5148277878761292f, -0.674923837184906f, 0.949424147605896f,
    -0.3120254874229431f, 0.6654618382453918f, 0.5219771265983582f, -1.1498709917068481f, -1.2874171733856201f,
    0.28527912497520447f, 0.3127671182155609f, -0.13760791718959808f, -0.8354612588882446f, 0.8761189579963684f,
    -1.1245707273483276f, 0.16272971034049988f, -0.5343582034111023f, -0.03750165179371834f, -0.242364302277565f,
    0.48319339752197266f, -0.8027545213699341f, 0.3304003179073334f, -0.4800533652305603f, 0.2407236248254776f,
    -0.02454102225601673f, -0.1666596531867981f, -0.29779794812202454f, 0.5535183548927307f, -0.302767276763916f,
    0.034565459936857224f, 0.5034381747245789f, -0.07959897816181183f, -0.2599984109401703f, 0.4385324716567993f,
    0.14877697825431824f, 0.14549458026885986f, -0.33411091566085815f, 0.6089575290679932f, 1.226257562637329f,
    -1.3869584798812866f, 0.3836853504180908f, -0.6927939057350159f, -0.7849647998809814f, 0.5663360357284546f,
    0.9372547268867493f, -0.9452462792396545f, -0.6497489809989929f, -0.43035370111465454f, 0.8333455920219421f,
    0.6306173205375671f, -0.5655236840248108f, -0.6497606039047241f, 0.7833918333053589f, 0.4090859889984131f,
    1.2891443967819214f, 0.1125236302614212f, -0.7423163056373596f, 0.358662486076355f, 0.6413824558258057f,
    -1.9589051008224487f, -0.3840603828430176f, 1.1056106090545654f, 0.08832035958766937f, -0.5342615246772766f,
    -1.1075407266616821f, 0.9803651571273804f, 0.6819844245910645f, -0.4748537242412567f, -1.3200242519378662f,
    -1.3347619771957397f, -0.24219325184822083f, 1.3252108097076416f, 1.22649347782135f, -0.3334673047065735f,
    -0.08338245749473572f, 0.10786603391170502f, 0.24310266971588135f, 0.1219501718878746f, -0.759392499923706f,
    -0.6459305882453918f, 0.28192856907844543f, 0.732327938079834f, -0.4529951214790344f, -0.3775961697101593f,
    0.41172242164611816f, -1.3265258073806763f, -0.26928290724754333f, -0.39088284969329834f, 0.325001060962677f,
    -0.24579912424087524f, 0.5658631324768066f, -0.6504561901092529f, -0.1432437300682068f, -0.5825892090797424f,
    0.17412351071834564f, -0.41033318638801575f, -0.958942174911499f, 0.37448880076408386f, -0.6545175313949585f,
    -0.06698159873485565f, -0.1671316921710968f, 0.669906497001648f, 0.4053840637207031f, -1.0975459814071655f,
    0.4275839626789093f, 0.28984978795051575f, 0.05014602839946747f, -0.20600374042987823f, 0.03459198400378227f,
    -0.445767879486084f, -0.5861161351203918f, 0.03219935670495033f, 0.5296090245246887f, 0.07250358909368515f,
    -0.433687686920166f, 0.8394829034805298f, 0.3267083168029785f, -0.6109911203384399f, -0.0003414629609324038f,
    0.46399492025375366f, -0.4985838532447815f, -0.2085454761981964f, -0.26268795132637024f, 0.3720734417438507f,
    -0.16161780059337616f, -0.07105867564678192f, 0.4718528091907501f, -0.0012015411630272865f, 0.15415607392787933f,
    0.9344472289085388f, -1.4646297693252563f, 0.4048459231853485f, -0.49934083223342896f, -0.18390610814094543f,
    0.08186855167150497f, 0.7807790040969849f, -0.7459017634391785f, -1.51148521900177f, -0.8852072358131409f,
    -0.5254395604133606f, 0.5020246505737305f, -0.8972418904304504f, -0.3911784291267395f, -0.2487766146659851f,
    0.08113346248865128f, 1.6325703859329224f, 0.8950741291046143f, 0.28626230359077454f, 0.09425327926874161f,
    -0.3790503442287445f, 0.2744039297103882f, 0.6009988784790039f, 0.04509860649704933f, 0.6080380082130432f,
    0.5214632153511047f, -0.30453237891197205f, 0.6986637115478516f, -0.8749081492424011f, -0.11260734498500824f,
    -0.8033080101013184f, -3.0342681407928467f, -0.49742230772972107f, -0.21634551882743835f, 0.3998253345489502f,
    -0.5070884227752686f, 1.7429224252700806f, 2.1011757850646973f, 0.7669708132743835f, 0.4447304904460907f,
    -1.9389148950576782f, 0.20627285540103912f, -0.38474389910697937f, -2.157709836959839f, -0.21053220331668854f,
    -0.05783398076891899f, 2.770380735397339f, 0.22937026619911194f, -1.0786571502685547f, 0.7448610067367554f,
    0.7123295664787292f, 1.7770559787750244f, -0.037273406982421875f, 0.042865920811891556f, 1.847935438156128f,
    -0.14997193217277527f, 0.05013721063733101f, -1.8165580034255981f, -0.31183865666389465f, 0.11901863664388657f,
    -0.18806973099708557f, -0.048000119626522064f, 0.15090946853160858f, -0.018876109272241592f, 0.9227204322814941f,
    -0.36189979314804077f, 0.3009633719921112f, 1.062476634979248f, 0.21816322207450867f, 0.22425337135791779f,
    -1.9173674583435059f, -0.10054413974285126f, -0.760956883430481f, -0.7157494425773621f, 0.6686416864395142f,
    -0.04267014563083649f, -0.1152760460972786f, 1.8817553520202637f, 2.826486110687256f, 1.8651623725891113f,
    0.44202715158462524f, -1.430280089378357f, -1.4540749788284302f, 1.2037020921707153f, 0.13616745173931122f,
    -0.2859952449798584f, 0.7422162890434265f, 0.1419719159603119f, 0.09952430427074432f, -0.5259444713592529f,
    0.2086072415113449f, -0.07518625259399414f, 0.6325956583023071f, -0.08934985846281052f, 0.6815946698188782f,
    1.1814250946044922f, 0.12844231724739075f, 0.205120250582695f, -0.343116819858551f, -0.07852932065725327f,
    0.025570625439286232f, -0.019566617906093597f, 0.18646958470344543f, 0.022376494482159615f, -0.9804041385650635f,
    -0.34365421533584595f, 0.09202636778354645f, -0.9253889918327332f, 0.0514327734708786f, -0.019815517589449883f,
    1.1704399585723877f, -0.2718716263771057f, -0.10049758851528168f, -0.05438320338726044f, 0.009996913373470306f,
    -0.3070423901081085f, -0.19799861311912537f, -0.05655534565448761f, 0.1310567706823349f, 0.15531034767627716f,
    0.23080626130104065f, -0.1583295613527298f, -0.04829775542020798f, 0.02617628127336502f, -0.005200865678489208f,
    0.09534312039613724f, 0.0034168248530477285f, 0.18241043388843536f, -0.009890727698802948f, 0.24924707412719727f,
    -0.1973305195569992f, 0.23456545174121857f, -0.41274410486221313f, 0.0018841001437976956f, 0.15347015857696533f,
    -0.035809386521577835f, 0.04111156612634659f, -0.1157292053103447f, -0.03883817046880722f, 1.1718829870224f,
    -0.21262861788272858f, 0.1278703212738037f, 1.4468611478805542f, 0.4459250867366791f, 0.07866339385509491f,
    -1.7453731298446655f, 0.27390411496162415f, 0.17065158486366272f, 0.02736269310116768f, 0.08026165515184402f,
    -0.16049891710281372f, 0.07738472521305084f, 0.31289413571357727f, -0.7303440570831299f, 0.02501971833407879f,
    1.8487515449523926f, 0.08347134292125702f, -0.4448760449886322f, -0.08713004738092422f, 0.02791604772210121f,
    0.5301889777183533f, 0.5157139897346497f, -0.6704788208007812f, -0.494803786277771f, -0.39742761850357056f,
    -1.0922859907150269f, 1.1852717399597168f, 0.08599559962749481f, 0.2574959099292755f, -0.7651516199111938f,
    0.18381370604038239f, 0.5496636033058167f, -0.33839091658592224f, -0.3761173486709595f, -0.4461382031440735f,
    0.030009016394615173f, -0.18803279101848602f, -0.13775914907455444f, -0.15838101506233215f, -0.07922323048114777f,
    -0.17525097727775574f, -0.1285824477672577f, -0.14702631533145905f, -0.07414060086011887f, 0.016390377655625343f,
    0.07542579621076584f, -0.09223514050245285f, 0.013073877431452274f, -0.030510952696204185f, -0.001313796266913414f,
    -0.07971913367509842f, -0.0523371696472168f, 0.21151962876319885f, -0.20593710243701935f, -0.14084039628505707f,
    -0.07956504076719284f, -0.3223390281200409f, -0.3197028338909149f, 0.07843270152807236f, -0.09110932052135468f,
    -0.5405107736587524f, -0.022606365382671356f, -0.15906691551208496f, 0.09470678120851517f, 0.08218353986740112f,
    0.13574673235416412f, 0.08902213722467422f, 0.09855979681015015f, 0.8524500131607056f, 0.722161591053009f,
    0.6563207507133484f, 0.31081825494766235f, -0.15975715219974518f, -0.3759719133377075f, -0.014398179017007351f,
    0.1665346473455429f, 0.40909242630004883f, 0.003740644548088312f, -0.017590539529919624f, 0.3174518644809723f,
    -0.006498802453279495f, 0.5607786774635315f, 0.02052384614944458f, -0.09332643449306488f, -0.07957000285387039f,
    0.05694287270307541f, 0.08589164167642593f, 0.011854742653667927f, 0.15884700417518616f, 0.575022280216217f,
    -0.4734736382961273f, -0.3749604821205139f, -1.4296799898147583f, 0.6316275596618652f, 0.25874677300453186f,
    0.22022350132465363f, -0.0729338675737381f, -0.0005067897727712989f, 0.175344780087471f, 0.16220057010650635f,
    -0.30120590329170227f, 0.09553445875644684f, -0.015718728303909302f, 0.17026886343955994f, 0.1051386222243309f,
    0.20945432782173157f, 0.017462220042943954f, -0.5025088787078857f, -0.001270076259970665f, 0.20117931067943573f,
    -0.045832835137844086f, -0.41473859548568726f, 0.4702928960323334f, -0.4179903566837311f, -0.38849562406539917f,
    0.2135312706232071f, 0.26459965109825134f, 0.04259558022022247f, 0.46288198232650757f, 0.36959710717201233f,
    -0.7219387888908386f, 0.07661636918783188f, -0.13256262242794037f, 0.2898900806903839f, -0.07589395344257355f,
    -0.0740569457411766f, 0.3407977819442749f, -0.08402349799871445f, -0.11480094492435455f, 0.6886193752288818f,
    -0.06882282346487045f, -0.1252070665359497f, 0.025874391198158264f, -0.005158071406185627f, 0.8019179105758667f,
    -0.2851502001285553f, -0.4507284462451935f, -1.1185545921325684f, -0.4573817849159241f, 0.20127557218074799f,
    0.4062924385070801f, 0.01068820059299469f, -0.19193550944328308f, 0.05585378408432007f, -0.40357735753059387f,
    0.8282415866851807f, 0.056423068046569824f, 0.12731555104255676f, -0.17340019345283508f, 0.13107499480247498f,
    0.3798952102661133f, -0.07294301688671112f, -0.13337592780590057f, -0.16589446365833282f, -0.010448699817061424f,
    -0.000972038134932518f, 1.0901559591293335f, 1.0026021003723145f, -0.8696877956390381f, 0.9198020100593567f,
    0.004641569685190916f, -0.3195662498474121f, 0.1507142335176468f, -0.2038586288690567f, 0.05329744890332222f,
    0.6931524872779846f, 0.33475786447525024f, -0.5089089870452881f, -0.931854784488678f, -1.0100585222244263f,
    0.22023463249206543f, 0.476463258266449f, -0.30744469165802f, -0.35849958658218384f, -0.0033381162211298943f,
    -0.18582428991794586f, -0.015642955899238586f, -0.12288564443588257f, -0.9600623250007629f, -0.18739448487758636f,
    2.639054298400879f, -0.481619268655777f, 0.03307896852493286f, 0.17439420521259308f, 0.6269763708114624f,
    0.3811805844306946f, 0.17111939191818237f, -0.5910643935203552f, 0.3243732750415802f, 0.4788380563259125f,
    0.2092094123363495f, -0.5250020623207092f, -1.0718868970870972f, 2.2573091983795166f, 0.18777208030223846f,
    -0.21832075715065002f, 0.2542930841445923f, -0.3246893286705017f, 0.057018574327230453f, -0.22873426973819733f,
    0.48282092809677124f, 0.8976478576660156f, -1.641005516052246f, 0.6781943440437317f, -0.3582097291946411f,
    0.11067941039800644f, 0.6277519464492798f, 0.8968245387077332f, -0.021617025136947632f, -0.25306761264801025f,
    -0.4856411814689636f, 0.3958166837692261f, -0.2643001973628998f, 0.048437509685754776f, 0.22990770637989044f,
    0.384443074464798f, 0.2315075844526291f, 0.13714927434921265f, 0.4526281952857971f, 0.3036729097366333f,
    -0.10428676754236221f, 0.11293922364711761f, -1.2587980031967163f, -0.9904540181159973f, -1.2534284591674805f,
    1.4877148866653442f, 0.5471434593200684f, -0.2797209322452545f, -1.2323030233383179f, -1.674110770225525f,
    -1.6520401239395142f, -0.3880407214164734f, -0.24144533276557922f, -0.5564092397689819f, 0.10444892197847366f,
    0.23254120349884033f, -0.3079286813735962f, -0.06259322166442871f, -0.12187249213457108f, 0.2692483067512512f,
    0.4358929991722107f, -0.047834500670433044f, -1.1478557586669922f, 0.056294165551662445f, 0.1839432716369629f,
    1.9269593954086304f, -0.020420188084244728f, -0.6521932482719421f, -0.17152132093906403f, 0.33981117606163025f,
    -0.24935272336006165f, -0.6498798131942749f, -0.19310422241687775f, 0.1386207789182663f, 0.15004833042621613f,
    0.043034628033638f, 0.25213655829429626f, 0.3908170759677887f, -0.19035595655441284f, -0.20770587027072906f,
    -0.4334721863269806f, 0.14759604632854462f, -0.138270303606987f, 0.14791879057884216f, -0.029731430113315582f,
    0.22800886631011963f, -0.6410659551620483f, 1.38951575756073f, -0.5037161111831665f, -0.470247745513916f,
    0.1638849526643753f, -0.27383917570114136f, 0.5061139464378357f, 0.016200264915823936f, -0.5738152265548706f,
    0.20238220691680908f, -0.11937201023101807f, 0.08333800733089447f, 0.6758994460105896f, 0.8702341318130493f,
    -0.08755425363779068f, -0.13619965314865112f, -1.113276720046997f, 0.8000321984291077f, 0.043969761580228806f,
    -0.2802610993385315f, -0.05367126688361168f, -0.525316059589386f, 0.47804585099220276f, -0.15853992104530334f,
    0.048411775380373f, -0.33409154415130615f, 0.39722710847854614f, 0.4301477372646332f, -0.26173433661460876f,
    0.615462601184845f, -0.3349965214729309f, -0.2858146131038666f, -0.6059538125991821f, -0.06999054551124573f,
    0.3880046010017395f, -1.014561414718628f, 0.4016698896884918f, 0.3774271011352539f, 0.7197195291519165f,
    0.24489325284957886f, 0.18577100336551666f, -0.17925146222114563f, 0.402944952249527f, -0.6533703207969666f,
    -0.9512923955917358f, -0.6947715878486633f, -0.2787470519542694f, -0.6486135721206665f, -0.2432684749364853f,
    0.036901164799928665f, -0.06505122780799866f, -0.19631356000900269f, -0.213262677192688f, 0.09752612560987473f,
    0.08482765406370163f, -1.4996418952941895f, 0.21935975551605225f, 0.2951526939868927f, 0.23671409487724304f,
    0.05217691883444786f, -0.6137809157371521f, 0.6484055519104004f, 0.49621081352233887f, -0.24518321454524994f,
    0.7069995999336243f, -0.20489931106567383f, 0.07090878486633301f, -0.2630368769168854f, -0.5921692252159119f,
    0.2861429452896118f, 0.09047992527484894f, -0.2831847667694092f, -3.213918685913086f, 3.4409756660461426f,
    0.024017952382564545f, 0.019999999552965164f
};

static const float plexi_head_scale = 0.02f;
