/**
 * Hoopi Pedal - Dual-channel guitar and vocal effects processor
 * Copyright (c) 2025-2026 Scope Creep Labs LLC
 * SPDX-License-Identifier: MIT
 */

// Model: Vox AC 30
// Architecture: WaveNet, Channels: 4, Head: 2
// Weights: 842, Head scale: 0.02
#pragma once

// Raw float array for NamWavenet::load_weights()
static const float vox_ac_30_weights[842] = {
    0.06979745626449585f, 0.7474777698516846f, -0.2969450354576111f, -0.779924213886261f, -0.09382358193397522f,
    -0.22442448139190674f, 0.16924948990345f, 0.21501889824867249f, 0.22499102354049683f, -0.0374470017850399f,
    -0.08124855905771255f, -0.3081880807876587f, -0.1646445393562317f, -0.1699790060520172f, -0.36316561698913574f,
    0.13027118146419525f, -0.48266902565956116f, -0.4068561792373657f, -0.2933298945426941f, 0.5791155099868774f,
    0.3101271986961365f, 0.3417503833770752f, -0.7146728038787842f, 0.03639538213610649f, -0.14209607243537903f,
    -0.6478259563446045f, 0.07729507982730865f, -0.36322903633117676f, -0.32915356755256653f, 0.1395493894815445f,
    -0.46953192353248596f, 0.19537480175495148f, -0.5897155404090881f, 0.008376901969313622f, -0.12517289817333221f,
    0.15547437965869904f, -0.28958359360694885f, 0.2933056056499481f, 0.5262377262115479f, -0.008795666508376598f,
    -0.19909082353115082f, -0.11974358558654785f, -0.2794770896434784f, -0.25650596618652344f, -0.6458891034126282f,
    0.13106945157051086f, 0.18956197798252106f, 0.6229300498962402f, -0.37627723813056946f, -0.031688641756772995f,
    0.6152266263961792f, 0.0011736927554011345f, 0.20731577277183533f, -0.03548527508974075f, 0.13230857253074646f,
    -0.008745044469833374f, 0.09161676466464996f, -0.6588098406791687f, -0.5744091868400574f, -0.2543286085128784f,
    0.622883141040802f, 0.6731918454170227f, -0.3767413794994354f, -0.16587693989276886f, 0.49423766136169434f,
    0.058801114559173584f, -0.1787937432527542f, -0.15560734272003174f, 0.7099366784095764f, 0.9592389464378357f,
    -0.8780043721199036f, -0.6561881899833679f, 0.2332659363746643f, 0.10233543068170547f, 0.5552968382835388f,
    0.5209605693817139f, 0.12806226313114166f, -0.4825398325920105f, -0.15058712661266327f, -0.18953937292099f,
    -0.450361967086792f, 0.1880529671907425f, 0.2998998165130615f, -0.46764934062957764f, 0.045337654650211334f,
    0.008340969681739807f, -0.035826779901981354f, -0.0412740521132946f, 0.29382261633872986f, 0.010800103656947613f,
    0.032014213502407074f, 0.2994857132434845f, -0.24002261459827423f, -0.11665306240320206f, 0.22991015017032623f,
    -0.6666550040245056f, 0.000204532450879924f, 0.42822784185409546f, -0.6297788023948669f, -0.4495508074760437f,
    0.7507258653640747f, 0.7317511439323425f, -0.38076600432395935f, -0.5620954632759094f, -0.7322935461997986f,
    0.0795506164431572f, 0.22812065482139587f, -0.652867317199707f, 0.3552723526954651f, 0.2815243899822235f,
    -0.5990028977394104f, 0.23909536004066467f, 0.2658683955669403f, 0.13373887538909912f, -0.705801248550415f,
    -0.1284288614988327f, -0.03639063984155655f, -0.07287539541721344f, -0.14068056643009186f, -0.11369767785072327f,
    0.1117338240146637f, -0.18494001030921936f, 0.2675703763961792f, 0.3375377953052521f, -0.27268362045288086f,
    0.1737900972366333f, -0.23425640165805817f, 0.3054894804954529f, -0.13651016354560852f, -0.12432333827018738f,
    -0.056479986757040024f, 0.09134377539157867f, -0.586056113243103f, 0.797662079334259f, 0.6672331094741821f,
    -0.5830671191215515f, -0.5323050618171692f, -0.6291242241859436f, 0.3730033040046692f, 0.8821583986282349f,
    -0.03243876248598099f, 0.005124131683260202f, 0.3194279670715332f, 0.2307690978050232f, -1.106614112854004f,
    -0.020633365958929062f, 0.35315608978271484f, 0.29914358258247375f, -0.7269963622093201f, -0.8557476997375488f,
    -0.020011458545923233f, -0.8666355609893799f, -0.06210789456963539f, 0.16498598456382751f, 0.11961490660905838f,
    -0.18109925091266632f, 0.8849137425422668f, 0.4738439917564392f, -0.6401768922805786f, 0.47059744596481323f,
    -0.3803669810295105f, -1.1203858852386475f, 0.4077892601490021f, 0.2041536122560501f, -0.6281065940856934f,
    -0.0532110258936882f, -0.16649457812309265f, 1.4487605094909668f, -0.6986604332923889f, 0.06591758131980896f,
    0.6239895224571228f, 0.16152304410934448f, 0.8556553721427917f, 0.1718839704990387f, -0.6638803482055664f,
    0.19622871279716492f, 0.07076698541641235f, -0.6464272141456604f, -0.18855825066566467f, -0.040409501641988754f,
    0.5110601782798767f, -1.1399177312850952f, -0.2614475190639496f, -0.09656450152397156f, 0.14204639196395874f,
    0.136158287525177f, 0.7261407971382141f, 0.020830826833844185f, -0.16884121298789978f, 0.602674126625061f,
    -0.4773297607898712f, -0.27072247862815857f, -0.18808811902999878f, 0.13111989200115204f, 0.20894566178321838f,
    -0.07289400696754456f, -0.1360042244195938f, 0.483696848154068f, -0.45760250091552734f, -0.1470518410205841f,
    0.20888373255729675f, 0.29170936346054077f, -0.1608659327030182f, -0.3160880506038666f, 0.04923633113503456f,
    0.054319024085998535f, 0.10936654359102249f, 0.041785553097724915f, 0.1848692148923874f, -0.2632482647895813f,
    -0.16630291938781738f, 0.05035656318068504f, 0.01668933592736721f, -0.23301944136619568f, 0.7136746644973755f,
    -0.4906882047653198f, -0.4532238841056824f, -0.09720221906900406f, -0.07223108410835266f, -0.5695526599884033f,
    0.030511371791362762f, -0.05000682547688484f, 0.06850273907184601f, -0.6800140738487244f, -0.6424630284309387f,
    0.8285766839981079f, 0.37142473459243774f, 0.1376129537820816f, -0.15619304776191711f, -0.05548473820090294f,
    -0.11290190368890762f, 0.2487986534833908f, -0.1739933341741562f, 0.5388429760932922f, -0.18423107266426086f,
    -0.2341482788324356f, 0.8715351819992065f, -0.21032018959522247f, -0.5259730815887451f, 0.3077913820743561f,
    -0.031472593545913696f, 0.2699117958545685f, 0.5149044990539551f, 0.5699544548988342f, 0.30415278673171997f,
    -0.4618239104747772f, -0.43116632103919983f, -0.1532450169324875f, 0.09505276381969452f, -0.34337836503982544f,
    0.5584077835083008f, -0.23775435984134674f, 0.026656122878193855f, -0.6380654573440552f, -1.4151320457458496f,
    0.25016313791275024f, -0.03488694131374359f, 0.012624875642359257f, 0.34334489703178406f, 0.05222676321864128f,
    -0.0024535609409213066f, -0.2526930868625641f, -0.48188212513923645f, 0.1712053269147873f, 0.1003386527299881f,
    0.10171504318714142f, 0.22943741083145142f, 0.5489310026168823f, -0.11939381062984467f, -0.018270092085003853f,
    0.258622407913208f, 0.042636316269636154f, -0.20095564424991608f, 0.1257406324148178f, -0.1098283901810646f,
    -0.14270268380641937f, 0.36765289306640625f, 0.13206681609153748f, 0.03222100809216499f, -0.3974955677986145f,
    0.14644119143486023f, -0.24531421065330505f, -0.07695183902978897f, 0.03953079879283905f, -0.030160078778862953f,
    0.34071049094200134f, -1.1358095407485962f, 0.23751410841941833f, 0.12136860191822052f, -0.14080090820789337f,
    -1.0957227945327759f, -0.2916630506515503f, 0.059384558349847794f, -0.3292806148529053f, 0.45026659965515137f,
    -0.36821675300598145f, 0.7310378551483154f, -0.1893836408853531f, -0.18329860270023346f, -1.1987181901931763f,
    -0.3536549210548401f, 0.39123085141181946f, -0.05124733969569206f, 0.5338691473007202f, 0.0794166550040245f,
    -0.32475045323371887f, -0.06402462720870972f, 0.030728401616215706f, 0.42844468355178833f, 0.35639843344688416f,
    -0.07566163688898087f, 0.17638741433620453f, -0.0024171199183911085f, -0.12841498851776123f, 0.09470240771770477f,
    0.48116767406463623f, -1.3737211227416992f, 0.2134525328874588f, 0.36720865964889526f, 1.4372435808181763f,
    0.2203294187784195f, 0.09290280938148499f, -0.36705660820007324f, -0.11644282191991806f, 0.4970046877861023f,
    0.13126692175865173f, 0.24165664613246918f, -0.40564388036727905f, 0.10571669787168503f, -0.0467495322227478f,
    0.07679025083780289f, -0.20115575194358826f, -0.05475277453660965f, 0.18920695781707764f, -0.1493718922138214f,
    0.23956766724586487f, -0.174073725938797f, -0.07218378037214279f, 0.0528315007686615f, 0.511747419834137f,
    -0.5739315152168274f, -0.02505355142056942f, -0.11147233843803406f, 0.3050496578216553f, -0.2369862198829651f,
    0.10763680934906006f, 0.1704542338848114f, 0.5172460675239563f, 0.019536415114998817f, -0.3407439589500427f,
    -0.5567693114280701f, 0.372778058052063f, 0.16399013996124268f, -0.05693291500210762f, -0.6238768100738525f,
    0.08731671422719955f, -0.34962162375450134f, 0.21053022146224976f, -0.6796382069587708f, 0.16581092774868011f,
    0.31804123520851135f, 0.0004881620698142797f, 0.34628695249557495f, 0.15045948326587677f, 0.22703196108341217f,
    0.9991869330406189f, 0.4363178014755249f, -0.37525099515914917f, -0.45365235209465027f, 0.014738350175321102f,
    0.08888453990221024f, 0.5833385586738586f, -0.6290332674980164f, -0.7294191122055054f, -1.1344536542892456f,
    -0.5951863527297974f, 0.5855094790458679f, 1.926815390586853f, 0.18510399758815765f, 0.5238964557647705f,
    0.6830700635910034f, -0.13780109584331512f, -0.07160963863134384f, 0.5091373920440674f, 0.13503992557525635f,
    0.01522031519562006f, 0.28123968839645386f, 0.009912990964949131f, -0.09250818938016891f, 0.4846325218677521f,
    -0.12510095536708832f, -0.10003507137298584f, -0.21525800228118896f, -0.13953785598278046f, -0.040085822343826294f,
    -0.07232662290334702f, -0.30377352237701416f, -0.7772526741027832f, 0.20691466331481934f, -0.1553577333688736f,
    0.14715395867824554f, 0.21929927170276642f, 0.08226455003023148f, 0.7281556725502014f, -0.0557980015873909f,
    -0.042176637798547745f, 0.9003461599349976f, 0.09236877411603928f, 0.0368134081363678f, 0.4111449718475342f,
    -0.3351866900920868f, 0.10209456831216812f, -0.021919436752796173f, 0.049590446054935455f, -0.1884218007326126f,
    0.09919161349534988f, -0.08197528123855591f, 0.32907208800315857f, 0.035163428634405136f, -0.079056516289711f,
    0.3509061634540558f, -0.37015295028686523f, 0.01039098296314478f, 0.27655836939811707f, 0.13988430798053741f,
    -0.039639800786972046f, 0.09918063879013062f, -0.14938032627105713f, -0.00043247753637842834f, 0.08604518324136734f,
    -0.04498827084898949f, -0.06991280615329742f, 0.1700192242860794f, -0.09989815205335617f, -0.10068412125110626f,
    -0.08692241460084915f, -0.19637468457221985f, -0.5610202550888062f, 0.3725220263004303f, 0.10733027011156082f,
    -0.7702770829200745f, -0.4941968321800232f, 0.5629552006721497f, 0.5910642147064209f, -1.6988937854766846f,
    0.4291699528694153f, -0.4161977767944336f, -0.15418384969234467f, 0.17084740102291107f, -0.47645801305770874f,
    0.9149837493896484f, -0.14938080310821533f, 2.0337226390838623f, 0.19769704341888428f, -0.7903217673301697f,
    1.3930526971817017f, 0.019270440563559532f, 0.22835147380828857f, -0.4282250702381134f, 0.3842126429080963f,
    0.23578549921512604f, 0.2603292465209961f, -0.01551009900867939f, -0.06974516808986664f, 0.6735810041427612f,
    -0.07505527138710022f, -0.20477791130542755f, -0.34355127811431885f, -0.006013310048729181f, -0.06964845210313797f,
    -0.1450064480304718f, -0.064518041908741f, 0.08395430445671082f, 0.08743999898433685f, 0.18988563120365143f,
    0.07309531420469284f, 0.2476397454738617f, -0.3806098699569702f, -0.03353347256779671f, -0.03031320497393608f,
    -0.15679319202899933f, -0.0005379122449085116f, 0.039961572736501694f, 0.3062215745449066f, -0.26221299171447754f,
    -0.14670102298259735f, 0.0721573680639267f, 0.35457056760787964f, -0.13704510033130646f, 0.04511565342545509f,
    0.36988508701324463f, 0.01705133728682995f, -0.041075050830841064f, -0.006623662542551756f, -0.0031460635364055634f,
    -0.13491041958332062f, 0.15744377672672272f, -0.2711002230644226f, 0.04793450981378555f, -0.03901834785938263f,
    -0.0031491087283939123f, 0.22561635076999664f, 0.09405230730772018f, -0.16260327398777008f, 0.0048920451663434505f,
    0.2866911292076111f, -0.003769849892705679f, 0.1814587265253067f, 0.5717064738273621f, 0.07806994765996933f,
    -0.01597345620393753f, 0.184711754322052f, 0.09120237827301025f, 0.029714887961745262f, 0.014768267050385475f,
    -0.8742942214012146f, 0.1171487495303154f, 0.07591191679239273f, 0.16004085540771484f, 0.3758317232131958f,
    0.5530409216880798f, -0.09957338869571686f, -0.13241924345493317f, -0.5929206609725952f, -0.6328845024108887f,
    -0.37651506066322327f, 0.7139041423797607f, -0.1685130000114441f, -0.2331298142671585f, 0.2798965275287628f,
    0.8178547024726868f, 1.2642685174942017f, -0.45966196060180664f, -0.5364682078361511f, -0.23593826591968536f,
    0.3317168354988098f, -0.07803457230329514f, 0.02766859158873558f, -0.22237452864646912f, 0.03443816304206848f,
    -0.3268813192844391f, -0.253654807806015f, -0.040388934314250946f, -0.19807320833206177f, 0.18601731956005096f,
    0.197111576795578f, -0.24803492426872253f, 0.0005541080026887357f, 0.03895290195941925f, 0.20387747883796692f,
    -0.12348680943250656f, -0.11269883066415787f, 0.07261208444833755f, -0.06687334179878235f, -0.04984894394874573f,
    -0.005166945978999138f, -0.15233691036701202f, -0.3194755017757416f, -0.011953124776482582f, -0.08016713708639145f,
    -0.33351436257362366f, 0.04451665282249451f, -0.07989342510700226f, 0.12537547945976257f, 0.08809048682451248f,
    0.157570019364357f, 0.18170423805713654f, -0.2558833360671997f, 0.774947464466095f, -0.08131246268749237f,
    1.0485976934432983f, 0.6267338991165161f, -0.27337831258773804f, -0.40984776616096497f, 0.18482303619384766f,
    0.0671636089682579f, 0.022237055003643036f, -0.37590116262435913f, 0.2634037137031555f, 0.32061976194381714f,
    -0.07955965399742126f, 0.02953430637717247f, -0.28203171491622925f, -0.2651238739490509f, 0.07016719877719879f,
    0.3964828848838806f, 0.20666129887104034f, 0.010684316046535969f, -0.08927690237760544f, 0.18018990755081177f,
    -0.501976490020752f, -0.42722076177597046f, -1.1835228204727173f, 0.42726150155067444f, 0.2616345286369324f,
    0.3293702304363251f, -0.1389802098274231f, -0.13980215787887573f, 0.5183757543563843f, -0.028783082962036133f,
    -0.1625874787569046f, -0.4423315227031708f, -0.14143307507038116f, 0.38029927015304565f, -0.08915920555591583f,
    -0.05948730185627937f, -0.3453540503978729f, 0.01843566633760929f, -0.3480778932571411f, 0.02562875859439373f,
    -0.16637779772281647f, -0.47792670130729675f, 0.17494818568229675f, 0.15383492410182953f, -0.01135040633380413f,
    0.4869108498096466f, 0.33143332600593567f, 0.13321630656719208f, 0.2644473612308502f, 0.564220666885376f,
    -0.5611175894737244f, -0.4239611029624939f, -0.943547785282135f, 0.6538650989532471f, -0.45349884033203125f,
    -0.4278321862220764f, 0.5841943025588989f, -0.11517994105815887f, -0.38067880272865295f, 0.22196748852729797f,
    -0.03291293978691101f, 0.09487482160329819f, -0.14686965942382812f, -0.018596503883600235f, 0.3422996401786804f,
    -0.8641047477722168f, -0.46231940388679504f, -0.5754567384719849f, -0.4634554386138916f, 0.3832980990409851f,
    -0.3604484796524048f, 1.0560051202774048f, -0.4042428135871887f, -0.26549506187438965f, -0.8376915454864502f,
    0.6048946976661682f, 0.05372576043009758f, 0.13281773030757904f, -0.45277729630470276f, 0.3276542127132416f,
    0.3827420175075531f, -0.26006051898002625f, 0.2750449776649475f, -0.2740614712238312f, -0.1609082818031311f,
    -0.0328420028090477f, 0.0748276486992836f, 1.2635345458984375f, -0.2720339000225067f, 0.9260939359664917f,
    -0.0866427943110466f, -0.07187416404485703f, 0.25075680017471313f, 0.4225773513317108f, -0.023884378373622894f,
    0.5117799043655396f, -0.2830328345298767f, -0.3203204572200775f, 0.05321710556745529f, -0.08096785098314285f,
    -0.10808640718460083f, -0.5324892997741699f, -0.4539925456047058f, 0.39725759625434875f, 0.050907209515571594f,
    0.18418195843696594f, -0.04951031133532524f, -0.28685182332992554f, 0.23517203330993652f, -0.8657634258270264f,
    0.9885966777801514f, -0.05356859788298607f, -0.08401542901992798f, 0.29236775636672974f, 0.22821691632270813f,
    0.048003386706113815f, 0.2947578728199005f, -0.2687205970287323f, 0.0289187952876091f, 0.23142950236797333f,
    -0.12089195847511292f, 0.5849925875663757f, -0.13504010438919067f, -0.07618527114391327f, -0.30847764015197754f,
    0.5957808494567871f, 0.08849623799324036f, -0.13342471420764923f, 0.06088779866695404f, 0.08273132145404816f,
    -0.4271295964717865f, 0.44344526529312134f, -1.3975236415863037f, -0.3918367922306061f, -0.4243335723876953f,
    0.14194218814373016f, 0.040785565972328186f, 0.5182129144668579f, 0.23528169095516205f, 0.1968631148338318f,
    -0.12588699162006378f, -0.1327485740184784f, 0.008028379641473293f, -0.5694752931594849f, -0.017971523106098175f,
    0.28615862131118774f, -0.2177567481994629f, -0.5166691541671753f, 0.3540312349796295f, -0.008721786551177502f,
    0.18327270448207855f, -0.10376597195863724f, 0.6840440630912781f, -1.2467005252838135f, 0.0883437767624855f,
    0.9108223915100098f, 0.8183000683784485f, -0.3329765200614929f, 0.15132814645767212f, 0.4398454427719116f,
    0.15337903797626495f, -0.19736063480377197f, -0.0568062998354435f, 0.2567248046398163f, -0.060088083148002625f,
    -0.22885893285274506f, -0.06418242305517197f, -0.3645462393760681f, 0.010054646991193295f, 0.043218277394771576f,
    -0.032721858471632004f, 0.05889454856514931f, -0.32509714365005493f, -0.006565830670297146f, 0.2870005667209625f,
    0.9934672713279724f, -0.037128746509552f, 0.9573009014129639f, -0.012583449482917786f, -0.08348356932401657f,
    -0.1748296618461609f, 0.7130510807037354f, 0.3129565715789795f, 0.33543017506599426f, 0.7473177313804626f,
    0.23328520357608795f, -0.19242611527442932f, -0.041142407804727554f, -0.11826168745756149f, -0.30269578099250793f,
    -0.47108036279678345f, 0.21679647266864777f, -0.3070955276489258f, 0.0782242938876152f, 0.3516128659248352f,
    -0.10560418665409088f, -0.28830891847610474f, 0.4628615081310272f, -0.06962194293737411f, -1.3189382553100586f,
    0.1983853429555893f, -0.3735686242580414f, -0.01698950119316578f, -0.041696928441524506f, 0.11664754152297974f,
    -0.12336359173059464f, 0.631260097026825f, 0.17396706342697144f, 0.344917893409729f, 0.16777105629444122f,
    -0.3151604235172272f, 0.37065088748931885f, -0.17019091546535492f, 0.3294707238674164f, -0.009401645511388779f,
    -0.029241252690553665f, -0.1780899316072464f, 0.09582483768463135f, 1.7933909893035889f, 0.6776778697967529f,
    -1.254492998123169f, -1.2230061292648315f, 0.5098217725753784f, 0.13694782555103302f, -0.08091406524181366f,
    -0.24227961897850037f, 0.04023375362157822f, -0.010689448565244675f, -0.4871903955936432f, -0.318844199180603f,
    -0.2680756151676178f, 0.5087823867797852f, -0.3090590834617615f, -0.2177058309316635f, 0.062148600816726685f,
    0.5198628306388855f, 0.301617294549942f, -0.07742565125226974f, -0.0055191414430737495f, -0.07705999910831451f,
    -0.14786924421787262f, 1.9542222023010254f, 2.962731122970581f, 0.31052762269973755f, -0.24687789380550385f,
    0.12249791622161865f, -0.1536012589931488f, -0.14322112500667572f, 0.15514105558395386f, -0.353116512298584f,
    0.5274448990821838f, 0.11036860197782516f, 0.19342312216758728f, 0.2542014718055725f, -0.23612190783023834f,
    0.3497752249240875f, -0.42158764600753784f, -0.1742783784866333f, 0.024963149800896645f, 0.15750668942928314f,
    0.06189105659723282f, 0.1449519544839859f, 0.07090878486633301f, -0.2630368769168854f, -0.5921692252159119f,
    0.2861429452896118f, 0.09047992527484894f, -0.2831847667694092f, -3.661100149154663f, 2.290942430496216f,
    -0.404935359954834f, 0.019999999552965164f
};

static const float vox_ac_30_head_scale = 0.02f;
